<?xml version="1.0"?>
<opencv_storage>
<my_svm type_id="opencv-ml-svm">
  <svm_type>C_SVC</svm_type>
  <kernel><type>LINEAR</type></kernel>
  <C>2.</C>
  <term_criteria><epsilon>9.9999997764825821e-003</epsilon>
    <iterations>2147483647</iterations></term_criteria>
  <var_all>3780</var_all>
  <var_count>3780</var_count>
  <class_count>2</class_count>
  <class_labels type_id="opencv-matrix">
    <rows>1</rows>
    <cols>2</cols>
    <dt>i</dt>
    <data>
      -1 1</data></class_labels>
  <sv_total>1</sv_total>
  <support_vectors>
    <_>
      -3.12731415e-001 5.08921482e-002 3.24643284e-001 -4.81711514e-002
      -4.35298681e-001 -3.49580169e-001 5.52988797e-002 2.73433387e-001
      -4.39414263e-001 -6.89853728e-002 1.31201670e-002 -1.16886549e-001
      -1.22932702e-001 -1.17117897e-001 -1.19626865e-001 1.29364863e-001
      7.00208098e-002 -2.05120191e-001 -2.68405586e-001 1.55026406e-001
      1.52173936e-001 -1.09380845e-003 -1.73061177e-001 -1.41820937e-001
      2.47477889e-001 1.80371150e-001 -1.31285354e-001 2.00847350e-002
      1.32515997e-001 -4.49172370e-002 -7.40987062e-002 1.91944405e-001
      -3.48978698e-001 1.04697920e-001 6.83419257e-002 -1.18521908e-002
      1.88881665e-001 -1.52521759e-001 -1.14912884e-002 7.71409944e-002
      -3.26320715e-002 -1.85338482e-001 -1.61120668e-001
      -1.43327534e-001 -1.05143460e-002 1.81467354e-001 5.02686128e-002
      -2.83881426e-001 1.16373627e-002 1.34710986e-002 -1.77640244e-001
      -1.93918914e-001 6.71211928e-002 1.00747697e-001 -9.12341401e-002
      1.53920457e-001 -6.32800981e-002 3.13537493e-002 -8.26099142e-002
      -1.64077088e-001 -4.09121215e-002 -9.37519297e-002
      -1.46131009e-001 -1.14296600e-002 6.10178635e-002 -1.89592242e-001
      -5.97859882e-002 9.14538726e-002 1.33370355e-001 -3.40540200e-001
      -8.98248479e-002 5.67963645e-002 -2.07939044e-001 9.98028070e-002
      1.20025009e-001 1.05182029e-001 5.32782264e-002 -6.91289008e-002
      -7.43364319e-002 2.07724348e-001 4.65135872e-002 7.40615875e-002
      8.20231959e-002 4.58947599e-001 -2.28393450e-002 1.20945357e-001
      -1.03080422e-001 -1.09961070e-001 1.80023268e-001 2.29689330e-002
      4.90712896e-002 1.17849126e-001 -1.69629067e-001 -8.46207589e-002
      -1.47316493e-002 1.26108021e-001 -1.13954701e-001 -1.40155435e-001
      9.64313075e-002 3.71160135e-002 -9.25413817e-002 -1.73225954e-001
      1.58617377e-001 -1.50041267e-001 -3.26569043e-002 -5.06569967e-002
      -1.01260357e-001 4.84203175e-003 2.35680178e-001 -1.88012987e-001
      3.71333152e-001 2.21732989e-001 2.48785660e-001 -3.27048928e-001
      -2.21518412e-001 -2.37438753e-001 -4.38308008e-002
      -2.45255709e-001 1.65229052e-001 2.27060094e-001 4.68605608e-002
      -2.40618959e-001 -1.71188369e-001 2.07178462e-002 -4.28456515e-002
      -2.63438113e-002 -8.24082643e-002 -3.63995701e-001
      -5.55337183e-002 1.03780016e-001 1.16915926e-002 -1.58378705e-001
      1.28335565e-001 -1.96246758e-001 1.13520371e-002 -1.38251334e-001
      -1.52872190e-001 -2.69382820e-002 6.45334348e-002 -6.25187084e-002
      -6.17531780e-003 -1.84342023e-002 7.33649358e-002 7.85746276e-002
      -2.78500587e-001 1.02971435e-001 2.73393482e-001 3.44807133e-002
      -1.58084720e-001 -2.24669084e-001 7.57108256e-002 -2.12886184e-001
      -1.69335648e-001 -3.52727056e-001 2.78587312e-001 4.87583369e-001
      7.18249707e-003 -1.83542386e-001 -3.45035493e-002 1.23922847e-001
      1.64225951e-001 -9.12039131e-002 -1.49481386e-001 -1.72373012e-001
      -1.47950083e-001 -1.85368955e-001 1.99043266e-002 -1.21099345e-001
      1.69695131e-002 -2.80815721e-001 2.28592083e-001 -2.62284845e-001
      -2.93565542e-001 -7.06934705e-002 -3.17224860e-001
      -4.66329418e-002 -8.14250484e-002 1.30379319e-001 8.55560452e-002
      3.77018675e-002 -1.48859322e-001 -5.73977381e-002 2.01136380e-001
      2.19692722e-001 -2.55456924e-001 -1.25434577e-001 -6.47799149e-002
      -1.07548684e-001 -1.53739318e-001 -8.22506025e-002
      -1.44297317e-001 -1.83322236e-001 -2.15012431e-001 1.33999974e-001
      -1.21698841e-001 1.79821715e-001 -1.75707996e-001 -1.48233235e-001
      -5.84951863e-002 -2.18201488e-001 1.96648329e-001 3.25580360e-004
      2.49114290e-001 3.51973698e-002 2.80490462e-002 1.19979703e-003
      1.32137358e-001 -1.49446666e-001 -2.25854263e-001 3.78466956e-002
      -2.59349138e-001 -1.24642998e-001 4.73206826e-002 2.74105854e-002
      1.31781846e-001 4.94975895e-002 1.36034906e-001 2.14390859e-001
      1.43169150e-001 -2.52358794e-001 -1.76796854e-001 -1.36723146e-001
      2.81921774e-001 -1.90775707e-001 -1.29335940e-001 4.97673415e-002
      1.43473834e-001 5.59242163e-003 -9.56516862e-002 -1.82693020e-001
      1.10346593e-001 7.12474734e-002 -7.46762678e-002 -8.81868973e-003
      -6.44622520e-002 3.75709273e-002 6.36858791e-002 -3.58654298e-002
      -1.33171409e-001 -1.41714513e-001 1.00972749e-001 -2.75810242e-001
      -2.52960503e-001 -1.22931980e-001 1.35404736e-001 -1.36245579e-001
      1.06012464e-001 8.72482508e-002 1.14333838e-001 -2.21295744e-001
      -7.56635368e-002 -2.09339887e-001 -1.64202988e-001 1.35379374e-001
      -1.15395948e-001 -2.28245437e-001 -8.63857716e-002
      -7.26078823e-003 1.02836773e-001 7.51442611e-002 3.99040468e-002
      1.17704608e-001 4.30908859e-001 3.50996196e-001 2.06277389e-002
      1.97096332e-003 1.94410622e-001 2.52506644e-001 1.12531677e-001
      1.87623963e-001 -2.86072552e-001 -1.52520850e-001 -1.61491737e-001
      -1.97159648e-001 -2.70390566e-002 -6.23246329e-003
      -2.58552134e-001 -6.06699437e-002 1.60108402e-001 -1.96986973e-001
      6.19709678e-003 2.92764902e-001 1.70080364e-001 8.12635347e-002
      -9.24838800e-003 -1.04344785e-001 -3.97089049e-002 1.73672095e-001
      9.16793123e-002 1.91811383e-001 2.12450325e-001 -8.83325040e-002
      2.76385933e-001 1.22537561e-001 -2.91507244e-002 -2.88560212e-001
      -5.11962734e-002 -2.10027285e-002 1.89323276e-001 1.03599675e-001
      -4.29211929e-002 2.95583648e-003 -2.83823133e-001 -3.42098959e-002
      -6.88951313e-002 -1.94760226e-002 -2.54859757e-002
      -2.45236918e-001 2.52154022e-001 -1.93231091e-001 6.52502701e-002
      -8.35986361e-002 -2.46375948e-001 -1.89331725e-001 5.25315851e-002
      -6.73702881e-002 5.39137162e-002 1.20025121e-001 -1.83375657e-001
      -4.85090278e-002 -2.63461769e-001 -4.42384779e-002
      -5.71682453e-002 2.59665638e-001 -3.50794569e-002 -6.38751173e-003
      -2.06535414e-001 1.80169672e-001 1.65022418e-001 -2.88949274e-002
      1.04718149e-001 3.00833464e-001 -2.38851845e-001 5.34341186e-002
      1.01270139e-001 -8.40503350e-002 1.77453175e-001 4.10872668e-001
      8.08462575e-002 7.59829432e-002 -1.08516760e-001 1.83383524e-002
      -2.37281080e-002 5.96776754e-002 -1.35766998e-001 -2.72043794e-001
      -8.08583573e-002 -1.41867608e-001 2.92972624e-001 -8.25939029e-002
      5.93110509e-002 5.63973486e-002 -6.78355023e-002 3.84933013e-003
      4.91682999e-002 2.55740911e-001 -2.33301502e-002 3.80133726e-002
      -1.35792241e-001 6.27355129e-002 1.33364737e-001 2.22611040e-001
      4.76439893e-002 -6.28725737e-002 -1.09295003e-001 7.11828545e-002
      -1.08674720e-001 -8.62597600e-002 2.32240453e-001 1.54026598e-001
      1.34562105e-001 2.45408416e-001 -3.56516428e-002 1.35376438e-001
      1.15220353e-001 3.63764912e-002 1.52753461e-002 1.65402353e-001
      2.26397753e-001 -2.40566492e-001 -5.87879345e-002 -9.22938287e-002
      -2.79953927e-001 1.32974073e-001 7.47290850e-002 9.15750936e-002
      1.07628264e-001 1.94165319e-001 -3.66745517e-002 -1.59803480e-002
      -7.47844204e-002 -1.17927372e-001 8.30946192e-002 -3.82026248e-002
      -3.71650040e-001 1.28868790e-002 2.95015693e-001 -4.83717620e-002
      3.25269401e-001 1.14634410e-001 -7.76069164e-002 3.32270652e-001
      4.89092655e-002 -1.84732117e-002 2.07493007e-001 -1.59876108e-001
      -2.49151200e-001 -1.59678161e-001 -5.90872765e-002
      -1.88158706e-001 -1.03210948e-001 8.74389932e-002 -1.00642845e-001
      2.43333861e-001 -8.81589204e-003 -1.29043683e-001 5.44393808e-002
      -4.97391149e-002 1.70228213e-001 2.83284694e-001 6.30301684e-002
      2.90779360e-002 1.53066501e-001 -5.51218353e-002 -1.11240618e-001
      1.74862474e-001 9.40520409e-003 2.55491018e-001 -2.11527467e-001
      -2.99496781e-002 -5.44402823e-002 3.05061266e-002 6.85658082e-002
      -2.60940921e-002 9.49513242e-002 1.61459699e-001 -8.87023211e-002
      -8.09758157e-002 3.33585553e-002 9.65156313e-003 4.06959914e-002
      1.47171453e-001 3.02814752e-001 -1.02534145e-001 1.45903844e-002
      -1.87670261e-001 -1.95841834e-001 1.20015414e-002 2.00032651e-001
      -1.97037868e-002 -1.80632681e-001 1.60405084e-001 1.75619200e-001
      -1.22151047e-001 2.17688680e-001 -3.16985279e-001 -2.76216120e-001
      -9.08867866e-002 -7.12976158e-002 2.17627287e-001 -1.37748063e-001
      5.62109053e-002 4.21315394e-002 3.26322496e-001 4.19663899e-002
      -4.17231955e-002 3.39010090e-001 3.22942343e-003 -5.77060767e-002
      4.62923735e-001 -4.54354770e-002 -9.98057500e-002 -2.46165380e-001
      2.27626860e-001 -7.27588683e-003 3.58426087e-002 -2.85767876e-002
      -1.87168404e-001 2.43782043e-001 1.50387570e-001 -1.15059532e-001
      -3.26415420e-001 2.68783391e-001 3.19206677e-002 -2.05073386e-001
      -2.03101314e-003 2.24697426e-001 -2.16014218e-002 -1.54571459e-001
      -8.70126039e-002 3.19270372e-001 2.06905290e-001 -1.26880959e-001
      3.91452201e-002 3.81390378e-002 3.41650518e-003 5.59652597e-002
      -1.42026812e-001 -1.12075575e-001 2.35298891e-002 3.97503227e-001
      -1.14433758e-001 -4.88194257e-001 -1.51693672e-001
      -1.42985955e-001 -1.04907520e-001 -1.28588378e-001
      -3.16785336e-001 -2.11037472e-001 1.56097218e-001 1.73845198e-002
      1.21275820e-001 4.05619025e-001 2.12808996e-001 2.70490348e-001
      -2.13472337e-001 6.54734895e-002 2.15732884e-002 -3.55368197e-001
      1.73848480e-001 1.26964822e-001 2.84907639e-001 -5.66467583e-001
      -3.62175286e-001 -3.58174890e-001 -1.79874152e-001
      -8.65126103e-002 -2.01351270e-001 -6.97458088e-002
      -2.06142426e-001 -3.89032602e-001 -8.85351747e-002 1.05316013e-001
      -7.41729215e-002 -5.82511202e-002 -1.83446124e-001
      -4.54258025e-001 5.64955026e-002 -3.70364822e-002 4.28785458e-002
      -3.19938302e-001 -3.90912630e-002 3.45910117e-002 3.37985694e-001
      -1.86129704e-001 1.33620620e-001 1.74775407e-001 4.05555725e-001
      1.19843341e-001 -2.24727869e-001 -4.34667990e-003 7.49199614e-002
      2.84617305e-001 9.43955686e-003 -3.96763235e-002 -1.45950705e-001
      -1.23876438e-001 -2.47153178e-001 -3.80932391e-002
      -1.14558682e-001 -1.58381343e-001 -2.32028306e-001
      -1.42087072e-001 1.83566868e-001 1.86214104e-001 2.29395285e-001
      3.37467372e-001 5.31522185e-002 1.38479233e-001 1.69916213e-001
      1.35013223e-001 1.43143728e-001 1.33125663e-001 -2.90762544e-001
      -2.18584955e-001 -1.87774897e-001 1.27706826e-001 4.25651282e-001
      6.97280690e-002 2.26989537e-002 -5.39717963e-003 3.38646621e-001
      6.99070562e-003 3.12636271e-002 -7.44342357e-002 4.90542054e-002
      1.45020127e-001 -1.72048464e-001 -1.42850503e-001 -5.36051728e-002
      1.03083521e-001 -1.15545809e-001 -7.94549957e-002 -4.71770428e-002
      1.51109038e-004 1.27884954e-001 -4.92997840e-002 -2.99324572e-001
      -3.35257977e-001 1.24063948e-002 -6.64160177e-002 -1.11742400e-001
      -1.43113062e-001 7.26020336e-002 1.25271082e-001 -4.69931914e-003
      -7.41572604e-002 -2.97317326e-001 -1.56255752e-001
      -4.19370867e-002 -2.72190005e-001 -1.74947739e-001 2.35327303e-001
      -2.39621982e-001 -3.36489528e-001 -1.09831259e-001
      -1.15444839e-001 9.43360291e-003 6.40670881e-002 8.88578873e-003
      -4.55135405e-002 3.77387367e-002 -4.16872054e-002 -2.27613106e-001
      4.46340442e-002 -4.68053073e-002 1.10854052e-001 2.78462082e-001
      3.99475724e-001 6.51943237e-002 -3.76459360e-002 -2.22399861e-001
      -5.13343990e-001 -1.33846134e-001 -3.58244717e-001
      -1.86569721e-001 2.93777306e-002 -2.62429684e-001 2.75642961e-001
      -1.39686480e-001 -1.18154466e-001 -2.58897662e-001 1.33119404e-001
      9.05503482e-002 1.35258079e-001 -8.31866041e-002 2.51910269e-001
      3.19193482e-001 -3.92836869e-001 -1.99945092e-001 -1.00473380e-002
      -1.28970062e-003 2.64948364e-002 -3.89493033e-002 1.32434413e-001
      -7.71265803e-003 -3.73619169e-001 -8.62267911e-002
      -1.51511550e-001 1.17405519e-001 8.17473456e-002 2.87596732e-001
      1.40007168e-001 3.27579618e-001 2.23594785e-001 -7.71059692e-002
      -8.66883174e-002 -2.87907630e-001 2.36278802e-001 5.36368005e-002
      2.00410709e-001 1.24390639e-001 5.09184934e-002 2.07332186e-002
      9.33319237e-003 1.88712642e-001 -2.84867138e-001 1.38811886e-001
      -2.07042601e-002 2.21122243e-002 5.18047363e-002 1.73367545e-001
      -4.96217534e-002 -1.81913804e-002 -9.48279873e-002
      -1.50025517e-001 -1.30505180e-002 7.49322399e-002 2.01760996e-002
      -5.33078611e-003 1.51094377e-001 3.85600664e-002 1.48832783e-001
      -1.86673030e-002 -1.44027680e-001 -2.39604674e-002 4.92622629e-002
      -5.59427515e-002 -1.38865963e-001 -5.05271927e-002
      -4.01857980e-002 -2.27245153e-003 -3.56589188e-003
      -5.25927208e-002 2.44911104e-001 9.09191892e-002 7.56231025e-002
      -1.17145233e-001 -5.53635415e-003 -8.60383660e-002 3.61247174e-002
      3.50393890e-003 2.89425906e-002 7.65333101e-002 1.25290632e-001
      -2.87508756e-001 -1.73234940e-001 2.85004437e-001 -7.81580284e-002
      1.09103300e-001 1.10923477e-001 4.44818921e-002 -5.00825010e-002
      -7.50284344e-002 1.59390327e-002 -8.71932656e-002 -2.02556312e-001
      -1.25758961e-001 5.31968661e-002 9.09814686e-002 -2.09695473e-002
      4.61439490e-002 -3.28880489e-001 -5.85838109e-002 -6.08120151e-002
      -4.89015430e-002 2.62325574e-002 1.05961420e-001 -9.93500128e-002
      3.11691798e-002 7.32068392e-003 1.36953697e-001 5.53105101e-002
      1.40861943e-001 1.10361408e-002 -2.07009196e-001 1.66297883e-001
      -6.88930452e-002 -1.49030918e-002 -3.81765552e-002
      -1.02840200e-001 -1.77242644e-002 3.52424771e-001 1.53602809e-001
      -2.04992648e-002 -1.59279611e-002 -6.69358224e-002
      -1.52031273e-001 -8.49082321e-002 -8.46470967e-002 6.92899674e-002
      8.15736651e-002 1.00510612e-001 -6.52652681e-002 6.64082393e-002
      -1.58767551e-001 -2.39239056e-002 -1.39690310e-001 1.58570796e-001
      7.88207799e-002 5.29472670e-003 -7.81877041e-002 -2.24172309e-001
      5.93408244e-003 -2.42712796e-001 -4.28486705e-001 -2.29794696e-001
      -2.84438163e-001 6.86722400e-004 1.28331959e-001 9.61605757e-002
      1.39234036e-001 1.68855622e-001 -3.26139778e-001 -2.66468316e-001
      -2.11630285e-001 7.41037130e-002 2.13292360e-001 5.91864772e-002
      2.49358073e-001 -1.84657171e-001 -2.44566634e-001 -1.57869413e-001
      -8.91649351e-002 -1.59815267e-001 -6.70312159e-003
      -4.36381884e-002 1.14289388e-001 -8.56219828e-002 -1.36446059e-001
      6.00468032e-002 -8.60675573e-002 -1.60521969e-001 -3.57378609e-002
      -4.41320166e-002 -2.44847804e-001 1.18251801e-001 3.91079038e-002
      7.95117095e-002 3.22968870e-001 -1.47212386e-001 1.95545126e-002
      1.45080626e-001 1.77594125e-001 5.54414056e-002 2.37216540e-002
      1.35193542e-002 -1.00024424e-001 -1.72040284e-001 -1.98562026e-001
      2.58351788e-002 -1.16141908e-001 1.41302004e-001 -3.73578258e-002
      2.83522427e-001 5.08661568e-002 -2.54014194e-001 1.86063908e-002
      -1.82642773e-001 -3.01625252e-001 -1.10041521e-001
      -3.10353965e-001 -1.79943144e-002 -2.75961589e-002
      -6.63029999e-002 -1.81011502e-002 6.24282937e-003 7.59854391e-002
      -1.10426471e-001 8.48753899e-002 6.94689080e-002 -5.32380007e-002
      -6.95199370e-002 -1.64865050e-002 -1.42102644e-001 5.44900037e-002
      -2.70656765e-001 -9.32337642e-002 -3.94017883e-002 1.82088360e-001
      -1.31819963e-001 -7.56685808e-003 -1.37675792e-001
      -3.03754181e-001 1.61601941e-003 3.59076895e-002 2.53541231e-001
      2.52133340e-001 2.49605551e-001 -3.41440663e-002 2.18557920e-002
      3.37766558e-001 -1.26085952e-001 -3.13008219e-001 1.56741276e-001
      1.78946063e-001 -2.42367536e-002 -2.11163759e-002 8.28729048e-002
      -4.38689739e-002 1.17219843e-001 -2.78085738e-001 -2.42410883e-001
      -2.53250021e-002 -1.54888406e-001 -7.20951930e-002
      -1.69816196e-001 8.90352950e-002 -2.36379400e-001 -2.50140160e-001
      -2.01447383e-002 1.63099557e-001 1.18548706e-001 1.00971147e-001
      1.36945352e-001 -1.19402610e-001 -5.74288666e-002 5.50106205e-002
      2.27399498e-001 -1.84850812e-001 -2.33082071e-001 -2.69990385e-001
      -2.88781244e-002 3.24915238e-002 -1.87538579e-001 3.81115302e-002
      -1.35788843e-001 -1.27059504e-001 1.51366904e-001 -4.82889041e-002
      2.82308236e-002 -1.04797840e-001 1.28584176e-001 8.04028511e-002
      -2.28777722e-001 8.32640678e-002 1.80237904e-001 2.43082330e-001
      1.61777288e-001 -3.09121311e-001 9.47703198e-002 -6.21566884e-002
      4.91964072e-002 1.14970677e-001 -3.55799831e-002 1.00091390e-001
      5.60476407e-002 2.01506242e-002 -1.24940895e-001 -1.64097965e-001
      1.24810450e-001 2.37725042e-002 -9.94604379e-002 5.03241681e-002
      2.80686617e-001 1.97783127e-001 -5.45782931e-002 3.72216478e-002
      -2.84734415e-003 -9.40573961e-002 2.26300746e-001 -1.46683350e-001
      1.28667220e-001 3.39085966e-001 1.30813885e-002 -2.14469984e-001
      6.48040101e-002 -4.12527844e-002 -1.41039774e-001 -5.68276318e-003
      -5.08942790e-002 5.61094005e-003 -2.82820463e-002 1.21469922e-001
      1.56527087e-001 -3.46169472e-002 -1.52681723e-001 1.21430736e-002
      -6.93675876e-002 -1.30316943e-001 -8.20411742e-002
      -2.58879840e-001 2.03871861e-001 8.54134336e-002 1.67580605e-001
      -1.31636754e-001 -7.78366476e-002 -1.32110873e-002 1.66289821e-001
      2.91615054e-002 1.11534894e-001 1.08932830e-001 1.76044926e-002
      7.93300476e-003 9.32346657e-002 -1.01455852e-001 9.44903195e-002
      -6.37635365e-002 -1.42062515e-001 2.17541289e-002 1.32204115e-001
      1.62631553e-002 -1.70816660e-001 4.09969464e-002 1.27332643e-001
      -1.15615770e-001 -7.92731270e-002 -2.58204967e-001
      -2.90388288e-003 1.12220652e-001 -1.34078547e-001 5.37759401e-002
      4.72665243e-002 9.80993062e-002 1.06308982e-001 2.71199457e-003
      1.37131214e-001 2.86300033e-001 4.49892312e-001 8.49294439e-002
      -1.72281563e-001 1.42732710e-001 8.89956430e-002 -6.40699640e-002
      -5.31901270e-002 -4.47468162e-002 2.38717720e-001 1.83560252e-001
      8.63211080e-002 -4.29764181e-001 2.07910404e-001 4.38887179e-002
      -5.16606383e-002 -1.48335293e-001 1.33742601e-001 1.98203232e-003
      3.88423949e-002 1.85812041e-001 1.81952432e-001 1.17104545e-001
      1.02572016e-001 -9.69814020e-004 -5.20981010e-003 9.97443646e-002
      2.15064958e-001 3.46053451e-001 2.77318865e-001 7.37204477e-002
      1.90766513e-001 5.07452572e-003 -9.06133950e-002 -2.82185555e-001
      2.57581204e-001 -3.86489518e-002 -3.04231569e-002 7.08735967e-003
      -2.03146189e-001 1.14950188e-001 1.17297210e-001 -7.16322362e-002
      -2.21304774e-001 -8.85545015e-002 7.80594498e-002 1.48486435e-001
      1.03919953e-001 -5.97468987e-002 -2.02857517e-002 1.43125802e-002
      -1.28175884e-001 -7.37586096e-002 4.90919128e-002 -1.79647684e-001
      -2.29254574e-001 1.49336576e-001 -3.24970894e-002 8.01964924e-002
      -1.77387029e-001 1.31906644e-001 8.55491757e-002 -1.95476621e-001
      -2.14745626e-001 -9.91338938e-002 -7.55977957e-003 3.34611148e-001
      2.76690945e-002 7.90124759e-002 -6.77271411e-002 -5.44952564e-002
      -1.49314791e-001 3.02915201e-002 1.01171389e-001 2.78581560e-001
      -1.33004576e-001 -1.74092829e-001 -1.23302996e-001
      -2.90238410e-001 6.85800985e-002 4.10331450e-002 -2.34126031e-001
      -4.57647532e-001 9.81072113e-002 5.97738288e-002 -6.78075850e-002
      -2.54410189e-002 -2.73032755e-001 -1.09664552e-001
      -3.40848535e-001 -2.30881467e-001 -3.63213122e-001 1.10837311e-001
      -2.29797974e-001 -2.31418952e-001 -4.10616100e-001
      -4.14287031e-001 -3.42117786e-001 1.76211849e-001 9.49710831e-002
      4.04549778e-001 7.46416077e-002 -2.72079766e-001 -6.35922328e-002
      1.56657487e-001 6.91215247e-002 1.37897015e-001 1.32427618e-001
      -1.10739283e-001 3.30498964e-002 -3.75420362e-001 -1.21247239e-001
      -3.47233713e-001 -5.67866445e-001 -4.27361369e-001
      -3.12950134e-001 4.51906882e-002 3.09346735e-001 6.18503511e-001
      6.10189028e-002 -3.23389918e-001 -4.34875898e-002 1.07367583e-001
      -1.28855452e-001 2.61105955e-001 -4.22115922e-002 -2.23293722e-001
      -2.90853143e-001 -2.63231218e-001 -5.99325495e-003
      -2.19773784e-001 -1.12732008e-001 -1.31907403e-001 1.86539441e-001
      -1.81211326e-002 1.06430203e-002 7.11939484e-002 -1.90591693e-001
      2.24249601e-001 -3.62954475e-002 -3.48011494e-001 -1.83527991e-001
      -2.23726451e-001 -1.58305496e-001 -3.88850629e-001
      -4.44901079e-001 -9.25016254e-002 -3.03270876e-001
      -1.43702254e-001 -8.50486159e-002 -3.93583119e-001 1.04222260e-001
      -2.41332874e-001 -3.33819479e-001 -1.19567029e-001
      -2.40161702e-001 -5.44170775e-002 -2.60397434e-001
      -4.22324359e-001 -2.03989789e-001 1.28690213e-001 -2.58191049e-001
      -1.57152608e-001 -2.60198534e-001 1.72115937e-002 1.27778172e-001
      -6.54103637e-001 -6.82228267e-001 -3.11870068e-001 9.29050148e-002
      -2.74746679e-002 4.54167277e-002 1.11373037e-001 7.32875317e-002
      -1.87943846e-001 -1.99963868e-001 -2.79779077e-001 2.49844149e-001
      3.45925957e-001 2.73277462e-001 3.83227952e-002 3.87826592e-001
      4.73112106e-001 1.58133999e-001 -2.38989159e-001 -3.48310828e-001
      -2.80631810e-001 -6.82214946e-002 -9.50148106e-002
      -2.32038915e-001 -2.64230669e-001 2.00277388e-001 1.57030806e-001
      2.76654679e-002 -2.60110646e-001 -1.74785361e-001 1.20118946e-001
      2.18008265e-001 -4.19813320e-002 2.40622163e-001 4.27232236e-001
      -1.78202599e-001 -4.92086619e-001 5.88773154e-002 1.81365326e-001
      2.67886251e-001 3.13269436e-001 -2.75523216e-001 -2.13911131e-001
      8.47634599e-002 1.50867596e-001 -4.31917384e-002 1.01805866e-001
      2.73741633e-001 1.39979884e-001 1.62619278e-001 1.51053935e-001
      -6.68393448e-002 3.02852038e-002 -5.08896671e-002 -8.63147993e-003
      -2.07270905e-001 -8.96852911e-002 3.63320634e-002 -5.45021743e-002
      -2.99491405e-001 -7.37208650e-002 2.86430240e-001 9.46509689e-002
      -3.19012776e-002 4.62168083e-002 2.23458067e-001 2.71529853e-001
      1.95205197e-001 -2.40371954e-002 -2.25801453e-001 2.12385327e-001
      9.23787802e-002 -2.33384982e-001 6.85849860e-002 1.51819453e-001
      3.12690213e-002 4.06323746e-002 4.97131050e-002 -2.52443645e-002
      7.54803345e-002 1.16045110e-001 -1.13614008e-001 -1.08150758e-001
      2.41673272e-002 -1.32508174e-001 -9.84036550e-002 -6.20942563e-002
      9.93482303e-004 2.59521037e-001 -3.93127538e-002 1.21188626e-001
      -1.42217308e-001 1.99015021e-001 3.79982442e-002 -1.17727630e-002
      1.80386771e-002 7.79589340e-002 -6.47395030e-002 1.38455287e-001
      4.46789265e-001 9.61764008e-002 3.40256840e-001 1.39972746e-001
      3.82774025e-002 -3.40888649e-002 2.51549602e-001 8.83219019e-002
      -1.68430321e-002 -1.84792951e-001 -1.66896343e-001
      -1.01519831e-001 -5.15871234e-002 1.16335936e-001 9.64864250e-003
      -3.77388224e-002 1.00096002e-001 -2.54203565e-002 9.48717147e-002
      -2.27111001e-002 2.28534445e-001 4.14149463e-002 2.23730907e-001
      1.78006798e-001 -7.24462271e-002 4.27264534e-002 -1.40300363e-001
      6.90934584e-002 3.89234088e-002 -3.53522636e-002 1.29341677e-001
      1.38797283e-001 -1.95310846e-001 1.54784143e-001 -1.73504427e-002
      -3.14041227e-002 1.87702730e-001 6.12824224e-002 8.48399252e-002
      3.54925662e-001 1.41662851e-001 -2.10162282e-001 8.07593912e-002
      -1.31549528e-002 7.82521516e-002 -1.70672804e-001 -3.04842293e-001
      -1.24975801e-001 -8.50678235e-003 7.18427598e-002 5.51451258e-002
      -1.86249942e-001 1.27639040e-001 -5.01950197e-002 -1.50922343e-001
      1.36382863e-001 3.15832935e-004 1.60488203e-001 -2.16519646e-003
      -1.26272455e-001 -1.32228538e-001 -1.22119546e-001 1.84352502e-001
      -2.22868705e-003 -1.37691125e-002 3.75195108e-002 1.82071492e-001
      -9.17283967e-002 -2.06283376e-001 -7.75064081e-002
      -6.12667874e-002 3.82191509e-001 -1.71438530e-002 2.32866034e-001
      2.83516526e-001 2.86091641e-002 -1.37347728e-001 -3.83474112e-001
      -5.12656271e-001 2.80199517e-002 -1.61117822e-001 -9.50684845e-002
      1.25830173e-001 -9.54618156e-002 -1.48141056e-001 -2.82571781e-002
      -5.20577766e-002 -3.26594822e-002 -6.60699680e-002
      -1.14793241e-001 -5.87972589e-002 4.26227711e-002 -5.53050376e-002
      -1.11400008e-001 1.65700182e-001 -2.51113325e-001 -2.12675750e-001
      8.52594152e-002 3.80067453e-002 -2.37151116e-001 -4.50139046e-002
      -1.03946686e-001 -1.84720412e-001 1.63036004e-001 -2.43340939e-001
      -6.44286573e-002 1.52960211e-001 -1.29554600e-001 -2.44001284e-001
      1.24434918e-001 -2.09572073e-002 -2.19366536e-001 1.36947677e-001
      -2.04018325e-001 -5.61624113e-003 -2.24193573e-001
      -2.40053684e-001 -3.65353972e-002 -1.47418389e-002 3.17119837e-001
      -5.64782619e-002 -1.29569933e-001 -1.70625523e-001
      -7.82324374e-002 -3.60863507e-002 -1.66830614e-001
      -3.36917043e-002 5.56915961e-002 -1.02521963e-001 -2.40192100e-001
      -1.53905198e-001 3.45456243e-001 1.98075548e-001 -1.14913583e-001
      2.35426828e-001 1.27611771e-001 -3.52025405e-002 2.09463596e-001
      8.17605555e-002 8.80857483e-002 1.28364181e-002 3.21862698e-001
      1.31621704e-001 -2.25116294e-002 1.67546317e-001 7.58916140e-002
      1.03266962e-001 9.17573273e-002 1.27355233e-001 -1.37253925e-001
      1.40792906e-001 2.65921116e-001 2.85905629e-001 1.15548901e-001
      9.28445905e-003 -1.08248752e-003 -2.02119038e-001 -1.30422920e-001
      2.51425087e-001 1.75150279e-002 -4.93848212e-002 4.09619845e-002
      1.39083669e-001 9.39965099e-002 8.29199106e-002 -4.73839836e-003
      1.72660246e-001 -1.67001989e-002 5.65768704e-002 -9.27412976e-003
      -1.88721910e-001 -3.57164927e-002 -1.09749526e-001 2.43106171e-001
      1.67326201e-002 -7.20468163e-002 -1.30916955e-002 1.00982953e-002
      1.22190930e-001 -9.25661847e-002 -1.43892586e-001 -6.25846311e-002
      -2.59322841e-002 -1.59290239e-001 1.89320371e-001 -2.53200755e-002
      -4.06878628e-002 -9.69415009e-002 4.98783682e-003 -1.72189310e-001
      2.17045024e-002 7.13712629e-003 -5.46536632e-002 1.56495720e-002
      -1.29906079e-002 1.32348776e-001 -9.31410417e-002 4.94634844e-002
      -3.60217333e-001 -1.06332570e-001 1.88726351e-001 9.35683995e-002
      -3.93460058e-002 1.84081599e-001 1.20116375e-001 -2.88105607e-001
      -2.77982745e-002 -2.63844699e-001 1.73607931e-001 1.32403031e-001
      -3.13143283e-001 2.45963737e-001 1.83042064e-001 1.50564894e-001
      -5.74254617e-002 1.84718490e-001 4.12885770e-002 -3.43062878e-002
      2.64671743e-001 -1.10733202e-002 1.85929924e-001 1.36010617e-001
      1.52947992e-001 -1.01357602e-001 1.69821419e-002 -2.81708688e-001
      -6.37716055e-002 2.44000465e-001 2.10695609e-001 -2.63949800e-002
      1.13306157e-001 3.79514620e-002 2.45821867e-002 1.41385332e-001
      -1.67836636e-001 -7.70385936e-002 1.45648107e-001 1.42041966e-002
      2.36109700e-002 8.06208625e-002 -2.03573972e-001 6.31704479e-002
      1.33407548e-001 -7.90393259e-003 -2.21001044e-001 3.09738040e-001
      9.14692953e-002 5.52851111e-002 2.99232006e-001 1.13461152e-001
      1.27019688e-001 5.32980487e-002 -1.22484311e-001 -3.25258970e-001
      1.99769307e-002 1.25315130e-001 1.27909809e-001 5.84489368e-002
      -4.57608812e-002 -9.94851738e-002 1.04823567e-001 1.27129242e-001
      -6.79767504e-002 2.09950194e-001 8.32429975e-002 2.48258188e-001
      3.80365312e-001 1.61560997e-002 8.85227844e-002 -3.19385290e-001
      2.08226681e-001 -2.17676848e-001 -7.09887892e-002 -5.90413734e-002
      1.38600022e-001 2.07578748e-001 -9.87291988e-003 -9.71214846e-002
      -4.65747416e-002 5.16809337e-002 -9.39476937e-002 2.55892277e-001
      2.23561153e-001 1.39424965e-001 2.60117620e-001 -2.43203826e-002
      -5.23138046e-002 -8.26615170e-002 -9.05948579e-002 4.95478511e-002
      2.83890575e-001 1.45594198e-002 -2.43260637e-001 -1.45057201e-001
      -2.19757199e-001 -1.14515297e-001 7.34429136e-002 2.32042506e-001
      8.48627463e-002 2.04993546e-001 -7.13952258e-002 7.07265809e-002
      1.32871345e-001 8.61805771e-003 2.79506985e-002 -1.22319296e-001
      -8.46325383e-002 4.12679724e-002 1.84635848e-001 -5.55130513e-003
      2.19454810e-001 3.12563270e-001 1.58600360e-001 -6.11124374e-002
      2.89977252e-001 6.81241304e-002 4.63674543e-003 -1.58990603e-002
      1.63266137e-001 9.74339619e-002 5.24617024e-002 -7.44724944e-002
      1.74320024e-002 -3.03334624e-001 1.21435143e-001 -5.01472736e-004
      1.15870550e-001 2.33318523e-001 5.88519126e-002 2.80100256e-001
      7.84102455e-002 -2.32249573e-001 -1.32977724e-001 -2.54182070e-001
      -1.39885172e-001 -2.46133640e-001 1.23328395e-001 3.76879007e-001
      2.45424762e-001 1.88976247e-002 -1.17379650e-001 -2.70726550e-002
      -1.79366201e-001 3.31143849e-002 -5.94460244e-006 6.27721697e-002
      -2.10895047e-001 -4.23130542e-001 -1.07760057e-001 3.16897064e-001
      -3.29495817e-001 1.02109954e-001 -1.09674014e-001 -2.63852298e-001
      7.61099383e-002 4.66224737e-002 1.44979358e-001 1.47473633e-001
      -1.32419407e-001 -1.29751086e-001 -1.17331579e-001
      -3.68110836e-001 -3.51879336e-002 -3.48535568e-001
      -3.99055570e-001 -4.68236655e-001 -1.18691184e-001 9.61523056e-002
      -1.16629533e-001 -4.84726839e-002 -4.45051014e-001
      -5.27769506e-001 -5.26500225e-001 -1.19382091e-001 8.51566344e-003
      3.17353994e-001 1.39335960e-001 -4.50685173e-001 -1.25521887e-002
      4.44923490e-002 7.97209144e-002 -1.87452301e-001 8.32294449e-002
      6.34581670e-002 5.02152741e-002 -1.37432396e-001 1.97983742e-001
      2.94962227e-001 -1.37658909e-001 -2.08056137e-001 -4.54289407e-001
      -4.12018538e-001 -4.17735279e-001 1.78061053e-001 -1.40464932e-001
      -3.12149018e-001 2.77875036e-001 -1.32504031e-002 1.52661800e-002
      -3.46652279e-003 2.43887916e-001 2.01677773e-002 5.02304323e-002
      -4.94951427e-001 2.07238309e-002 -3.20461571e-001 -2.86045372e-001
      -1.14973061e-001 -9.40005705e-002 -1.96273357e-001
      -2.42061108e-001 9.77820717e-003 -1.21599205e-001 -6.61623105e-002
      -2.59507567e-001 -1.81387633e-001 -4.93740067e-002 9.76625010e-002
      -2.58341879e-001 3.81527767e-002 1.67876080e-001 9.51402336e-002
      -1.82513833e-001 -2.42384762e-001 -2.84995679e-002
      -1.76275104e-001 -2.94070661e-001 -1.15281709e-001
      -2.28776321e-001 -6.91612288e-002 -1.58752486e-001
      -1.45043194e-001 -2.18635440e-001 -5.33744134e-002 3.25148329e-002
      -2.11942002e-001 -7.62868375e-002 -1.61314964e-001
      -1.06862940e-001 1.93790734e-001 1.08411483e-001 8.39636996e-002
      -1.87996387e-001 -2.85117477e-001 -1.61090180e-001
      -2.80534148e-001 -4.26697850e-001 -2.74384260e-001
      -4.47839312e-003 2.42600515e-001 2.37040058e-001 1.27346054e-001
      -7.70754516e-002 7.01483265e-002 -1.83480501e-001 -2.44720325e-001
      -6.79610297e-002 2.02523544e-001 -2.28836127e-002 -7.57311061e-002
      -1.47587478e-001 -8.00842941e-002 -2.88794842e-002
      -1.16428837e-001 -1.88241273e-001 -2.73197770e-001 1.81669131e-001
      4.78607565e-001 3.98581028e-001 -5.08878864e-002 -8.86559766e-003
      2.55054832e-001 9.96108353e-002 5.72890341e-002 1.65310606e-001
      2.14248002e-001 -1.05888434e-002 -1.61995664e-001 -3.24211001e-001
      -3.87666643e-001 4.43524905e-002 -1.44716144e-001 -1.75914884e-001
      -1.04046650e-001 2.20780239e-001 -1.35730788e-001 -1.31015167e-001
      2.55548626e-001 1.95569009e-001 2.20197156e-001 1.31655455e-001
      2.81239878e-002 1.61997542e-001 1.96455583e-001 1.43822730e-001
      6.53864369e-002 4.53433115e-003 -1.34330109e-001 1.21446595e-001
      1.44325584e-001 -1.07374921e-001 -1.17822606e-002 1.02910519e-001
      -2.53805369e-002 1.78277120e-002 1.00817502e-001 -1.14732333e-001
      1.08939216e-001 3.89383696e-002 2.93070942e-001 3.92540365e-001
      1.78400323e-001 -1.93524987e-001 7.08894581e-002 1.49390310e-001
      2.10109651e-001 9.38434899e-002 -2.13214591e-001 -3.97634387e-001
      -6.88497275e-002 -5.28104492e-002 -1.24665545e-002 5.02294376e-002
      3.68178040e-001 2.24167883e-001 2.91533053e-001 -3.05244625e-001
      -4.85894978e-002 1.39510483e-001 -6.19347878e-002 -8.63915891e-004
      -1.41801193e-001 5.36250435e-002 1.04893178e-001 7.40327835e-002
      -1.93022653e-001 -1.15715556e-001 -8.47842023e-002 1.70836004e-003
      1.17414296e-001 -4.65500094e-002 1.25538170e-001 7.85218775e-002
      8.26607198e-002 -3.38877141e-001 1.13426067e-001 -3.07299942e-002
      -1.04051761e-001 -1.09707676e-001 -1.45009086e-001 1.17698990e-001
      6.20926693e-002 2.29157791e-001 -7.87560940e-002 -3.34461816e-002
      4.66928333e-002 2.19093040e-001 -8.11906473e-004 1.60319641e-001
      1.01514429e-001 -4.77296449e-002 2.73975104e-001 2.81696543e-002
      -6.06867149e-002 1.31744355e-001 2.63682067e-001 -1.89462081e-001
      -1.57273918e-001 -1.90300673e-001 -5.93005344e-002 2.46317819e-001
      -1.92514226e-001 6.54757544e-002 5.49121909e-002 7.07793534e-002
      1.10608794e-001 -1.04969025e-001 1.71009600e-001 -4.91578272e-003
      7.82305300e-002 1.43974587e-001 1.14619963e-001 -2.54584216e-002
      2.01794103e-001 8.65719840e-002 1.90832481e-001 1.50333241e-001
      1.89428739e-002 1.80512592e-002 1.19883038e-001 -2.09801018e-001
      -9.92352888e-003 2.15755120e-001 1.81643635e-001 -3.33489887e-002
      2.61511147e-001 9.02161449e-002 1.12648338e-001 1.37510836e-001
      -6.12248071e-002 2.12889358e-001 1.64725170e-001 -2.32679218e-001
      7.67146237e-003 1.41236559e-001 -1.75199822e-001 -1.94211900e-001
      -5.11551984e-002 -2.60108531e-001 -7.36562312e-002 2.22956240e-001
      1.70609429e-001 7.00337812e-002 2.93419324e-002 -1.42024428e-001
      1.37633100e-001 -2.84396056e-002 2.29391053e-001 2.53002420e-002
      3.90100658e-001 1.64283603e-001 -2.63725281e-001 1.32398099e-001
      -1.91526160e-001 -4.08740997e-001 1.12166665e-002 -6.17470257e-002
      4.43121865e-002 1.61980584e-001 2.12050229e-001 -1.43278539e-001
      3.54361415e-001 2.64308482e-001 2.87469719e-002 1.88583496e-003
      -1.18584342e-001 -1.48304775e-002 6.40699221e-003 1.11075208e-001
      -9.94505137e-002 -2.06357598e-001 -1.73711166e-001
      -3.99741918e-001 -7.54873827e-002 -8.35258961e-002
      -3.29087786e-002 3.61260399e-002 2.38479912e-001 -1.56750992e-001
      -2.05904365e-001 -1.13516010e-001 -9.06448662e-002
      -3.19484711e-001 -1.65072903e-001 6.36376813e-002 8.50684270e-002
      2.59402901e-001 9.55124050e-002 7.49556795e-002 -5.86134940e-002
      -9.96282995e-002 -1.74130816e-002 3.84011157e-002 1.32869154e-001
      3.28595132e-001 -2.35406589e-002 3.64484861e-002 1.42900527e-001
      6.61029890e-002 1.14752598e-001 5.76792024e-002 2.97402680e-001
      7.27727413e-002 4.00995433e-001 3.40661287e-001 -1.54176522e-002
      5.92099736e-004 -1.75727621e-001 1.07665062e-002 -9.95566398e-002
      2.03315869e-001 -2.91611701e-002 2.35380773e-002 6.39704093e-002
      -9.35694128e-002 2.14315906e-001 -6.39242530e-002 8.27286243e-002
      4.00441326e-002 1.36935845e-001 -1.78584918e-001 3.08304094e-002
      -1.70447916e-001 -3.32669050e-001 -8.75867754e-002 1.43689476e-002
      2.64511496e-001 -1.74840987e-001 1.49097279e-001 -5.20736277e-002
      1.58375390e-002 3.12199909e-002 -1.91917658e-001 -6.23955540e-002
      -1.68281063e-001 -1.19095683e-001 -2.96484143e-001
      -2.05861211e-001 -1.54871508e-001 -8.86195824e-002 1.06219225e-001
      -4.80123907e-002 2.23273426e-001 -6.86153695e-002 1.34200618e-001
      -1.61268741e-001 1.40794843e-001 -7.07598403e-002 1.39870793e-001
      7.09490776e-002 1.47263005e-001 1.69493884e-001 2.38819301e-001
      2.01101571e-001 2.50751406e-001 5.18467389e-002 5.07140085e-002
      -9.03044418e-002 3.07289418e-002 -6.56852648e-002 5.66202849e-002
      6.70738742e-002 1.85738225e-002 -1.37953460e-001 1.30974382e-001
      2.02764377e-001 1.36083424e-001 -9.66776982e-002 -1.93125635e-001
      -1.38300970e-001 -4.04803380e-002 -3.55414778e-001 9.82334614e-002
      1.30076259e-002 -5.51939430e-003 -1.26685515e-001 4.26669493e-002
      1.30837739e-001 1.50747865e-001 1.80753812e-001 3.57979238e-001
      5.52333072e-002 -5.13197854e-002 1.06867231e-001 2.97754169e-001
      -1.27733305e-001 -2.40562871e-001 -3.14062983e-001
      -6.18539117e-002 -3.07009108e-002 2.69999728e-002 -5.97556978e-002
      -2.09877282e-001 -1.63203388e-001 1.85757846e-001 -1.79855525e-002
      -1.39138829e-002 4.24096495e-001 1.25093520e-001 -1.07809193e-001
      1.45409452e-002 -2.33140856e-001 1.29116476e-001 7.88050368e-002
      5.28724007e-002 -1.68522134e-001 1.28974602e-001 1.10303052e-001
      -1.90736223e-002 6.28095046e-002 -9.03030187e-002 -9.01730061e-002
      -3.06214336e-002 -1.30587712e-001 1.76857952e-002 1.51572555e-001
      1.36733294e-001 1.48909017e-001 -3.25803235e-002 -1.83817819e-001
      7.66826123e-002 1.02309600e-001 -7.60190040e-002 1.76450849e-001
      3.44151035e-002 2.88662892e-002 -7.70878941e-002 1.39723673e-001
      8.58028699e-003 -1.58070967e-001 -1.06313184e-001 3.24091353e-002
      -3.01268175e-002 1.49788719e-003 8.84038135e-002 -9.37023982e-002
      2.14074001e-001 -9.52772722e-002 -2.47007161e-001 -2.06914544e-001
      -9.15603638e-002 3.61721992e-001 3.17401439e-001 3.43501180e-001
      -2.79718161e-001 -2.53602639e-002 -8.17118511e-002 1.42055750e-001
      5.10335192e-002 -2.62896985e-001 8.79927650e-002 -1.54838711e-001
      4.80653979e-002 3.40810344e-002 1.38987675e-001 -1.65841892e-001
      -2.07766727e-001 3.96965258e-003 -3.22673023e-002 1.65441811e-001
      2.38953725e-001 2.37766385e-001 -2.71916278e-002 7.40476772e-002
      -1.75545856e-001 7.49632493e-002 2.06568494e-001 1.25858217e-001
      1.95920095e-001 1.14967898e-002 4.23819199e-002 1.17393345e-001
      2.57769644e-001 8.34644139e-002 1.22524559e-001 -2.80521661e-002
      8.07506032e-003 4.37059589e-002 -1.54312342e-001 -1.28807034e-002
      3.96618322e-002 9.94135290e-002 -1.11262701e-001 -1.19086996e-001
      -1.21099036e-002 6.52847886e-002 3.17059815e-001 9.43596438e-002
      7.74099827e-002 1.39445081e-001 2.40364373e-001 3.54416311e-001
      2.71200955e-001 -7.54640549e-002 -1.92045659e-001 1.72143653e-001
      -1.78518146e-001 4.80255708e-002 1.32374138e-001 2.00144976e-001
      9.94106382e-002 1.68539718e-001 -1.77558944e-001 -1.59681678e-001
      -3.32327448e-002 -1.18984126e-001 4.02726186e-003 8.44129622e-002
      -4.50812243e-002 -1.06653040e-002 -2.44876549e-001
      -2.90001370e-002 -9.80088413e-002 -3.56885374e-001
      -2.46669650e-001 -2.64073163e-001 -9.97420773e-002
      -4.15609449e-001 -3.33211129e-003 2.58052647e-001 1.91583201e-001
      -1.82721168e-001 1.13842130e-001 1.08599298e-001 3.04848075e-001
      3.18160467e-002 -2.98442751e-001 3.17836180e-002 1.25562370e-001
      2.75185287e-001 -9.45651755e-002 -2.40378663e-001 -1.19537026e-001
      -1.19674072e-001 -2.69476503e-001 -3.47327530e-001
      -4.10625897e-002 3.00951958e-001 1.87838197e-001 4.12463695e-001
      -1.69947408e-002 2.22840160e-003 -3.07192415e-001 -7.05718458e-001
      -5.07118464e-001 -1.25437647e-001 -2.55204797e-001
      -6.34184837e-001 7.67187178e-002 2.28821598e-002 2.73818914e-002
      -1.31754488e-001 -1.23380035e-001 -8.89594331e-002 5.26194349e-002
      -3.73559326e-001 1.13888614e-001 2.96267688e-001 1.89155474e-001
      2.07461551e-001 1.22032817e-002 -4.89731878e-002 -3.12980600e-002
      -3.23415995e-001 -2.46539325e-001 -9.54296365e-002 1.05121553e-001
      -2.58432537e-001 1.00697689e-001 1.56311482e-001 1.60230592e-001
      9.83695611e-002 2.22280249e-001 -3.97084802e-001 -3.42230290e-001
      -3.65864635e-001 -1.47101477e-001 -1.60923555e-001
      -1.43804982e-001 -1.29765823e-001 -7.93590695e-002
      -1.22331157e-001 -1.61787227e-001 -6.81729913e-002
      -1.27431542e-001 -2.53267139e-002 1.46325558e-001 1.52507767e-001
      6.05035666e-003 -2.96505630e-001 -3.26008201e-001 8.54028091e-002
      -2.95023583e-002 1.69354565e-002 -1.76207751e-001 -1.85318254e-002
      1.80174321e-001 -3.69107537e-002 -1.67852223e-001 5.80858700e-002
      -1.76257387e-001 -1.22835301e-001 9.40105170e-002 -3.40100288e-001
      3.66931595e-002 1.85532812e-002 -4.25191671e-001 -2.49280632e-001
      -1.39909625e-001 -8.55810121e-002 2.93114167e-002 -1.37391165e-001
      -6.96339458e-002 6.15759902e-002 -1.58693164e-003 1.53443739e-001
      -4.06430811e-001 -5.95342338e-001 1.74469694e-001 2.69177496e-001
      1.64087303e-002 -8.85671526e-002 8.79075453e-002 1.51812702e-001
      3.01434755e-001 8.90751705e-002 7.31176045e-003 2.86466688e-001
      2.09569365e-001 -5.55704720e-003 -8.93507078e-002 1.32268285e-002
      -3.99337023e-001 -2.86835909e-001 -4.46147591e-001
      -5.08608520e-001 -1.35305896e-001 3.93940151e-001 1.98527157e-001
      2.14392766e-001 2.41708919e-001 1.71160862e-001 2.86943436e-001
      -1.38432905e-001 -2.88173288e-001 -8.51832256e-002 1.98359508e-002
      -6.27951324e-002 -2.18790695e-001 -1.72561437e-001 1.23712502e-001
      -5.80111891e-002 6.64185807e-002 -1.58374488e-001 1.05567738e-001
      2.42966935e-002 -2.85396967e-002 -3.62469320e-004 2.19330251e-001
      2.58892328e-001 6.74217492e-002 1.17417365e-001 1.70972064e-001
      1.67513210e-002 -7.13963732e-002 -1.07446872e-001 -1.73193477e-002
      5.33471033e-002 1.24990083e-001 7.50559494e-002 -1.53766960e-001
      -1.80500135e-001 -1.31958067e-001 1.97883993e-001 -8.97025988e-002
      1.46472529e-001 6.67088926e-002 2.46503592e-001 -6.31187633e-002
      -1.73989341e-001 1.06572054e-001 -1.15124553e-001 6.04539812e-002
      -1.11819781e-001 -1.35612860e-001 -1.39966235e-001
      -5.95930554e-002 -4.10027616e-002 1.77247182e-001 -1.59739442e-002
      1.18720122e-002 -8.88587087e-002 -3.08314990e-002 -6.08032197e-002
      -7.01961070e-002 -8.61107409e-002 1.25995442e-001 2.64253736e-001
      2.44754449e-001 -2.16363035e-002 -2.85629984e-002 -1.40040070e-001
      -2.70635545e-001 -1.94054410e-001 1.02238320e-001 -2.98867553e-001
      -3.53276223e-001 -1.31200761e-001 -1.92269847e-001
      -2.47303113e-001 -8.09573829e-002 -9.93089303e-002 5.47819473e-002
      -1.15955271e-001 3.16960998e-002 8.87705833e-002 2.83893496e-001
      -7.05657229e-002 -1.57341287e-001 -3.13917339e-001
      -7.31276646e-002 1.15886599e-001 3.80568832e-001 1.63301483e-001
      -5.14515527e-002 -8.13183784e-002 -1.95454229e-002
      -9.34176221e-002 2.15083864e-002 -7.17326254e-003 -1.01342127e-001
      1.35481402e-001 3.44918370e-001 -4.49332362e-003 3.32507305e-002
      2.83169180e-001 3.18079665e-002 -1.52623747e-002 2.28982657e-001
      5.90567151e-003 8.75574648e-002 -1.93868056e-002 -4.19100255e-001
      -3.01230103e-001 -2.09660396e-001 2.16689572e-001 2.08198100e-001
      3.14780504e-001 -3.09918970e-001 7.09320232e-002 3.38896900e-001
      -2.38083154e-002 -1.27355963e-001 5.35758920e-002 1.29305810e-001
      2.13165328e-001 -8.73267204e-002 -2.14045510e-001 -1.40966967e-001
      1.19874507e-001 -9.53574851e-002 9.14951041e-002 3.77514392e-001
      1.51969492e-001 2.69704491e-001 5.76686487e-003 -2.96292379e-002
      2.98542902e-002 8.52129906e-002 -2.40233298e-002 -4.84155528e-002
      9.68879387e-002 2.24881172e-001 -1.37860849e-002 1.97389424e-001
      -4.60820124e-002 3.68837416e-002 7.14071840e-002 1.37531176e-001
      -7.60458782e-002 -2.48290561e-002 1.34504184e-001 -2.29748227e-002
      -2.57964786e-002 2.76787758e-001 1.49990335e-001 1.37332276e-001
      3.38679664e-002 6.92295283e-002 -4.44026068e-002 1.22113876e-001
      9.13780034e-002 -1.02027133e-001 5.02073690e-002 -1.08156711e-001
      4.46732007e-002 -1.21526293e-001 -9.78509709e-002 -2.58934051e-001
      4.42703933e-001 -7.95967430e-002 -1.61029413e-001 4.03940529e-002
      1.64980546e-001 2.50022858e-001 1.89963207e-001 1.26879051e-001
      1.69696063e-001 -9.46017578e-002 -8.12802929e-003 -4.38075036e-001
      -9.07129720e-002 -6.90281615e-002 -5.03099449e-002
      -1.75541341e-001 -2.03918308e-001 -2.43918528e-003
      -9.90540013e-002 1.14781640e-001 1.18555829e-001 8.01635087e-002
      -1.41950160e-001 1.83440857e-002 1.54530227e-001 -5.51479720e-002
      -5.12080081e-002 4.95370775e-001 1.50814736e-002 -2.60803223e-001
      -2.92492032e-001 1.43343106e-001 7.44384527e-002 1.09728105e-001
      -3.12220454e-001 8.28949064e-002 2.62295753e-001 3.78025398e-002
      1.34933457e-001 -1.05966352e-001 1.01157501e-001 -1.94144677e-002
      1.22930510e-002 -3.52901742e-002 2.17082322e-001 1.45606875e-001
      5.20427711e-002 5.05343564e-002 3.12489681e-002 4.62850407e-002
      1.86468855e-001 1.01628311e-001 -2.49553561e-001 1.79380059e-001
      4.19462994e-002 -5.04812002e-002 -1.49628118e-001 -2.18988255e-001
      5.53990826e-002 4.23426330e-002 -2.94882506e-002 -2.98394054e-001
      -4.23864312e-002 3.37905914e-001 8.26720968e-002 3.67679894e-001
      1.78968385e-001 2.92260379e-001 9.82220098e-002 1.19152233e-001
      -3.84939909e-001 6.03734963e-002 -2.01401174e-001 -1.67747423e-001
      1.58097222e-001 1.57564163e-001 1.45804271e-001 2.83448517e-001
      2.51374513e-001 1.68549240e-001 -2.29095533e-001 -1.71856835e-001
      -2.76627243e-001 6.12444021e-002 -1.42142153e-003 1.27975643e-001
      3.17559570e-001 1.24989949e-001 1.05591945e-001 1.22270450e-001
      -3.22969109e-001 -2.54261881e-001 6.36782683e-003 1.97829187e-001
      5.80746569e-002 2.23690942e-001 2.66435444e-001 1.29842937e-001
      -1.85586482e-001 6.37737438e-002 -2.31382713e-001 1.74909439e-002
      1.79307833e-001 3.29958759e-002 9.49595065e-004 1.42945603e-001
      8.79994258e-002 3.21514189e-001 -5.80979809e-002 -7.83152282e-002
      -6.57304078e-002 1.50862820e-002 -5.88789061e-002 -3.19250785e-002
      -1.07694268e-001 -2.38932639e-001 8.44725221e-002 -1.07692622e-001
      -5.20626269e-002 3.98060940e-002 2.25836590e-001 -1.71294704e-001
      3.86922024e-002 7.86361247e-002 1.50252059e-001 2.37778649e-002
      -2.31206268e-001 1.46258920e-001 -7.48679414e-002 -3.57178114e-002
      -2.56381705e-002 1.60631776e-001 -1.55264467e-001 -2.94541895e-001
      -1.13899074e-001 -1.98992088e-001 -8.91268551e-002 4.93750423e-002
      -2.55153000e-001 1.61266644e-002 1.02530554e-001 -2.38778871e-002
      -3.47199768e-001 4.25691493e-002 -1.57606125e-001 -2.88191110e-001
      1.26687959e-001 -2.41129294e-001 2.31178537e-001 -2.35209684e-003
      -5.92635237e-002 -3.43332976e-001 -1.32898867e-001
      -2.19325069e-002 3.86198051e-002 1.27782654e-002 -1.12552360e-001
      4.10913071e-003 1.41553894e-001 1.17533803e-001 8.81088227e-002
      4.68741450e-003 6.94592670e-003 6.45592362e-002 -4.80817594e-002
      1.68745175e-001 4.38120753e-001 -6.55109733e-002 5.42592071e-002
      -1.26035601e-001 -1.50200516e-001 9.74007249e-002 -8.35435539e-002
      3.16335261e-001 -2.09442321e-002 1.80484295e-001 1.00185357e-001
      -2.12088794e-001 -3.29457849e-001 3.71930636e-002 1.60327321e-003
      1.16457820e-001 3.24366957e-001 2.80956179e-001 1.64785296e-001
      1.77824795e-001 9.10794213e-002 -3.40522349e-001 1.06218301e-001
      -5.03033912e-003 -8.01937506e-002 1.52691733e-002 1.10363849e-001
      4.13579315e-001 -1.02870360e-001 -1.25050440e-001 1.31899742e-002
      8.43234062e-002 -1.59613565e-001 1.26148105e-001 -2.94040293e-002
      1.50637440e-002 7.39589408e-002 -1.28435954e-001 -2.69676708e-002
      -2.22639769e-001 1.27336681e-001 -1.30342588e-001 1.51634663e-002
      3.86651278e-001 2.27664486e-001 1.05098963e-001 3.30936015e-001
      2.92344958e-001 1.36274606e-001 2.55608857e-001 -3.51473302e-001
      -2.11915240e-001 -1.59901544e-001 -5.62424026e-002 2.30644926e-001
      1.45404398e-001 4.78517322e-004 1.10408656e-001 7.81545788e-002
      1.87371537e-001 1.79913506e-001 4.15470123e-001 -5.02619259e-002
      -1.22870067e-002 4.19153541e-001 2.28223100e-001 -6.98891059e-002
      2.37401247e-001 1.90444469e-001 7.84054250e-002 1.58544123e-001
      -1.46612421e-001 -2.24161267e-001 -8.70032609e-002
      -1.12188488e-001 -9.93683934e-002 -7.65864775e-002
      -2.54472613e-001 2.34468374e-003 -1.02660678e-001 1.71728566e-001
      1.51243165e-001 4.45453785e-002 -3.44980240e-001 -4.03434318e-003
      -1.87929496e-001 1.34510398e-002 -4.17213179e-002 -9.50340033e-002
      1.06343664e-001 8.53091478e-003 -3.72159965e-002 -3.87619615e-001
      -1.10921428e-001 -2.89595783e-001 1.04979508e-001 1.30998790e-001
      -8.13746378e-002 1.30157202e-001 1.05213940e-001 1.67927351e-002
      -1.66660517e-001 1.40472531e-001 -1.48767754e-001 4.31088172e-002
      6.21233545e-002 -1.45814925e-001 -1.55123159e-001 -2.52946615e-001
      1.08786874e-001 -8.18785131e-002 -1.56479239e-001 -7.90826231e-002
      4.58976664e-002 1.82668313e-001 2.60036767e-001 -9.21507031e-002
      -3.18537086e-001 -1.16008371e-001 -4.05139685e-001
      -2.21628457e-001 -1.72760323e-001 -1.06023952e-001
      -1.40137270e-001 -2.84131348e-001 6.30932897e-002 4.78545204e-002
      1.53817639e-001 3.06228995e-002 1.10572048e-001 -7.01490343e-002
      1.50945604e-001 2.35293344e-001 9.91026461e-002 -1.38134658e-001
      -2.90992141e-001 -2.30475530e-001 -3.55454773e-001 3.24303843e-002
      -1.23164117e-001 -1.58849731e-001 -2.41611749e-002
      -5.48553988e-002 -6.89055920e-002 8.90739411e-002 1.71247013e-002
      1.77563429e-001 1.79686069e-001 -3.75352144e-001 -1.97415620e-001
      -1.73495784e-001 1.52852004e-002 8.45777430e-003 -1.06355660e-001
      -2.29174539e-001 -2.54672170e-001 1.30262107e-001 -4.17767540e-002
      -2.85878122e-001 -2.08241940e-001 -6.46818355e-002 1.33667454e-001
      -2.00534500e-002 -3.56137663e-001 -3.25841755e-001
      -2.17509881e-001 8.57309029e-002 -2.25220472e-002 6.12313673e-002
      1.04479700e-001 -1.08843021e-001 -9.72720385e-002 -5.75937591e-002
      1.06758073e-001 3.25267196e-001 8.22124183e-002 -2.55764931e-001
      -5.44413514e-002 -3.14292386e-002 1.72330081e-001 -7.83131048e-002
      1.18757598e-002 3.80258523e-002 2.58166194e-001 1.08854271e-001
      2.01248720e-001 -3.41987563e-003 -1.03124477e-001 -2.65360922e-001
      -2.70946443e-001 -3.27495784e-001 -4.43002015e-001
      -4.42086220e-001 8.56342539e-002 3.61396074e-001 2.81688482e-001
      -6.25761673e-002 -1.43734291e-001 9.05141532e-002 2.23024026e-001
      -2.24628299e-001 -1.55351087e-001 -1.51632996e-002 5.71526811e-002
      -1.00840844e-001 2.22358376e-001 6.08961545e-002 -1.68071538e-001
      -3.31658572e-001 -1.02102242e-001 -8.37026536e-002
      -5.08362688e-002 1.05732948e-001 1.20723560e-001 9.76141170e-002
      2.06310645e-001 1.93781093e-001 7.07995743e-002 8.57888162e-002
      -6.12664819e-002 -3.39702703e-002 8.12651739e-002 8.48766044e-003
      5.06960899e-002 -2.18158364e-001 1.54429659e-001 6.85880259e-002
      5.44062443e-003 -1.74709439e-001 -2.71656990e-001 6.77249357e-002
      3.84188853e-002 1.25906989e-002 -9.47462097e-002 1.28459871e-001
      -1.93281274e-003 1.91334471e-001 7.87453502e-002 -2.21481413e-001
      -6.52308315e-002 -8.02951530e-002 9.35799703e-002 1.01844989e-001
      2.09046543e-001 2.39084903e-002 -1.65198892e-002 -2.42926970e-001
      2.86337687e-003 1.33266345e-001 3.42552304e-001 1.09535791e-001
      -4.98751588e-002 1.77386791e-001 8.75385553e-002 -1.52034700e-001
      -9.98347476e-002 1.67148143e-001 -1.31243557e-001 -7.97119886e-002
      -1.73066467e-001 -2.57615671e-002 7.83715323e-002 1.21795423e-001
      8.56619179e-002 9.31145400e-002 1.58164203e-002 -2.35766828e-001
      -1.28680319e-001 3.79003398e-002 2.51308411e-001 7.18030855e-002
      2.35587925e-001 1.24457903e-001 -8.82541761e-004 -1.93019807e-001
      -1.65955290e-001 -1.29534125e-001 -5.64043187e-002
      -2.30981961e-001 1.97600260e-001 -5.66676212e-003 -3.36844847e-002
      -2.84680992e-001 3.86037193e-002 3.43833357e-001 -1.18689582e-001
      8.37783366e-002 -2.16420278e-001 1.26683637e-001 9.79994759e-002
      -6.82836846e-002 -2.98051178e-001 -1.29543781e-001
      -7.73276016e-002 4.84577864e-002 3.60337785e-004 -3.39714549e-002
      1.92266300e-001 1.61106139e-001 -6.22452535e-002 -4.92174774e-002
      -2.51232445e-001 8.12864900e-002 3.78346443e-001 4.98391762e-002
      -2.99826443e-001 -3.07177752e-002 5.89149781e-002 4.15577553e-002
      6.07522950e-002 2.17729956e-001 4.38810214e-002 -3.53446871e-001
      -1.04386546e-001 -1.44810632e-001 1.83571652e-001 2.76127219e-001
      -1.11532055e-001 -1.39566764e-001 -3.80250067e-003
      -5.26507273e-002 -1.94799930e-001 -1.73129752e-001 8.04221928e-002
      3.37155312e-001 2.53085881e-001 3.30154933e-002 -1.69855412e-002
      1.33923277e-001 2.13942640e-002 4.39334176e-002 1.16543442e-001
      5.70874922e-002 -1.35189235e-001 -3.77030186e-002 1.26439884e-001
      -2.50628233e-001 1.80656482e-002 -3.28443162e-002 7.94322640e-002
      -5.61690219e-002 3.82898420e-001 2.13772044e-001 1.58793807e-001
      1.83556631e-001 -1.96170628e-001 8.18561986e-002 4.98932414e-002
      2.87872832e-003 2.82639898e-002 -5.95087297e-002 3.35243642e-002
      -8.58036429e-002 2.28211414e-002 -3.21878552e-001 7.31135309e-002
      4.32705618e-002 1.96950585e-001 3.07635486e-001 2.92061985e-001
      1.36375250e-002 -6.50065616e-002 7.07156435e-002 -1.34284034e-001
      1.89254843e-002 -1.84931178e-002 -2.37344906e-001 -2.88400561e-001
      -1.61734551e-001 -5.45087978e-002 1.51641935e-001 2.58957166e-002
      -2.34695241e-001 -4.94324490e-002 1.11111356e-002 -1.02945469e-001
      -8.76302924e-003 -1.42518446e-001 -2.34011933e-001
      -8.27157646e-002 9.18094590e-002 3.99585534e-003 -5.08668572e-002
      3.61051154e-003 -2.41729282e-002 3.27749878e-001 1.37616202e-001
      4.93520498e-003 3.73147279e-001 1.56804368e-001 -1.54252714e-002
      -4.54941951e-003 -1.34356022e-001 -1.05033051e-002 1.60985738e-001
      2.19879240e-001 -7.55729452e-002 7.09575787e-002 1.67588308e-001
      -7.92761445e-002 -1.63725644e-001 3.28282893e-001 -4.17235136e-001
      4.52576391e-002 4.09830641e-003 -3.52551602e-002 1.94916174e-001
      3.61148089e-001 -1.75648645e-001 7.03833345e-003 4.79098223e-002
      -2.50170857e-001 -1.14295363e-001 -6.98538274e-002
      -1.54206857e-001 6.30548000e-002 8.55387598e-002 -2.62971789e-001
      -2.72843570e-001 3.06819729e-003 -1.31490692e-001 5.86859696e-002
      2.02407524e-001 1.17994277e-002 7.86010996e-002 1.20062701e-001
      -6.74866065e-002 -1.36956424e-001 -6.36929870e-002 1.24271363e-001
      -2.07302384e-002 -1.72716305e-001 -3.22310418e-001 7.49386325e-002
      -7.79236481e-002 -1.27240615e-002 -1.13656610e-001
      -2.44051535e-002 -1.81818102e-002 -3.52401435e-002 2.95974612e-002
      -8.66747200e-002 1.31804654e-002 -7.12336004e-002 -2.15232432e-001
      -3.61564875e-001 -1.54146999e-001 3.02578509e-001 2.75147229e-001
      -1.72961620e-003 -9.15621668e-002 -1.55195799e-002 6.82385638e-002
      -6.01068661e-002 -1.25454053e-001 -9.87071395e-002 3.21379870e-001
      1.32555559e-001 -2.16727145e-002 -3.11117142e-001 6.34758323e-002
      2.53521919e-001 2.93825686e-001 -2.54103895e-002 1.18178241e-002
      2.51860470e-001 2.29695272e-002 -2.96491720e-002 -1.93681210e-001
      1.60889048e-002 3.98279518e-001 2.47562647e-001 -1.45870462e-001
      -1.36656731e-001 -1.47506716e-002 2.38452792e-001 2.85369247e-001
      -9.74283088e-003 -8.76566246e-002 -9.12801400e-002
      -3.98735821e-001 1.12212196e-001 -3.14279646e-001 -5.97289130e-002
      -1.57182571e-002 2.45169580e-001 1.58275500e-001 1.02090880e-001
      -6.18497171e-002 -1.31418735e-001 7.32330903e-002 1.08469285e-001
      9.46753845e-002 8.91561583e-002 6.08134046e-002 -1.16679117e-001
      -1.53864548e-001 3.88030171e-001 4.86170538e-002 1.34580433e-001
      -7.04535916e-002 8.73242680e-004 1.78231835e-001 1.00127440e-002
      -1.36054710e-001 -1.82147577e-001 1.33272633e-001 3.39599140e-003
      -1.91699281e-001 1.93057939e-001 1.38081789e-001 -1.26070842e-001
      -1.15702273e-002 -6.90328181e-002 5.27825728e-002 1.23256132e-001
      -3.08916774e-002 1.74308598e-001 8.92018992e-003 1.29259363e-001
      -4.42032032e-002 1.38864771e-001 -2.54829004e-002 -1.54992282e-001
      1.33940980e-001 -2.62306817e-002 1.72375903e-001 2.41625518e-001
      -5.88532956e-003 8.76683071e-002 3.58420312e-002 -2.80388016e-002
      -4.19831648e-002 2.07013041e-001 -5.33354767e-002 -3.90980653e-002
      -5.59567437e-002 8.60576797e-003 -2.56587714e-001 3.44163664e-002
      -3.10267031e-001 -6.63390234e-002 -5.12858629e-002
      -2.78270483e-001 -2.76445802e-002 -9.69728529e-002 8.22956115e-002
      2.31401160e-001 2.08286479e-001 1.53947733e-002 -1.64215207e-001
      5.22428192e-003 1.93134576e-001 3.76726240e-001 -9.02922451e-002
      1.86911538e-001 2.35849395e-001 2.23776937e-001 -4.71038967e-002
      -1.16910346e-001 9.72156003e-002 4.63294238e-002 3.20122033e-001
      7.26546720e-002 2.53782328e-002 3.05549912e-002 3.81114967e-002
      -2.53656209e-001 6.71840236e-002 7.08226040e-002 -1.17530674e-001
      1.39654547e-001 -1.40591353e-001 1.03660129e-001 1.37299180e-001
      2.13152021e-001 1.63344309e-001 7.51279444e-002 2.76079714e-001
      2.38255411e-001 -8.47837701e-002 5.09941056e-002 -3.52003276e-002
      2.32496545e-001 -1.43006384e-001 1.95846841e-001 3.13836455e-001
      1.47394329e-001 -3.15706521e-001 -2.86371224e-002 -1.59167677e-001
      -4.50421087e-002 3.20117801e-001 -1.79791600e-001 5.79278506e-002
      -4.67446819e-002 -2.93368012e-001 -4.54015434e-001
      -2.87018921e-002 4.60554101e-002 -5.16678207e-002 -9.88467783e-002
      2.24494532e-001 2.80357897e-001 9.78817195e-002 1.90037116e-001
      5.07485261e-003 1.04011267e-001 1.93586916e-001 -1.05024979e-001
      7.21138716e-002 5.02613708e-002 3.66923034e-001 2.09486604e-001
      -1.12436518e-001 -5.49515672e-002 1.23750925e-001 -2.02542562e-002
      -5.63354697e-003 2.87092738e-002 -2.63177335e-001 -1.08219208e-002
      -7.78646097e-002 -3.07543278e-001 -2.08407298e-001
      -3.97178866e-002 1.07705362e-001 -1.24986589e-001 -2.23381832e-001
      -4.43494737e-001 -3.95868301e-001 -3.13781977e-001
      -1.78026661e-001 -2.10995942e-001 -4.90270592e-002
      -7.33592883e-002 9.28915143e-002 1.97322071e-001 1.36195824e-001
      2.42287979e-001 1.97762564e-001 5.09998463e-002 5.03409505e-002
      -3.66147906e-002 1.22997455e-001 5.93904518e-002 -2.16154754e-001
      -2.95850098e-001 -3.62677991e-001 -1.34064510e-001
      -2.76608691e-002 7.00854957e-002 2.08084006e-002 -2.01098621e-001
      1.78715259e-001 6.17031865e-002 -2.71060616e-001 -9.32297483e-002
      -9.66421589e-002 -4.98673506e-002 1.30760074e-001 -7.80504569e-002
      -1.38401419e-001 -9.06524807e-002 -5.78765012e-002
      -1.63073286e-001 3.45783621e-001 -1.62289098e-001 2.89858699e-001
      1.60584942e-001 -2.39038542e-001 -4.30406064e-001 1.39346227e-001
      1.12139247e-001 -1.03186719e-001 -1.96635097e-001 6.27350882e-002
      -4.05512331e-003 1.28160208e-001 1.04289785e-001 -3.59835356e-001
      -2.22508043e-001 -6.81731254e-002 -3.91353279e-001 8.10037460e-003
      -1.12633906e-001 1.48494765e-001 9.31929350e-002 -3.07688653e-001
      3.06400619e-002 1.39706880e-001 -1.18702747e-001 -1.40728712e-001
      4.62390743e-002 -2.35789433e-001 -8.52432698e-002 2.49955401e-001
      1.03205338e-001 -6.20486476e-002 1.24813139e-001 -1.08800828e-001
      2.22177103e-001 9.70214233e-002 -1.45847142e-001 4.84120883e-002
      -2.56484677e-003 6.82572350e-002 -1.70016423e-001 3.26614156e-002
      -1.23045191e-001 -1.56707779e-001 -1.55908391e-001
      -3.64564300e-001 7.51246139e-002 7.78745934e-002 -1.03750341e-001
      -1.38373911e-001 4.42314893e-002 -1.55682117e-001 5.17638661e-002
      2.00707510e-001 2.80992419e-001 1.48201600e-001 4.18507844e-001
      1.64042637e-001 1.37444422e-001 1.19992144e-001 3.38520616e-001
      1.42501712e-001 -1.53258455e-003 -2.23649055e-001 -8.10585842e-002
      -2.13760007e-002 -6.46989271e-002 3.24894994e-001 -1.23833440e-001
      7.36957043e-002 1.92045607e-002 4.80071604e-002 2.33797520e-001
      -1.18601084e-001 -4.68442440e-002 1.60346016e-001 1.54616967e-001
      -4.28177044e-002 1.25042778e-002 -4.21808288e-002 5.18194325e-002
      -1.39289293e-002 -8.22462738e-002 -1.10773630e-001 1.31078199e-001
      2.36291677e-001 8.24744813e-003 -8.13658312e-002 6.46867752e-002
      8.26844275e-002 -5.88785252e-003 7.52521083e-002 -1.54432148e-001
      1.67899102e-001 1.52454227e-001 -4.01949495e-001 3.91394682e-002
      1.90180346e-001 3.63282696e-003 4.42650020e-002 1.29270583e-001
      -2.35351324e-001 -1.66326076e-001 8.92238393e-002 -1.31263822e-001
      8.27504471e-002 2.06241876e-001 -1.40805729e-002 4.46421211e-004
      7.32433274e-002 -1.63727626e-001 -1.24248758e-001 4.06925678e-002
      -1.78276986e-001 1.57794282e-002 4.81605902e-002 -1.77430972e-001
      8.13156068e-002 1.95786148e-001 1.56911984e-001 -3.39994058e-002
      -1.25296235e-001 -2.46947655e-003 1.53361037e-001 1.01846047e-001
      6.51498660e-002 6.92194924e-002 1.73685759e-001 -2.23626196e-002
      -1.22375116e-001 2.04704583e-001 -7.00867847e-002 1.94678195e-002
      -2.15930223e-001 -1.34267882e-001 6.75605312e-002 1.48289800e-001
      -4.56542045e-001 -1.38500124e-001 2.31830478e-001 7.15529770e-002
      2.39458233e-002 -1.84791476e-001 -1.53718188e-001 -3.06609750e-001
      1.30915076e-001 -2.81044632e-001 -1.12643950e-001 -5.22152372e-002
      3.02489609e-001 -2.17727032e-002 -1.31908342e-001 -3.48239094e-002
      -5.43141887e-002 3.36642325e-001 -1.95577845e-001 -2.34062403e-001
      -1.08522050e-001 -4.44278494e-002 -1.34640902e-001
      -7.22403675e-002 -2.38839351e-002 6.81938976e-002 3.09219539e-001
      1.34001717e-001 -4.66731377e-002 9.08677354e-002 3.48395288e-001
      1.03104874e-001 -9.88798514e-002 1.09870329e-001 -7.68163130e-002
      -7.07654878e-002 -6.92222789e-002 -6.99584410e-002 5.00343964e-002
      1.52159765e-001 -1.61602154e-001 2.62849540e-001 2.26231471e-001
      2.28103787e-001 1.11276343e-001 -6.57661185e-002 8.50570872e-002
      -3.89813304e-001 -1.50086090e-001 -2.79371208e-003
      -1.49618238e-001 -7.74615481e-002 5.91897368e-002 2.48990640e-001
      9.47783440e-002 -2.93158460e-003 -1.52604446e-001 4.12547588e-002
      2.54003286e-001 2.49261364e-001 -1.45695657e-001 6.36185333e-002
      3.58762126e-003 -1.68473601e-001 1.97876051e-001 1.04976267e-001
      7.35362396e-002 -2.33390272e-001 -1.39252424e-001 -1.50678441e-001
      1.73817240e-002 2.00910389e-001 -3.02901059e-001 1.13462275e-002
      1.24761954e-001 1.40602574e-001 9.68260616e-002 -1.55367434e-001
      -3.35966498e-001 3.05286795e-002 9.28166416e-003 -1.28925085e-001
      -5.45443706e-002 -1.98680535e-001 4.55581956e-002 4.22301926e-002
      2.63712913e-001 -5.40823452e-002 5.20091616e-002 -1.39980903e-003
      -1.45705700e-001 3.28210704e-002 1.71877414e-001 -8.55089054e-002
      -9.46840420e-002 -6.87254732e-003 -1.16264485e-001 4.06112410e-002
      4.54860553e-002 2.39084840e-001 -9.44597647e-003 3.20750028e-002
      -1.63208377e-002 8.96187499e-002 -4.95358855e-002 -3.21361929e-001
      2.92563625e-002 -1.73959006e-002 1.20949395e-001 -1.26066431e-003
      -2.12342277e-001 -3.36443335e-001 1.65949628e-001 -3.65081243e-003
      -9.08648819e-002 -1.82868149e-002 8.23991001e-002 1.09657757e-001
      -4.02274393e-002 2.31458843e-001 -8.89899060e-002 -2.35166103e-001
      -1.51437357e-001 -9.56470668e-002 -2.67728359e-001 3.36258039e-002
      1.61877964e-002 -1.93053335e-002 8.31577852e-002 1.68940514e-001
      2.22316757e-002 2.17067897e-001 3.85628790e-002 -1.85679331e-001
      9.98724923e-002 1.17682062e-001 -3.99203487e-002 -2.48473078e-001
      -2.80622154e-001 -2.18076751e-001 -5.87356612e-002
      -6.55132905e-002 1.59789752e-002 -2.18380406e-001 -1.17644012e-001
      -3.02837998e-001 -1.68564871e-001 -9.88742933e-002
      -2.90829629e-001 -9.85106453e-002 -1.91999927e-001
      -7.37294778e-002 -8.14777985e-002 -3.27514373e-002
      -1.05046377e-001 -1.71357974e-001 -1.47859782e-001
      -1.45909563e-001 1.01737186e-001 6.60845190e-002 -3.02419346e-002
      -1.50722519e-001 9.15414765e-002 -1.73000410e-001 2.04708606e-001
      -1.61148772e-001 -1.47656903e-001 7.46494755e-002 2.02955872e-001
      -6.85010403e-002 1.39340803e-001 -6.95850933e-003 2.15786576e-001
      1.40314281e-001 -5.26607558e-002 2.39802375e-002 -3.67489196e-002
      -2.15589717e-001 -1.54283747e-001 -1.66248038e-001 7.70900631e-003
      -2.13549659e-001 -1.07494846e-001 -2.61145204e-001
      -7.60772005e-002 4.93726842e-002 -9.53915156e-003 1.57272741e-001
      7.77595490e-002 1.95050687e-001 4.01386656e-002 3.95102501e-002
      -1.13179348e-002 2.40746871e-001 5.49171008e-002 3.11487377e-001
      -7.57475123e-002 2.01030597e-001 2.76432056e-002 -9.77482051e-002
      -7.19968528e-002 -7.12770671e-002 2.79748857e-001 1.08871520e-001
      -6.72835708e-002 -1.84071362e-001 -1.40852481e-001
      -3.65916155e-002 -9.39863771e-002 -2.15512797e-001
      -1.43842921e-001 -7.88562521e-002 6.15117885e-002 3.11466437e-002
      -2.29966164e-001 1.72951013e-001 3.20596409e-005 5.05217500e-002
      -1.22485392e-001 -2.80075371e-001 -9.94574502e-002 1.80089939e-002
      7.91593548e-003 -2.23812997e-001 7.78714418e-002 -1.33725271e-001
      7.93930143e-002 4.86401916e-002 7.70813748e-002 9.98069197e-002
      6.57853344e-003 -6.84892982e-002 -3.56704712e-001 -3.82171236e-002
      1.28993094e-001 3.03429782e-001 2.52205521e-001 1.00715809e-001
      2.26818845e-001 -8.17382708e-002 8.60383064e-002 -2.50984997e-001
      -2.93375291e-002 -1.45462438e-001 2.95243245e-002 1.20992936e-001
      -2.33421579e-001 1.91915650e-002 7.84941539e-002 7.67154843e-002
      1.37667641e-001 -5.22841653e-003 -3.53480071e-001 -3.06402326e-001
      1.26015274e-002 5.52429147e-002 -7.26489201e-002 2.26879641e-001
      -1.37003630e-001 -2.95013726e-001 -2.15324193e-001
      -2.75063097e-001 -3.90296280e-002 3.71183991e-003 1.49753660e-001
      1.25920221e-001 -2.89695352e-001 -2.20683649e-001 -7.72497663e-003
      2.44678274e-001 2.79762834e-001 5.41474596e-002 7.26298392e-002
      -1.18169673e-001 1.68189257e-001 8.33031684e-002 6.47146404e-002
      -4.17918004e-002 1.61370724e-001 1.87317371e-001 -4.65779826e-002
      1.83399260e-001 -6.82747411e-003 -1.84850618e-001 -3.47011313e-002
      3.13256308e-002 3.54883447e-002 -9.49252173e-002 -1.39271021e-001
      6.34209886e-002 -6.09709211e-002 -3.45474742e-002 -1.45532385e-001
      -3.07831049e-001 -1.28419802e-001 -7.40772188e-002 7.03399256e-002
      6.74327239e-002 -1.75221503e-001 2.32105732e-001 2.18555778e-001
      2.16032878e-001 2.74704635e-001 2.13866889e-001 7.93635622e-002
      -4.66160253e-002 2.75900990e-001 1.81055680e-001 1.42387480e-001
      4.06464003e-002 -9.71307829e-002 -1.14764862e-001 2.05890462e-001
      2.15354413e-002 5.07304352e-003 1.90663040e-001 4.26032618e-002
      6.53750151e-002 -2.07372546e-001 -1.65151313e-001 -7.42052123e-002
      -2.27324124e-002 -1.31094173e-001 3.55748087e-002 -1.85502395e-001
      4.34470288e-002 1.07984208e-001 -1.94643978e-002 -1.36373475e-001
      1.84273019e-001 3.13534558e-001 -8.03357959e-002 -3.20982575e-001
      -2.41275713e-001 -3.00111901e-002 -2.91420911e-002
      -4.79049385e-001 -1.25791952e-001 -7.10052848e-002
      -1.85430676e-001 2.36471370e-002 8.55529457e-002 -3.78398895e-002
      2.98263114e-002 1.69539422e-001 -3.27465497e-002 1.07873604e-001
      -5.91317043e-002 2.72245437e-001 -3.78527850e-001 -4.88065779e-002
      -1.08956359e-001 -7.45303631e-002 -3.67226489e-002 7.73239732e-002
      1.88306551e-002 5.97944036e-002 -3.42475981e-001 -1.75881758e-001
      -4.03395295e-002 -6.17048983e-003 -4.43746001e-002 6.28680214e-002
      -2.01292440e-001 -8.89468491e-002 -2.89595962e-001
      -1.81605205e-001 -1.55191064e-001 2.44350731e-002 5.80052026e-002
      2.45536327e-001 -1.51706368e-001 4.93089445e-002 1.68250185e-002
      2.91900840e-002 -1.65216476e-001 -3.07195067e-001 2.75268778e-002
      -1.82958737e-001 3.67520656e-003 1.46044511e-002 -6.95319250e-002
      -9.90772545e-002 -1.84490159e-001 1.59888983e-001 -8.04188028e-002
      4.96473163e-002 7.36763030e-002 3.52157742e-001</_></support_vectors>
  <decision_functions>
    <_>
      <sv_count>1</sv_count>
      <rho>-6.0007489127397289e+000</rho>
      <alpha>
        1.</alpha>
      <index>
        0</index></_></decision_functions></my_svm>
</opencv_storage>
