<?xml version="1.0"?>
<opencv_storage>
<my_svm type_id="opencv-ml-svm">
  <svm_type>C_SVC</svm_type>
  <kernel><type>LINEAR</type></kernel>
  <C>2.</C>
  <term_criteria><epsilon>9.9999997764825821e-003</epsilon>
    <iterations>2147483647</iterations></term_criteria>
  <var_all>3780</var_all>
  <var_count>3780</var_count>
  <class_count>2</class_count>
  <class_labels type_id="opencv-matrix">
    <rows>1</rows>
    <cols>2</cols>
    <dt>i</dt>
    <data>
      -1 1</data></class_labels>
  <sv_total>1</sv_total>
  <support_vectors>
    <_>
      3.84370178e-001 -4.63066064e-002 -4.94546950e-001 -2.24323720e-002
      4.23182100e-002 1.31008521e-001 -4.23380315e-001 -1.73788786e-001
      1.18927870e-004 2.34704539e-001 1.52735814e-001 3.61294419e-001
      6.53753951e-002 2.07368016e-001 4.77011912e-002 6.28267461e-003
      -5.40588535e-002 2.92014867e-001 -4.15761769e-001 2.88176626e-001
      -1.46739855e-001 2.20506266e-001 4.95558716e-002 -3.79335076e-001
      -1.01284862e-001 -2.59289611e-002 -3.99108510e-003
      -1.63370613e-002 2.74690598e-001 3.65978748e-001 1.83248580e-001
      3.73907983e-001 -3.41221839e-002 -2.67768770e-001 7.53021911e-002
      -4.01873648e-001 1.68543503e-001 4.39699203e-001 -3.13980520e-001
      3.58731896e-001 8.76376927e-002 1.71736345e-001 3.45758289e-001
      1.58736318e-001 4.56802189e-001 1.16204110e-003 1.00080103e-001
      2.98370384e-002 -2.25634024e-001 -1.58834785e-001 -2.24316999e-001
      -3.17450687e-002 3.00771803e-001 -1.77748844e-001 -1.81810662e-001
      4.32593763e-001 -1.85551211e-001 -1.36534765e-001 -3.23223144e-001
      -7.99984187e-002 1.13710463e-001 2.22717822e-002 4.45431441e-001
      3.27675454e-002 -1.36134252e-001 2.04196066e-001 -1.29930452e-001
      -2.67338216e-001 3.16490948e-001 -1.40175357e-001 2.56262153e-001
      -7.31260359e-001 1.18965127e-001 3.57463270e-001 9.93042961e-002
      9.08179879e-002 -1.79347649e-001 2.52026647e-001 -2.01209947e-001
      4.14970852e-002 1.37030587e-001 -1.09356157e-001 -3.15576255e-001
      -1.21234335e-001 5.48957229e-001 2.55849749e-001 -1.20526858e-001
      -4.58367735e-001 -1.37052210e-002 3.01008463e-001 -3.35168451e-001
      -6.82123005e-002 -3.12791049e-001 -9.38393250e-002
      -3.56369406e-001 -2.17054218e-001 3.43403928e-002 2.22264022e-001
      1.63246587e-001 -1.40271381e-001 4.41985041e-001 4.04104263e-001
      5.28551824e-002 6.02119602e-002 4.48552668e-001 6.53264150e-002
      2.41595745e-001 -4.60946620e-001 1.70600429e-001 5.32843471e-001
      -5.37813842e-001 -3.22985530e-001 2.96135694e-001 -2.64712095e-001
      -7.03197420e-002 -3.79459918e-001 5.15090466e-001 -2.32041940e-001
      2.11822689e-001 6.39698729e-002 2.57161975e-001 4.51925062e-002
      4.62978035e-001 3.16539049e-001 3.30450296e-001 -1.94613039e-001
      2.77413309e-001 -2.53745943e-001 7.82328993e-002 -6.25873268e-001
      -2.97226459e-001 -5.40497363e-001 1.03923894e-001 -3.78382653e-001
      -3.63116592e-001 3.15146416e-001 -1.09280550e+000 3.95543545e-001
      1.61414370e-001 1.74008399e-001 4.53384340e-001 7.25076795e-001
      -3.38356048e-001 -8.41073930e-001 6.01068795e-001 -2.86978304e-001
      2.90713668e-001 -3.09075922e-001 -4.09541488e-001 -2.05128849e-001
      -8.12025726e-001 1.09183423e-001 -1.49126604e-001 -2.92316139e-001
      -2.77972221e-001 2.15590134e-001 -8.40333384e-003 2.59068131e-001
      -7.16966867e-001 -6.19864106e-001 2.08662767e-002 2.40477666e-001
      1.66400298e-001 -1.44151077e-002 -1.33791333e-002 -3.65769900e-002
      2.50949055e-001 6.82323426e-002 -1.67999953e-001 2.89896391e-002
      -3.24379474e-001 2.65389621e-001 3.17799777e-001 -3.63566637e-001
      -1.67735741e-001 -7.29206383e-001 -6.51790351e-002 8.23633254e-001
      -7.39722013e-001 -5.57001293e-001 1.76971689e-001 -4.66088206e-001
      -5.01084626e-001 -1.56166777e-001 -1.05070531e-001 2.67571688e-001
      -2.69384831e-001 1.87950164e-001 -1.98651701e-001 -3.69477980e-002
      2.18410477e-001 -4.97202724e-001 -1.56437889e-001 -1.98386908e-002
      -5.31833386e-003 2.73922877e-003 -6.73197806e-002 -5.17456084e-002
      -7.85096362e-002 9.70239162e-001 9.12274793e-002 2.35631809e-001
      4.43623960e-001 3.18002701e-001 -5.99261880e-001 -1.64466366e-001
      5.05596101e-001 2.39789143e-001 2.75129050e-001 5.64436913e-001
      1.11613855e-001 3.74476194e-001 4.34279889e-001 5.06242752e-001
      1.12188034e-001 -3.63628477e-001 1.20840095e-001 -8.37475136e-002
      -1.32306248e-001 1.21953227e-001 -3.44413444e-002 -1.81478411e-001
      4.26251650e-001 5.37476689e-002 -2.93955626e-003 -1.51055977e-001
      6.93985224e-002 -1.30960107e-001 -3.70342225e-001 3.44152033e-001
      -3.93925935e-001 -3.42932910e-001 -3.38799059e-001
      -1.24569602e-001 3.98835659e-001 1.12255245e-001 -1.23645917e-001
      2.76795238e-001 -3.41120720e-001 2.28590034e-002 1.09743819e-001
      6.55267358e-001 1.84384018e-001 5.64136468e-002 -3.71511757e-001
      4.08696800e-001 7.06378594e-002 -3.37119490e-001 8.02952722e-002
      -6.00694478e-001 -3.31397504e-001 4.16995436e-002 -1.87646955e-001
      9.18219537e-002 -2.93053482e-002 5.02216280e-001 2.18207255e-001
      -5.08071445e-002 2.18619555e-001 3.35170031e-001 -7.20472708e-002
      4.33554351e-001 -3.55143100e-001 -8.18068907e-002 5.10016739e-001
      -4.16047573e-001 -2.84262627e-001 4.50341582e-001 1.88273281e-001
      3.30675513e-001 1.11513428e-001 3.46593738e-001 -5.50742924e-001
      8.95112902e-002 4.79874730e-001 2.93656766e-001 -4.87629205e-001
      6.54960424e-002 -4.92650688e-001 -3.66146564e-001 -2.24148408e-001
      2.36668766e-001 -1.97389022e-001 -6.25146255e-002 4.57754791e-001
      2.13387311e-001 -2.87468344e-001 -2.39797428e-001 1.26903534e-001
      1.56839594e-001 -2.81870574e-001 6.00459129e-002 -1.43434927e-001
      1.53988346e-001 1.60068035e-001 -3.46606731e-001 -1.51750788e-001
      -5.45191824e-001 4.08399940e-001 9.52562094e-002 7.84258723e-001
      -5.95716774e-001 3.55956614e-001 5.51354289e-001 8.51277336e-002
      -6.84100568e-001 2.06193805e-001 -3.67091566e-001 1.87610108e-002
      -3.18430483e-001 1.64869532e-001 -5.92433453e-001 -3.95082235e-002
      -7.89628327e-001 8.01976144e-001 -2.17446730e-001 -4.50263828e-001
      -1.38822436e-001 3.20393175e-001 2.92407542e-001 -8.26310739e-003
      3.13590556e-001 -2.66929239e-001 1.39544368e-001 -2.04980448e-001
      -3.47233653e-001 1.08003996e-001 -7.83057868e-001 5.09626865e-001
      1.84313983e-001 -4.55846786e-001 -4.71255630e-001 5.04448473e-001
      -7.43977129e-002 -5.34496665e-001 -1.55609846e-003 5.45801446e-002
      2.61826158e-001 -2.53477301e-002 -4.16102737e-001 1.98457763e-002
      5.01799762e-001 5.35902083e-001 4.12042558e-001 1.81664318e-001
      3.36968750e-001 3.30513656e-001 4.52529669e-001 1.80220947e-001
      -4.24942747e-002 7.68387437e-001 -1.29110798e-001 4.10439640e-001
      9.52818170e-002 2.63271302e-001 6.27997875e-001 2.03079075e-001
      6.57991707e-001 -9.04303372e-001 -6.86050415e-001 3.88341129e-001
      -6.33250833e-001 1.48697332e-001 -3.63941282e-001 -2.17141077e-001
      -7.74034038e-002 1.11609682e-001 -1.63339823e-001 -1.08140215e-001
      -1.02907968e+000 5.12136966e-002 6.85432911e-001 7.04008043e-001
      3.69926572e-001 -5.76803125e-002 4.89687264e-001 -3.55558902e-001
      -2.73018718e-001 4.03903246e-001 -2.06003878e-002 -3.82627070e-001
      3.45014781e-002 -3.10097337e-001 -1.98225528e-001 -3.10606539e-001
      7.74685666e-002 5.48656344e-001 4.02514488e-001 -2.32603773e-001
      -5.28635979e-001 -4.82237130e-001 3.77083898e-001 -9.70255584e-002
      -1.29065350e-001 -2.26751879e-001 4.40580815e-001 -7.20479339e-002
      -7.05708027e-001 -9.59700346e-001 2.43918419e-001 -4.61302549e-002
      -1.41267776e-001 4.93619919e-001 3.69857609e-001 4.23014790e-001
      1.09614104e-001 4.36485894e-002 -1.32464096e-001 4.55906898e-001
      3.26788306e-001 -2.17004791e-001 9.73004878e-001 -5.37286460e-001
      2.14538723e-001 -1.54635578e-001 8.43580604e-001 7.48657823e-001
      5.26418984e-002 -6.26289248e-001 2.74433047e-001 -1.67011216e-001
      3.36233377e-001 3.76198500e-001 5.08651137e-001 2.66514421e-001
      5.21361232e-001 7.37546206e-001 -3.94830346e-001 2.23498598e-001
      1.09942317e-001 -5.84382117e-001 2.93174535e-002 -4.18323904e-001
      1.06239915e-002 -2.44951159e-001 -8.64353836e-001 3.27822000e-001
      -1.84904471e-001 -6.27925038e-001 5.91502823e-002 2.43578464e-001
      -2.44047314e-001 -3.86900961e-001 5.93432009e-001 1.83327571e-002
      2.31423397e-002 -4.96767670e-001 2.74272770e-001 -3.13559502e-001
      5.60892746e-002 3.42088729e-001 -3.32693368e-001 -1.10568449e-001
      2.61416584e-001 -8.46323743e-002 -4.36244279e-001 9.97341573e-002
      -4.62753236e-001 -4.06016409e-001 -2.27076769e-001 1.05544142e-001
      -3.34153116e-001 5.45825839e-001 2.28683844e-001 5.61519802e-001
      4.79235649e-001 3.35564941e-001 -4.77939337e-001 -1.26026288e-001
      1.92716673e-001 5.67199588e-001 4.22800452e-001 -6.89759627e-002
      -5.26118517e-001 4.96371716e-001 -3.00406486e-001 -2.45790064e-001
      2.69663692e-001 -8.44796076e-002 1.60241440e-001 -9.42570865e-001
      1.47782518e-002 3.47948149e-002 5.73538482e-001 -3.91768098e-001
      5.89933634e-001 -2.53519453e-002 5.63701272e-001 -5.05302131e-001
      5.12030423e-002 1.48383602e-001 -2.34137326e-001 -4.22634810e-001
      3.54088396e-002 5.06996885e-002 1.87890634e-001 -2.86488622e-001
      1.58705991e-002 6.57615006e-001 3.17174256e-001 2.51845270e-001
      5.94231963e-001 1.95057377e-001 -5.25087655e-001 4.35874611e-002
      2.67289877e-001 4.90401685e-001 -4.18494999e-001 3.09788734e-001
      3.93463165e-001 -1.61115572e-001 -7.93132633e-002 5.36222339e-001
      1.36647932e-003 4.83342052e-001 6.63928166e-002 -6.98102489e-002
      4.10421491e-001 3.92701089e-001 3.30187857e-001 2.54646957e-001
      -1.78296883e-002 5.06884515e-001 1.42001718e-001 -9.74102914e-002
      -6.19628392e-002 6.18280470e-001 2.80618876e-001 -6.32143691e-002
      -3.79528046e-001 7.38770738e-002 1.02980264e-001 -1.59634605e-001
      1.19934209e-001 4.80833441e-001 -5.08863151e-001 -3.54584664e-001
      6.82929099e-001 -4.37634587e-001 -9.15552303e-002 1.86821282e-001
      5.19151837e-002 -1.31252468e-001 4.47269142e-001 -1.82309985e-001
      2.37679556e-001 -8.93974751e-002 1.12101994e-002 1.91187799e-001
      3.06036979e-001 -2.73951113e-001 4.95936610e-002 -2.02522919e-001
      -1.47820124e-003 -8.98282081e-002 1.07878476e-001 1.10758334e-001
      2.83786852e-004 1.52867496e-001 -1.57091931e-001 -4.46541682e-002
      -1.66935131e-001 -4.94238824e-001 2.75584877e-001 1.65832788e-002
      -1.92841236e-002 -6.55092075e-002 -2.85969302e-002
      -9.80958045e-002 1.72420815e-001 -3.54089737e-001 -4.71422225e-001
      5.31929024e-002 -1.74670219e-002 -4.43465382e-001 -2.45081976e-001
      2.52941132e-001 4.31921512e-001 -1.52553633e-001 -3.95336866e-001
      6.33146524e-001 3.52366149e-001 6.28183633e-002 -4.92287092e-002
      5.78777231e-002 -1.92481801e-001 7.06502050e-002 -1.42097175e-002
      1.47052169e-001 3.51075083e-001 -1.64526179e-001 -1.67608872e-001
      4.85377580e-001 -5.25040030e-001 1.92178860e-001 9.89708900e-002
      1.41095027e-001 -3.26221325e-002 -3.34679812e-001 -1.99603602e-001
      -5.44801317e-002 2.42720097e-001 1.26626164e-001 -4.08805430e-001
      2.85704523e-001 8.67060050e-002 -5.76558756e-003 -4.34519202e-001
      2.65860483e-002 1.32963598e-001 6.13065995e-002 -6.78549334e-003
      6.40792912e-003 -1.67983677e-002 2.11357132e-001 2.12807432e-002
      -2.48735592e-001 -2.62967736e-001 2.35719047e-002 -3.59414965e-001
      3.88022304e-001 1.11872002e-001 -7.91182145e-002 3.05746615e-001
      5.49469531e-001 3.04834694e-002 1.28999516e-001 -4.68476564e-002
      -6.65562274e-003 -2.90865004e-001 3.69051434e-002 -5.61491430e-001
      -5.58608584e-002 -2.29326021e-002 -4.72496718e-001
      -5.09530723e-001 2.57829934e-001 -2.61116475e-001 -1.30535774e-002
      -7.51879036e-001 -2.63486028e-001 -4.69738021e-002
      -7.53647909e-002 -2.48181239e-001 1.44865131e-002 3.90250862e-001
      -1.57172218e-001 -2.25185826e-001 1.10292353e-001 9.16688144e-002
      7.65585840e-001 -6.23711124e-002 8.90127644e-002 1.47809729e-001
      -3.87049198e-001 6.41962409e-001 9.73380730e-002 -7.02076927e-002
      2.13754714e-001 3.00021768e-001 -6.68566003e-002 1.09830879e-001
      -4.82622415e-001 -3.27155858e-001 6.52812839e-001 3.37583095e-001
      -2.73848504e-001 4.37833220e-001 1.30548477e-001 3.23172390e-001
      4.21022594e-001 -1.19907960e-001 3.87354523e-001 2.08826646e-001
      4.84570637e-002 1.08238690e-001 3.79222989e-001 -1.91019446e-001
      -2.29442477e-001 3.78149509e-001 1.33455485e-001 2.84196913e-001
      1.59319848e-001 3.78110893e-002 -2.26261303e-001 1.89624622e-001
      6.28887117e-001 -9.50084388e-001 -3.44044834e-001 4.65611443e-002
      -2.41758317e-001 -1.04585774e-001 9.87045169e-001 -7.23936021e-001
      2.36624375e-001 -6.66222489e-003 -1.20747723e-001 -3.23038489e-001
      -5.57209611e-001 1.80627391e-001 3.66870344e-001 -1.97061934e-002
      3.00175577e-001 -6.19526565e-001 -7.58029819e-002 4.15077329e-001
      -1.63282916e-001 -5.98114431e-001 7.91781306e-001 1.61694378e-001
      -5.67871928e-001 -4.44417834e-001 2.95397848e-001 4.85326767e-001
      -7.28082955e-002 1.12120077e-001 1.54598936e-001 1.00655807e-003
      1.27182707e-001 -5.37145674e-001 4.94792983e-002 -3.33348662e-001
      3.48709315e-001 -1.89139694e-001 -6.90681517e-001 1.64414644e-002
      5.67338765e-001 2.78162807e-001 8.06495786e-001 1.45748883e-001
      -3.07964414e-001 -2.32747439e-002 1.33203104e-001 -2.10346773e-001
      2.04149976e-001 2.53268778e-001 -7.10510612e-001 -1.92188963e-001
      -1.59988254e-001 3.05582404e-001 5.26341856e-001 -2.34876379e-001
      -3.95414621e-001 -3.70793134e-001 3.65900695e-001 -6.47616446e-001
      -9.66473445e-002 -8.36560488e-001 -8.21811557e-001 6.29933029e-002
      2.59514004e-001 -5.13478875e-001 3.26838493e-002 1.58474222e-001
      -3.96667570e-001 2.60757923e-001 2.71748334e-001 7.56069839e-001
      -8.45010281e-001 -5.49657345e-001 -1.96563423e-001
      -4.24506158e-001 -5.33068717e-001 -6.27766624e-002
      -1.04741722e-001 -2.70174682e-001 -2.81435668e-001
      -7.58252069e-002 2.46024877e-002 1.60303250e-001 3.44062924e-001
      4.19879943e-001 6.10919178e-001 -2.19963342e-001 -2.42574319e-001
      -2.51662552e-001 -6.62289500e-001 -3.12331110e-001
      -8.15896392e-002 -8.49888206e-001 -5.47795117e-001 8.27199817e-001
      1.05058514e-001 -8.48013982e-002 1.07894969e+000 6.88902438e-001
      3.49768996e-001 3.63482028e-001 8.65817890e-002 1.06330432e-001
      -3.95077199e-001 -1.69610560e-001 9.48755801e-001 -2.55651534e-001
      1.45105436e-001 -4.99277353e-001 2.03307927e-001 -2.29777575e-001
      -1.90558419e-001 1.34844080e-001 -1.85460955e-001 2.53294379e-001
      8.30661952e-002 5.61874866e-001 5.87467194e-001 -6.43912852e-002
      -4.80354205e-002 6.51219934e-002 2.49827355e-001 -2.96470374e-001
      -4.36458401e-002 4.85723108e-001 4.37999964e-002 -2.18195409e-001
      -3.19465965e-001 -2.83592522e-001 5.09559095e-001 -5.57645932e-002
      7.90269315e-001 2.37247914e-001 5.05481541e-001 3.18232566e-001
      3.34380805e-001 -2.53921092e-001 1.07234800e+000 6.06052339e-001
      4.72942233e-001 7.98827410e-001 1.24357454e-001 2.62194842e-001
      -4.62405026e-001 -2.23050162e-001 3.61813605e-001 -7.05711618e-002
      -4.35468480e-002 -4.61265683e-001 3.41692030e-001 -6.56569958e-001
      4.39773232e-001 -2.52552837e-001 3.31629477e-002 -1.34295076e-001
      -2.05143150e-002 3.45928012e-003 4.55530822e-001 -1.99960753e-001
      2.45366424e-001 -4.01901007e-002 1.64989844e-001 9.24425125e-002
      4.09574121e-001 -1.24538235e-001 -3.08907121e-001 1.86293885e-001
      -2.01432183e-001 -2.23275065e-001 1.29785991e+000 4.54421252e-001
      2.42497072e-001 -1.76785707e-001 3.18331689e-001 -2.62400925e-001
      5.02026498e-001 -6.19216681e-001 4.17940497e-001 1.08737998e-001
      -1.51459277e-001 -1.80284098e-001 -6.83198869e-001
      -7.80576825e-001 2.55493760e-001 -5.34309924e-001 -2.23396700e-002
      -8.74401629e-002 3.26311469e-001 4.91323136e-002 3.32675189e-001
      1.06167786e-001 -2.09258780e-001 2.55948216e-001 6.54550493e-001
      2.44402900e-001 8.37734193e-002 -4.33667213e-001 2.05413133e-001
      -9.88390446e-001 -3.92584980e-001 -1.63556129e-001
      -7.45565221e-002 -2.30432153e-001 3.02825570e-001 4.63779300e-001
      7.55224943e-001 5.40288389e-002 1.11164404e-002 4.43676025e-001
      4.94215012e-001 4.68327582e-001 2.10402980e-002 4.21843454e-002
      6.69619069e-002 -5.85056305e-001 7.65202940e-002 -7.22226083e-001
      -4.79207277e-001 1.57896757e-001 7.87396058e-002 8.86982456e-002
      -2.35413343e-001 -4.08356249e-001 3.31318006e-002 4.89182591e-001
      -3.18753392e-001 1.65624142e-001 2.86078483e-001 5.97528636e-001
      -2.62365043e-001 -3.18134636e-001 3.64300385e-002 1.01953074e-001
      2.28298366e-001 1.90580234e-001 1.38901219e-001 -7.44465232e-001
      3.47920746e-001 -8.20214570e-001 -1.40500575e-001 -9.77430865e-002
      -2.78637141e-001 9.70899761e-001 3.86980921e-001 2.06734702e-001
      -6.52841851e-002 8.16617548e-001 -3.59656033e-003 -1.02025889e-001
      2.62028500e-002 2.39031777e-001 -3.84916991e-001 -1.75352469e-001
      4.65726554e-001 -4.99800831e-001 -1.54691532e-001 -2.85922587e-001
      3.30861300e-001 -2.26528332e-001 -5.82729161e-001 -3.87442976e-001
      -3.84319052e-002 -3.74695033e-001 4.80506003e-001 1.37124702e-001
      7.62082398e-001 3.67274553e-001 6.10592663e-001 -4.29184645e-001
      -1.85996648e-002 -2.59016722e-001 5.51638484e-001 -1.61630064e-002
      -3.85096610e-001 8.93096328e-002 1.37475416e-001 4.14720803e-001
      8.93245518e-001 4.06768918e-001 5.87532759e-001 -7.04489276e-002
      -6.08487166e-002 -1.22665986e-001 -7.47024000e-001
      -1.07051628e-002 4.07350689e-001 5.85786879e-001 -8.48879963e-002
      -9.35092390e-001 1.54210210e-001 -9.44519937e-002 4.63189453e-001
      -4.58983518e-002 -7.00526118e-001 4.48339999e-001 -3.57023329e-002
      -1.22247815e-001 -7.49670923e-001 -5.03745735e-001 1.05724402e-001
      -2.32507326e-002 6.85985088e-002 2.24652275e-001 -2.85017908e-001
      3.30373049e-001 8.32592189e-001 2.79541779e-003 1.29621625e-001
      -7.21191585e-001 1.18709825e-001 4.10017073e-001 6.93008065e-001
      -3.89232427e-001 4.47492510e-001 -2.34581783e-001 1.25618830e-001
      -5.14680624e-001 -1.55070543e-001 7.15858862e-002 -2.57002383e-001
      4.06945199e-001 -2.08915055e-001 -4.57097739e-001 -2.77614802e-001
      -3.90777498e-001 -5.40311992e-001 -2.59471275e-002 1.95934728e-001
      -3.89122628e-002 7.29067624e-002 -1.88680872e-001 4.09845449e-002
      7.94343710e-001 3.05298511e-002 -5.42571008e-001 -9.38399136e-001
      -6.35801196e-001 -3.27812910e-001 4.90317881e-001 -4.30701435e-001
      1.80086508e-001 2.66784698e-001 3.72703016e-001 -3.37156743e-001
      -5.47740087e-002 2.25889713e-001 -3.77656043e-001 -2.40117401e-001
      1.42732516e-001 7.11281179e-003 2.60213781e-002 -3.18276197e-001
      5.43212481e-002 -1.07639506e-001 7.76349723e-001 3.64170671e-001
      -5.18675782e-002 -9.76338267e-001 -6.35441244e-001
      -4.89377499e-001 -4.22744686e-003 -5.07996418e-002
      -7.26759508e-002 2.42890403e-001 -5.83219342e-002 -1.47169223e-002
      -1.42176941e-001 -5.54062352e-002 2.04202294e-001 2.69578636e-001
      -1.89388528e-001 -3.48174393e-001 1.23535804e-001 2.07555935e-001
      3.38634193e-001 2.38470986e-001 4.48658355e-002 5.86897314e-001
      1.67222247e-001 2.72288304e-002 1.67593822e-001 -4.27476674e-001
      -1.82922378e-001 -2.48549327e-001 6.55685782e-001 -1.44912407e-001
      3.31356982e-003 -2.64743149e-001 -2.05888584e-001 7.47645855e-001
      1.50961086e-001 -1.52418613e-001 2.68047720e-001 -3.90435234e-002
      -7.54878893e-002 -3.48574907e-001 1.16152771e-001 2.30113402e-001
      2.24029049e-001 -2.43238106e-001 2.17566743e-001 1.90401986e-001
      -4.31178570e-001 1.04327663e-003 -1.07881986e-002 2.98124015e-001
      4.91667032e-001 -1.42571047e-001 4.73883450e-002 5.27753159e-002
      5.18463969e-001 -1.40949264e-001 9.41146817e-003 -3.11711997e-001
      -9.11887884e-002 1.36651278e-001 -3.88288766e-001 -3.46511960e-001
      -1.13768515e-003 3.33322614e-001 -3.95853192e-001 8.25903863e-002
      -4.15255934e-001 -7.42557347e-001 -1.89293683e-001 5.13961911e-001
      5.68299294e-001 3.23288321e-001 -2.09653556e-001 -6.28414378e-002
      2.36200407e-001 1.96454823e-002 4.40010279e-001 1.94295958e-001
      -3.16126078e-001 -3.12510461e-001 1.90745324e-001 3.26915413e-001
      -4.46437687e-001 1.35790110e-001 -5.41299343e-001 4.47524711e-002
      1.80936530e-001 2.41061971e-001 8.60601291e-002 1.66807309e-001
      1.28068611e-001 1.72559246e-002 1.16002902e-001 1.88231483e-001
      2.13860452e-001 -6.02350347e-002 1.29856884e-001 -2.57860005e-001
      3.05411547e-001 -2.45399937e-001 -5.76665103e-001 1.96299642e-001
      -1.68382246e-002 -6.05330348e-001 -3.44555438e-001
      -1.62242889e-001 -1.02998599e-001 -1.47997990e-001
      -4.55296457e-001 6.94183767e-001 1.06186390e-001 -1.23201750e-001
      -3.37483853e-001 2.58324090e-002 2.10359618e-001 -3.36801186e-002
      -7.76766762e-002 -5.87422192e-001 -2.15323046e-001 4.81047854e-002
      -5.11514023e-002 1.39709264e-001 -4.60633114e-002 3.40906084e-001
      3.27554911e-001 1.49108112e-001 6.95218295e-002 -3.43806088e-001
      1.44445583e-001 2.37522885e-001 4.73067969e-001 -2.45502815e-001
      -3.58149201e-001 -4.07449007e-001 3.73364061e-001 -3.39650929e-001
      1.65414140e-001 2.16116339e-001 -2.27255836e-001 -4.81036931e-001
      -2.49136575e-002 4.05285031e-001 -9.87041295e-002 -1.49496973e-001
      -1.90481067e-001 -3.63595068e-001 -1.05211481e-001
      -4.22524452e-001 -3.07233065e-001 -3.21220130e-001
      -4.81403202e-001 9.47544053e-002 -2.93234229e-001 -9.90895107e-002
      -1.38044655e-001 -9.38141048e-002 3.28673154e-001 1.11345999e-001
      4.04992521e-001 3.79063599e-002 4.86031547e-002 -9.91957486e-001
      7.69222453e-002 3.31904829e-001 -4.58213121e-001 2.17975408e-001
      -6.81110084e-001 1.26668205e-002 -3.16991776e-001 -2.04417929e-001
      8.28975856e-001 1.81576490e-001 -2.43421495e-001 7.52964690e-002
      8.32386613e-001 4.22804743e-001 -4.20602888e-001 3.59330833e-001
      1.82847545e-001 3.72286618e-001 -8.65263283e-001 2.13414714e-001
      1.39438212e-001 -4.24145669e-001 2.00413316e-001 4.19742227e-001
      -4.31595445e-001 -2.00947464e-001 7.95894116e-002 3.65467876e-001
      -4.68624622e-001 -8.11084569e-001 5.02040446e-001 -3.73855323e-001
      -2.30002075e-001 -3.78944188e-001 -4.76764947e-001 3.26450974e-001
      -1.17714070e-002 -6.70423031e-001 3.45218360e-001 -8.34149301e-001
      -2.97967970e-001 -7.17817247e-001 -2.32270345e-001 6.83408558e-001
      -2.97612846e-001 1.76664218e-002 -3.10797513e-001 8.18989724e-002
      -5.32592908e-002 -5.29892266e-001 3.66216749e-001 8.20120797e-003
      4.89323437e-001 -1.95077837e-001 -9.86990869e-001 5.68730950e-001
      -4.01180327e-001 -4.67291117e-001 4.42006290e-001 5.50366044e-001
      6.15716986e-002 -1.03645539e-002 2.44210094e-001 1.58311233e-001
      -4.73502368e-001 -3.12006384e-001 -4.56760667e-004 4.78798673e-002
      2.96566367e-001 -5.13840802e-002 -3.06511283e-001 -1.65481165e-001
      2.36590758e-001 7.55856782e-002 5.53011298e-001 1.34412035e-001
      1.80419341e-001 -6.89876825e-002 3.19356292e-001 -2.68982828e-001
      -5.96446730e-002 -2.36244604e-001 -1.24075204e-001 8.09300542e-002
      -3.91685627e-002 -5.07661738e-002 -5.88561483e-002
      -9.14246142e-002 5.48366718e-002 3.94720048e-001 -3.95523049e-002
      -3.34889352e-001 6.80159569e-001 -1.22703061e-001 -1.96147814e-001
      -1.16467178e-001 2.16794863e-001 -4.47052658e-001 5.28906249e-002
      -1.66197106e-001 -1.64320037e-001 -2.53414482e-001
      -5.45559764e-001 2.31355116e-001 -4.56365705e-001 6.27743825e-002
      -4.14840803e-002 -5.99811137e-001 6.11188784e-002 -1.35034904e-001
      -3.50399949e-002 9.21155691e-001 2.41780311e-001 -2.21454948e-001
      2.25632027e-001 -2.06146225e-001 -2.20681876e-002 4.82289195e-001
      4.43817466e-001 1.43115640e-001 -2.49047980e-001 -3.64896774e-001
      -1.98762655e-001 -5.72857201e-001 4.70124751e-001 -9.29104835e-002
      3.01320851e-001 -5.75144053e-001 -9.02995244e-002 -5.21891356e-001
      2.97434419e-001 5.97827494e-001 2.30106264e-001 -1.57781094e-001
      -4.42204531e-003 5.72337098e-002 -8.47779453e-001 -2.72086143e-001
      1.11115150e-001 5.14451325e-001 3.02190930e-001 -1.62312299e-001
      -2.18688115e-001 -7.29210451e-002 -2.12549463e-001 8.25301558e-002
      5.27885437e-001 3.39981884e-001 3.04237515e-001 -2.53821701e-001
      1.58201620e-001 -3.63066137e-001 1.35518491e-001 -1.15996167e-001
      5.93786359e-001 3.02848160e-001 4.44025397e-001 -4.66764152e-001
      -6.16118073e-001 5.66185057e-001 -1.47893086e-001 1.93535820e-001
      6.09424591e-001 5.02813220e-001 -6.58743501e-001 -2.30974153e-001
      -5.05293682e-002 1.23501904e-001 5.54037131e-002 -1.33712932e-001
      -2.45448083e-001 6.15692377e-001 1.51904061e-001 -4.82843816e-001
      1.94337711e-001 -2.11712271e-001 3.32631841e-002 1.29159480e-001
      3.04969311e-001 1.37318000e-001 -3.42924625e-001 -5.89962453e-002
      4.92509864e-002 1.34490818e-001 -1.08497716e-001 2.62972981e-001
      7.09466487e-002 -2.17489019e-001 4.32863444e-001 5.40048599e-001
      -5.97981155e-001 3.12512666e-002 7.77522027e-002 3.25730816e-002
      -6.03627026e-001 3.41132939e-001 -3.26697260e-001 1.21602915e-001
      1.66917354e-001 7.49923706e-001 -4.95204806e-001 8.37893412e-002
      1.86563060e-001 1.95771847e-002 2.69753903e-001 1.86796747e-002
      5.56990623e-001 4.10689265e-001 1.19760938e-001 -7.16162920e-001
      6.58062637e-001 -3.36491689e-002 5.25927603e-001 2.92568803e-001
      -9.76456478e-002 1.49437487e-001 -1.34610578e-001 2.45711491e-001
      -2.22391739e-001 -3.34537178e-001 4.05249804e-001 4.89096880e-001
      -8.15469205e-001 -1.07452787e-001 -4.58248824e-001
      -1.98619828e-001 -4.07456070e-001 2.52474815e-001 -4.04958762e-002
      2.13147104e-001 4.46294755e-001 1.17782898e-001 3.85035098e-001
      2.94948518e-001 5.76320849e-002 2.05587670e-001 -1.03664890e-001
      -4.99477416e-001 -1.72051668e-001 -3.40023905e-001
      -7.93334155e-004 -2.85911143e-001 -4.29237992e-001 2.84573764e-001
      -3.72596771e-001 -8.68121505e-001 -8.06901902e-002
      -8.72588977e-002 1.99474141e-001 -2.48299181e-001 -2.98439622e-001
      -3.32044125e-001 3.87592763e-002 3.07715505e-001 -8.65896791e-002
      -7.68499598e-002 3.39513272e-001 -1.13823414e-001 -3.25479396e-002
      1.10086352e-001 -8.06529522e-002 3.35275859e-001 -4.24073309e-001
      2.00987861e-001 1.46530226e-001 -2.34131142e-001 2.15481177e-001
      5.66866279e-001 4.29010302e-001 2.21854433e-001 -5.19375466e-002
      -4.14344408e-002 -2.20192134e-001 -1.86176762e-001
      -7.57346749e-002 -1.43908888e-001 2.19180752e-002 7.81419933e-001
      8.61256361e-001 3.81881781e-002 -3.41246068e-001 -1.22648127e-001
      -4.16716859e-002 3.35997045e-002 -4.28406335e-002 2.90761232e-001
      5.24356604e-001 8.89031813e-002 1.03976361e-001 3.38109523e-001
      1.84857517e-001 3.29200655e-001 2.90711284e-001 -3.49905729e-001
      8.10083523e-002 -9.05335128e-001 -5.16147673e-001 2.23189220e-001
      5.10201871e-001 -4.32654619e-001 7.33276784e-001 1.59131333e-001
      -5.06677292e-002 4.63314801e-001 -1.74892917e-002 2.21042275e-001
      6.00584112e-002 -6.83436632e-001 -4.56547737e-001 -2.93604761e-001
      -7.23891675e-001 3.36316675e-002 1.25863776e-001 -2.10538983e-001
      -3.32643211e-001 -1.19426407e-001 -5.88242114e-001 1.25124216e-001
      4.78290319e-001 4.84637618e-001 1.99689522e-001 -1.41005507e-002
      -1.13819197e-001 -1.40854031e-001 1.24840185e-001 4.12214175e-002
      -5.29628813e-001 -7.56096691e-002 -1.36067439e-002 2.61539649e-002
      -9.30401206e-001 5.95388897e-002 -2.13088110e-001 6.70388192e-002
      5.37313104e-001 1.39827877e-001 3.40981126e-001 1.79433879e-002
      1.66125059e-001 2.30329290e-001 7.93248117e-001 -2.32792869e-001
      -8.97751004e-002 9.05481279e-001 4.16872323e-001 -3.14924747e-001
      1.50701433e-001 6.39364779e-001 1.64915651e-001 -2.57349521e-001
      3.37290689e-002 -5.63987494e-001 -1.57525092e-001 -1.33528784e-001
      3.81799154e-002 -2.68704206e-001 4.54986989e-002 5.95838547e-001
      2.99369544e-001 -3.65412444e-001 1.23062335e-001 3.00306737e-001
      -3.54954600e-001 4.95313674e-001 -5.69991052e-001 -4.28149879e-001
      2.52562970e-001 1.58422381e-001 3.67962629e-001 3.09821934e-001
      5.44771492e-001 -1.51126340e-001 2.04245076e-001 -2.90962085e-002
      1.90695599e-001 -9.01885629e-001 3.18827808e-001 -3.84715825e-001
      5.49319014e-002 3.64684105e-001 -3.50540012e-001 -1.28406376e-001
      1.82499215e-001 2.95552820e-001 -2.35099629e-001 -2.60176659e-001
      7.35300034e-002 1.16744027e-001 3.59194070e-001 2.52749115e-001
      5.54813385e-001 -4.42190081e-001 -2.31439248e-001 5.88057041e-002
      1.71920151e-001 3.76746297e-001 3.93763274e-001 3.54035914e-001
      2.13353291e-001 -3.12524319e-001 1.79675981e-001 1.98055282e-001
      -3.04620355e-001 8.73504281e-001 -2.82282773e-002 -5.89754134e-002
      -5.32937050e-001 -1.07292965e-001 2.15042695e-001 1.96226969e-001
      -4.11053389e-001 -1.37313589e-001 1.98506057e-001 -2.22683549e-002
      -1.62816674e-001 -3.17541897e-001 -2.87002474e-001 5.77024519e-001
      2.04420164e-002 -3.20271254e-002 -1.86416432e-001 -8.92175958e-002
      2.39688724e-001 -1.02536350e-001 3.77133489e-001 -1.14333160e-001
      -3.26603539e-002 4.00658160e-001 1.47209447e-002 1.04778126e-001
      6.85271025e-001 -3.69270481e-002 -2.95791179e-001 1.13907091e-001
      -3.88334952e-002 -3.54671597e-001 -9.18856919e-001
      -2.26733372e-001 1.04809493e-001 -6.05007946e-001 -1.08377412e-001
      7.78512120e-001 -7.23262787e-001 5.29385209e-001 2.03419700e-002
      -4.16338891e-001 -9.68144655e-001 -3.84058923e-001 7.04975873e-002
      2.29179084e-001 -3.64767969e-001 5.20409167e-001 -2.85073042e-001
      3.36727649e-001 -3.35819989e-001 7.05650926e-001 -5.69429547e-002
      6.96629509e-002 2.93971658e-001 -3.01014066e-001 -2.23737732e-001
      2.61637449e-001 1.33884707e-002 -3.76713276e-001 4.53985900e-001
      -5.30969560e-001 2.65559644e-001 -5.25666237e-001 8.61528218e-002
      1.83199197e-001 -4.10265811e-002 3.10687095e-001 9.14151520e-002
      2.01742202e-001 -5.46895117e-002 1.19345039e-001 3.37728024e-001
      2.42933884e-001 -2.01566800e-001 1.44850686e-001 -3.26112770e-002
      1.91920727e-001 1.18572805e-002 -4.92915162e-004 5.08698285e-001
      2.04606786e-001 2.00137243e-001 -4.28787142e-001 -1.76273778e-001
      3.17556471e-001 5.08394718e-001 -2.23386422e-001 1.41283512e-001
      -7.97394961e-002 -3.71498503e-002 6.06022894e-001 -7.30873406e-001
      -6.10898361e-002 1.84141800e-001 -4.78760958e-001 -3.27070653e-001
      1.08004615e-001 6.64023042e-001 -3.59021157e-001 -1.00585774e-001
      -5.43797851e-001 -6.82439096e-003 1.79410987e-002 -1.66454092e-001
      2.86304563e-001 -3.91018808e-001 -1.27702728e-001 3.83992165e-001
      -2.77371824e-001 8.29692662e-001 9.55869257e-002 -3.02896738e-001
      -4.17020082e-001 -5.01268983e-001 -9.30760622e-001 1.15907781e-001
      1.13728769e-001 2.71309733e-001 4.65696514e-001 -2.60740966e-001
      1.19518831e-001 -2.18032837e-001 4.87484306e-001 -3.22572589e-001
      1.63788453e-001 4.19578731e-001 -1.36949167e-001 -5.31475917e-002
      9.15838853e-002 -7.73504749e-002 -8.88518453e-001 3.49902481e-001
      -7.23893881e-001 -2.74506629e-001 3.21675122e-001 -1.08857140e-001
      2.95508858e-002 -1.73744768e-001 -4.45711613e-002 2.08779171e-001
      -2.90701687e-002 -2.57476300e-001 -1.53601259e-001
      -1.09246671e-001 -1.12773097e+000 1.61858853e-002 -3.44178289e-001
      3.04732054e-001 -9.86209065e-002 -7.72509277e-001 -1.57722339e-001
      5.24023771e-001 -1.24797337e-001 -8.69602025e-001 -1.18750595e-001
      1.29445612e-001 -4.05488849e-001 1.83971196e-001 -8.13563287e-001
      -3.68073553e-001 -6.88096508e-002 -3.82875532e-001 6.85612485e-002
      -8.47552538e-001 -1.79983564e-002 -6.07057810e-001
      -7.70226896e-001 -1.71500549e-001 -3.86256635e-001
      -3.72587085e-001 -8.79864037e-001 -3.39668125e-001 5.92204988e-001
      7.42063642e-001 1.27797812e-001 1.09308809e-001 1.79498330e-001
      6.95497319e-002 -1.32847205e-001 -4.39203948e-001 3.73693675e-001
      -1.88525289e-001 -9.62663963e-002 3.32207173e-001 7.61163086e-002
      2.87741333e-001 -1.16516009e-001 1.13659225e-001 2.73187786e-001
      -4.60335165e-002 -2.70185888e-001 3.41479540e-001 4.46387291e-001
      4.02640879e-001 3.07677150e-001 4.21780705e-001 6.26088604e-002
      3.65853369e-001 -3.64244670e-001 -2.10535582e-002 2.00018391e-001
      1.83730930e-001 2.50838190e-001 -2.77648211e-001 -8.26546699e-002
      3.02119374e-001 7.87233233e-001 -3.10898572e-001 -9.28517520e-001
      -5.49422979e-001 -2.15273291e-001 -5.68456113e-001 2.20177203e-001
      -7.45595932e-001 7.98449159e-001 -9.26925894e-003 1.00487679e-001
      2.60514557e-001 -1.33075520e-001 -3.33816588e-001 -1.40992582e-001
      -3.41206431e-001 2.46301249e-001 -9.61658001e-001 -3.52263212e-001
      -3.34807694e-001 -7.03342199e-001 -4.42130208e-001
      -5.70064247e-001 -7.18545556e-001 -1.18110001e-001
      -1.13008581e-001 1.54713705e-001 1.10214375e-001 8.49130601e-002
      -4.92304802e-001 -3.17887336e-001 -2.01834738e-001
      -1.12989329e-001 -1.20340377e-001 -7.92065501e-001
      -7.30591193e-002 -4.70628738e-002 1.98043138e-001 -1.57930508e-001
      4.10944194e-001 -2.23998234e-001 -3.03523749e-001 5.89597702e-001
      2.77083665e-001 -5.35295129e-001 -8.45437229e-001 3.65501404e-001
      -1.32881939e-001 5.31829596e-001 -4.17961553e-002 2.65139550e-001
      1.84446096e-001 -1.12345278e+000 3.06974620e-001 -5.66674471e-001
      -1.18493772e+000 6.06197119e-002 -3.60522658e-001 -2.17059404e-001
      5.91579854e-001 7.30132699e-001 6.39765501e-001 2.27053121e-001
      7.91527450e-001 -1.38779187e+000 4.99261051e-001 3.49136107e-002
      4.11135554e-001 8.21162760e-001 1.04010112e-004 1.46452382e-001
      7.36699879e-001 1.16885737e-001 5.72248340e-001 -1.50198013e-001
      4.46510613e-002 -3.67540568e-001 -3.65528613e-002 5.90111539e-002
      -5.13433576e-001 4.07551378e-001 2.06643939e-001 -4.44980532e-001
      1.75113112e-001 -1.62826106e-001 -4.40353841e-001 6.75268948e-001
      1.34885132e-001 -5.21165669e-001 -1.47254886e-002 -6.45265043e-001
      5.34758329e-001 3.59778017e-001 -4.76399243e-001 -6.71766341e-001
      3.60278338e-001 2.00322181e-001 -4.26167041e-001 -2.07042813e-001
      -6.85975552e-001 -1.33307889e-001 -1.96655065e-001
      -7.30980653e-003 1.43985271e+000 -1.73104957e-001 -9.12139535e-001
      7.34524205e-002 2.03812420e-001 -5.83932340e-001 1.91417068e-001
      4.36889976e-002 -8.67997646e-001 -5.73861122e-001 -1.27296178e-002
      -1.68807417e-001 -3.39070112e-001 -5.03273122e-003
      -2.48692244e-001 6.43883526e-001 3.54206413e-002 5.19229829e-001
      7.76184022e-001 3.47867385e-002 -4.78016973e-001 5.70099294e-001
      7.87465274e-001 5.75191200e-001 3.31446305e-002 5.46315074e-001
      2.52266705e-001 2.93901145e-001 1.92035409e-003 1.04079175e+000
      -7.00305879e-001 4.28395122e-001 -3.46031561e-002 -3.18949193e-001
      4.15789098e-001 2.36926660e-001 -5.76716177e-002 3.12854320e-001
      -4.30828273e-001 3.56294930e-001 1.65827066e-001 -2.12066159e-001
      -2.37959445e-001 -3.73842448e-001 -5.54328561e-001
      -5.87513506e-001 -7.70987511e-001 1.28708974e-001 5.89031056e-002
      -2.80506492e-001 -2.76347846e-001 -1.69340476e-001 3.76979113e-001
      3.06882560e-001 -5.67623913e-001 -6.53294146e-001 -4.76596877e-002
      -1.00014498e-002 3.09480548e-001 1.79821759e-001 -2.54850328e-001
      -2.95342833e-001 -1.41518280e-001 -1.12767331e-001 3.52606326e-001
      -6.56049430e-001 -5.07455945e-001 -3.37576538e-001
      -4.88245457e-001 -5.39110780e-001 4.31919247e-001 -4.43407446e-001
      -3.31229232e-002 2.41007209e-001 -9.91031826e-002 -9.66324955e-002
      9.42929804e-001 4.58905429e-001 -1.98136181e-001 -3.78484160e-001
      -7.00899065e-001 1.15444469e+000 -4.31955457e-001 -1.01693884e-001
      -2.41645470e-001 9.17209536e-002 -9.74678993e-001 -2.42321759e-001
      6.42895341e-001 4.44928497e-001 2.99296081e-001 -7.97368705e-001
      1.72923610e-001 2.35634059e-001 -1.87200695e-001 3.06931697e-002
      -2.61805624e-001 5.88802159e-001 2.92682469e-001 7.02690706e-002
      -4.85963643e-001 3.09317093e-002 -4.43693429e-001 -3.45187008e-001
      3.46164435e-001 1.17229586e-002 -2.98875540e-001 -2.32114911e-001
      -3.44441980e-001 -2.63488203e-001 -4.13601220e-001 3.94371063e-001
      -4.65200506e-002 3.68269473e-001 -3.52752239e-001 -7.63732612e-001
      -7.14178324e-001 5.86968996e-002 -2.57061481e-001 7.01493758e-004
      -5.42625844e-001 1.13237329e-001 -2.99715340e-001 -8.60345781e-001
      -5.99961936e-001 -1.22992747e-001 5.04942298e-001 -2.31483936e-001
      -4.84716117e-001 -4.77971792e-001 1.33498415e-001 2.35555142e-001
      -1.97962835e-001 6.34482563e-001 -1.40166311e-002 -4.93551582e-001
      3.61484617e-001 -5.13849668e-002 6.12257421e-001 1.24522619e-001
      -2.02084646e-001 -3.27598512e-001 1.27882266e+000 -4.39249992e-001
      1.77282900e-001 -2.06622750e-001 -2.55842596e-001 -1.57227084e-001
      -1.10346961e+000 -2.08830461e-001 -3.93336564e-001 8.45681548e-001
      7.01909304e-001 -2.58594036e-001 3.13710988e-001 7.76834507e-003
      1.86557651e-001 -1.71264336e-001 -7.41228938e-001 -5.26319630e-002
      4.55392092e-001 1.67563215e-001 2.49423221e-001 7.61594713e-001
      7.56582618e-002 -5.73671579e-001 2.03301653e-001 3.59749019e-001
      -1.39748618e-001 -2.40779549e-001 3.51174206e-001 -1.78276122e-001
      -3.51791263e-001 3.08177114e-001 4.13930982e-001 -5.50030291e-001
      -2.43197069e-001 -4.61164117e-001 -6.24865770e-001 2.50463367e-001
      -2.33132139e-001 6.68335795e-001 -3.28235626e-001 8.29794481e-002
      5.08895457e-001 -2.78681144e-002 2.56072395e-002 -1.11577548e-001
      -2.61577547e-001 1.98935911e-001 1.00529122e+000 5.02534509e-001
      -2.43417516e-001 -2.18758568e-001 2.55976021e-001 3.53967071e-001
      5.05358260e-003 3.02603185e-001 -5.62056720e-001 -1.10441104e-001
      -4.00609761e-001 1.27477124e-001 -1.33252814e-001 2.18720719e-001
      1.01399086e-001 -2.46617058e-003 -8.17716867e-003 -4.68566388e-001
      1.79474145e-001 4.96663094e-001 -4.34928238e-002 -4.58043188e-001
      -2.28809878e-001 -2.59269655e-001 -5.50047345e-002 2.09176615e-001
      4.23997492e-001 -5.60385644e-001 7.81434655e-001 4.36748326e-001
      1.38546199e-001 2.94845641e-001 9.96077001e-001 -3.34584452e-002
      -2.21643239e-001 2.18223274e-001 -3.49099129e-001 -1.89282641e-001
      -5.26721179e-001 5.60636818e-001 -3.05190086e-001 6.34298101e-002
      6.10933483e-001 -8.49827603e-002 7.00346887e-001 -4.42501277e-001
      5.64957500e-001 5.06788015e-001 2.63058305e-001 -1.72734540e-002
      6.10618060e-003 -4.20678705e-001 -8.02749634e-001 -3.74599963e-001
      5.12510717e-001 1.22358538e-001 -1.76334485e-001 6.06242493e-002
      -6.49285689e-002 -1.24396663e-002 -3.80682081e-001 3.75071079e-001
      2.09958926e-002 -1.65756986e-001 3.89252931e-001 9.72924903e-002
      -1.49599716e-001 -3.48619759e-001 8.83200467e-002 6.32966161e-001
      3.96598786e-001 6.34376109e-001 3.54140341e-001 -4.26458240e-001
      2.56369591e-001 -6.88768506e-001 -8.53662550e-001 4.11813080e-001
      -8.05042088e-001 -2.19473809e-001 6.56190276e-001 -4.31085736e-001
      -1.16016889e+000 5.53649843e-001 4.09873515e-001 3.73662800e-001
      -1.23547904e-001 -3.62384170e-001 -5.44417322e-001
      -4.45328355e-001 5.30975282e-001 2.55179554e-001 -8.04359436e-001
      -2.40724578e-001 2.21222207e-001 -1.65996682e-002 2.29885682e-001
      1.58491164e-001 -2.74331123e-001 -6.20069385e-001 3.68123472e-001
      3.80492896e-001 -4.12323415e-001 -2.14306101e-001 -1.51269957e-001
      1.43807560e-001 -2.40539789e-001 1.71939712e-002 2.48838216e-001
      1.06418975e-001 -2.24016428e-001 -4.13459748e-001 1.12417698e-001
      -2.56885827e-001 1.75174668e-001 1.99310482e-001 -2.92273641e-001
      -4.24590856e-001 -1.61970049e-001 -1.27106085e-002 1.44928873e-001
      -1.96193587e-002 5.58068097e-001 3.21255401e-002 -5.23319207e-002
      -1.48660466e-001 -3.19119394e-001 5.70409834e-001 -1.34776786e-001
      -2.07717553e-001 4.60790843e-002 -2.25474656e-001 -1.05002284e-001
      -3.47895861e-001 6.19385362e-001 -3.57390076e-001 8.13792720e-002
      6.14227474e-001 -2.95518875e-001 -6.65991008e-001 -5.12508631e-001
      -1.42791957e-001 3.86193752e-001 3.51469606e-001 1.05274782e-001
      -7.52183199e-001 4.28030603e-002 6.80220008e-001 -2.33577967e-001
      -2.75082253e-002 -2.27089778e-001 -8.97186697e-001
      -2.87864476e-001 1.47205919e-001 2.34912768e-001 1.72339574e-001
      6.98688924e-001 6.68914258e-001 -1.03029951e-001 4.58918065e-001
      7.59314656e-001 -4.17736173e-001 2.82205522e-001 7.67617583e-001
      4.39342678e-001 -1.16733916e-001 1.04777329e-001 -1.33157715e-001
      3.00071627e-001 1.18204944e-001 3.48156750e-001 7.11238459e-002
      -4.86738890e-001 -3.39970738e-001 -4.16136473e-001 1.27898169e+000
      -4.59741741e-001 -4.16945279e-001 2.11471140e-001 3.67389023e-001
      5.70713699e-001 1.83842584e-001 -9.93369818e-001 1.05151786e-002
      -2.21191853e-001 3.90902430e-001 -6.19757771e-001 1.14226907e-001
      6.12015724e-002 -4.44992572e-001 -3.77002507e-001 -6.22858763e-001
      9.04911816e-001 1.73472747e-001 -3.89803410e-001 -6.80125058e-002
      -2.11808205e-001 -1.51860192e-001 -4.62986708e-001
      -1.49364397e-001 6.91590190e-001 2.11414635e-001 4.17557240e-001
      -3.92217427e-001 -7.40376830e-001 3.13277483e-001 2.80281365e-001
      -1.42419040e-001 2.18874142e-002 -4.96556938e-001 -2.23705903e-001
      2.04175293e-001 -3.95916432e-001 -6.15974844e-001 3.54922235e-001
      4.67773408e-001 -8.53287697e-001 1.37672260e-001 -1.53828427e-001
      2.09601268e-001 8.70028064e-002 -4.11787033e-001 -6.40833497e-001
      1.12374043e-002 5.79750121e-001 -6.34196222e-001 -8.47589433e-001
      -9.81062114e-001 5.14852047e-001 2.74027348e-001 4.59590375e-001
      1.26536516e-003 -5.70654929e-001 1.20017841e-001 3.74800116e-001
      5.13092816e-001 -1.10238038e-001 7.38476813e-002 -3.19143713e-001
      4.05646473e-001 -9.30527076e-002 -3.43520522e-001 -6.16653264e-001
      4.26486224e-001 6.80836678e-001 -1.49016619e-001 -2.28295848e-001
      -4.69136953e-001 -2.84425974e-001 1.37444571e-001 4.58367288e-001
      -6.96514428e-001 1.35039315e-001 5.23590408e-002 -1.37844339e-001
      -7.79114902e-001 1.40066579e-001 9.21542525e-001 4.91856523e-002
      -3.20487261e-001 1.45074904e-001 -8.74770701e-001 -1.15991807e+000
      -5.65780818e-001 3.95341702e-002 -2.73751080e-001 -7.84300983e-001
      -4.10519540e-001 3.07873935e-001 2.20220894e-001 -2.27428213e-001
      -1.66641548e-002 5.75165093e-001 1.06977010e+000 5.93592552e-003
      9.64417756e-002 -2.19182670e-001 8.99937078e-002 6.40201509e-001
      -3.78907621e-001 -3.34278882e-001 -4.98735338e-001
      -5.11874795e-001 -6.66439161e-002 1.94177195e-001 -8.65258723e-002
      5.49371296e-004 -8.90191123e-002 -2.43698403e-001 -8.04362118e-001
      1.02367789e-001 -1.00438111e-001 -3.19049209e-001 -1.90049112e-001
      -1.65728018e-001 7.22794652e-001 1.00215590e+000 1.29979432e-001
      2.00756162e-001 2.60804415e-001 -7.12864697e-001 -4.42027301e-001
      4.23971355e-001 -2.17320263e-001 -2.98951358e-001 2.26119578e-001
      -1.15689404e-001 1.54128671e-001 4.87623066e-001 3.03683188e-002
      1.07150033e-001 6.09637320e-001 1.53219298e-001 8.86342347e-001
      6.68719769e-001 4.73265946e-002 1.25292420e+000 -9.81040969e-002
      5.76056004e-001 -3.32251817e-001 5.88896871e-001 2.57615924e-001
      -4.28509176e-001 -3.16707015e-001 7.68281892e-002 -8.14828128e-002
      1.28281128e+000 -4.30738181e-001 -8.98147821e-001 -4.44056951e-002
      -1.50720060e-001 1.49203032e-001 -1.12776794e-001 2.16106579e-001
      4.09248233e-001 3.34835708e-001 -3.08166146e-001 -1.07507572e-001
      -2.18541205e-001 8.47188413e-001 3.01548722e-003 4.99782771e-001
      -4.18605268e-001 2.19061926e-001 -6.10050969e-002 1.17479670e+000
      -7.38790572e-001 9.72608268e-001 -4.33095336e-001 -1.69445202e-002
      1.59201682e-001 9.13668990e-001 -1.13732600e+000 7.87882388e-001
      8.09515119e-001 -2.06817716e-001 -8.80351514e-002 3.33234407e-002
      -7.67889991e-002 1.72175793e-003 -5.48403978e-001 3.47959191e-001
      -5.23642302e-001 5.45874298e-001 -7.35048175e-001 2.36191582e-002
      8.03433955e-001 -5.04780747e-002 -4.05717194e-001 2.88297147e-001
      -4.70245443e-002 1.38678685e-001 -9.94749069e-001 1.06511131e-001
      -8.65018964e-001 4.56810236e-001 -2.31474161e-001 5.81306159e-001
      -3.52873445e-001 1.01151519e-001 -2.48702373e-002 2.43986547e-001
      -6.02164388e-001 -1.33352224e-002 6.41576588e-001 4.10831571e-001
      1.31031156e+000 -3.27264130e-001 6.78928792e-001 1.86307311e-001
      3.20070982e-001 2.85498649e-001 7.18253374e-001 -4.81305361e-001
      8.29501331e-001 3.33643630e-002 1.23103345e-002 -7.98657537e-002
      -3.06496173e-001 2.01691210e-001 8.06798637e-002 1.02395988e+000
      9.06830877e-002 -5.85362732e-001 1.42390616e-002 -2.71409601e-001
      3.48610282e-001 -1.61253035e-001 -3.91110808e-001 8.09591949e-001
      8.46681222e-002 -2.69950718e-001 1.49609298e-001 -5.50525300e-002
      -5.46582520e-001 1.22064233e-001 5.35064638e-001 5.95217526e-001
      2.15660989e-001 3.16031352e-002 7.47146726e-001 4.73985255e-001
      -5.70543073e-002 -2.56413579e-001 2.35235751e-001 2.77989432e-002
      3.27152967e-001 1.68749735e-001 -5.09166241e-001 -1.18727632e-001
      5.39633155e-001 -8.69139194e-001 5.35274446e-001 -3.03810626e-001
      -3.14394832e-001 -8.68268032e-003 -5.55011213e-001
      -6.23535253e-002 -9.80234221e-002 9.91781712e-001 -6.49385035e-001
      7.87357569e-001 -8.22790682e-001 -6.93957567e-001 3.63515228e-001
      4.67857271e-001 -5.48152700e-002 -4.74475510e-002 -1.01849663e+000
      2.46122286e-001 -3.35049510e-001 -4.58569437e-001 -2.88643464e-002
      2.23183945e-001 -4.94649708e-001 -3.44182581e-001 -3.36013377e-001
      -2.63742596e-001 6.65544689e-001 -7.59506300e-002 1.55710503e-001
      -8.27307105e-001 3.82448643e-001 1.31992310e-001 9.90129530e-001
      2.58985072e-001 -2.46291190e-001 5.39771616e-002 -2.38394126e-001
      1.03199685e+000 -1.75256953e-001 1.72641858e-001 -4.65563774e-001
      2.88174748e-001 8.65108490e-001 1.39602885e-001 2.21834719e-001
      -1.75534055e-001 -6.40116513e-001 -6.89151049e-001 2.31012627e-001
      5.44043839e-001 1.12439811e-001 6.22325361e-001 -4.94383067e-001
      -1.02064168e+000 -1.94282427e-001 6.62444890e-001 1.23156655e+000
      1.59736663e-001 -3.30239385e-001 -2.84314215e-001 6.61576400e-003
      -9.47305441e-001 -9.64338612e-003 -3.20848763e-001
      -3.41811627e-002 -4.79688555e-001 -2.40146101e-001 2.60326236e-001
      -8.04315135e-002 -1.29554141e+000 6.91744149e-001 -6.49811745e-001
      5.09475231e-001 5.10793567e-001 2.15323925e-001 -4.45550084e-001
      -3.23985368e-002 -2.99180657e-001 4.43788171e-001 1.40880570e-001
      2.32294619e-001 6.11549377e-001 -2.25970428e-002 8.38789701e-001
      6.00341618e-001 -6.32530808e-001 3.70951027e-001 1.00050914e+000
      5.93152821e-001 2.96520114e-001 -4.03905928e-001 -4.55657572e-001
      2.22539037e-001 -1.56211317e-001 -2.73713946e-001 -3.19691896e-002
      -4.75889981e-001 -1.92131057e-001 1.34545469e+000 7.96986163e-001
      4.05293405e-001 -2.11192101e-001 6.27946436e-001 7.12521493e-001
      -1.16279960e-001 5.60097992e-001 4.82571512e-001 -2.12985113e-001
      -1.33629191e+000 -3.34703475e-001 -2.67907053e-001 2.19082087e-001
      -2.71951586e-001 -1.33946776e-001 2.17906594e-001 -9.62228835e-001
      4.98663723e-001 -7.62369752e-001 8.49263296e-002 5.45485854e-001
      3.49215955e-001 -1.09812789e-001 -5.56894839e-001 1.78955227e-001
      1.68795973e-001 3.47065866e-001 8.40228572e-002 5.51040709e-001
      -3.69811386e-001 6.77652657e-001 2.77976811e-001 9.53403208e-003
      4.73661870e-001 2.91495293e-001 2.01060567e-002 -8.11223865e-001
      1.54218212e-001 2.41843835e-001 3.07540059e-001 -4.57066983e-001
      -7.01788306e-001 2.42652342e-001 -1.98641524e-001 -5.54852307e-001
      -2.79527932e-001 2.70041436e-001 -1.15559123e-001 -4.87482101e-001
      4.39165942e-002 9.03288484e-001 2.10699245e-001 -9.16685462e-002
      1.31729096e-001 -1.12788200e+000 3.77087235e-001 6.19655907e-001
      -2.98303694e-001 2.18326494e-001 1.21950567e-001 1.12949550e-001
      -6.42762780e-002 -4.97545928e-001 -1.32777318e-001 2.91242413e-002
      -5.06967306e-001 -2.46239994e-002 9.13256481e-002 -4.83417809e-002
      -2.71954030e-001 -4.86491710e-001 -5.54813385e-001
      -9.93514538e-001 2.61467546e-001 -1.00476365e-003 3.73724014e-001
      2.86310017e-001 -1.79242361e-002 -6.57924861e-002 1.13611631e-001
      9.74638164e-002 2.56467581e-001 -3.60321179e-002 3.34478356e-003
      -1.87850103e-001 2.02306472e-002 1.39397949e-001 -2.80909628e-001
      -2.31560200e-001 1.10784940e-001 2.32809819e-002 1.68412328e-001
      -4.41376299e-001 5.47473967e-001 -9.55197066e-002 -4.30280387e-001
      -1.10009508e-002 2.52723545e-001 1.69683516e-001 1.75917208e-001
      4.22733337e-001 -2.47612685e-001 -2.54115015e-001 -1.75532445e-001
      -9.82039571e-002 2.21823156e-001 1.25419751e-001 -2.98946470e-001
      -3.77444386e-001 2.69578069e-001 5.22006229e-002 3.89122248e-001
      3.71721923e-001 2.65310168e-001 1.25721350e-001 8.60884264e-002
      3.65054041e-001 1.12676900e-002 -1.78930372e-001 -1.00765545e-002
      -3.65190953e-001 -9.73067284e-002 -6.05400443e-001
      -4.91672099e-001 1.99434161e-001 8.26021750e-003 -8.66902471e-002
      -1.14315145e-001 -3.04757416e-001 5.55097699e-001 1.57371029e-001
      -1.03258835e-002 2.42421672e-001 1.22857764e-001 -9.62555557e-002
      -2.83507090e-002 5.57723999e-001 -4.11940694e-001 -2.67726481e-001
      -6.19020522e-001 -7.52108246e-002 -2.10489482e-001 4.30456042e-001
      2.13859171e-001 -1.06652415e+000 3.67079586e-001 -1.76440418e-001
      -4.24813002e-001 9.57758445e-003 9.96301025e-002 -7.38141775e-001
      -3.67175415e-002 -2.01589912e-001 -5.04309654e-001 4.36866969e-001
      2.49175429e-001 1.93195060e-001 -8.02792609e-002 -7.47515336e-002
      -1.23661332e-001 5.06819598e-002 1.99667215e-001 -1.34195253e-001
      -2.67804623e-001 2.46391743e-001 4.33600843e-001 -1.76322833e-001
      -4.18920428e-001 5.32583296e-001 2.21838742e-001 4.17304225e-002
      1.51347876e-001 -1.79037839e-001 -2.28484347e-001 2.87028141e-002
      9.00135219e-001 -2.01804653e-001 -1.38518289e-001 -1.09188288e-001
      -2.78304398e-001 -1.43149599e-001 2.87934244e-001 7.36824870e-002
      6.35524869e-001 -4.55575697e-002 -2.76822716e-001 3.42241168e-001
      -3.32069304e-003 1.58980116e-001 4.99524504e-001 -1.81071997e-001
      -6.42480195e-001 5.16531169e-001 7.65700042e-001 -1.85286358e-001
      -8.96249592e-001 3.93099457e-001 -2.28954718e-001 4.31204230e-001
      -6.58302680e-002 -4.83953923e-001 1.68938071e-001 5.43721437e-001
      -5.45665145e-001 -5.07644176e-001 6.33241236e-001 -2.87678659e-001
      -4.40750569e-001 5.08301556e-001 6.00198135e-002 -7.35239908e-002
      -8.14917266e-001 -1.15290061e-001 -9.40650821e-001
      -7.21439004e-001 -6.20514154e-001 -2.66407728e-001
      -3.41747552e-001 -1.91180959e-001 -3.71902406e-001 6.80237263e-002
      1.20332725e-001 8.97425264e-002 6.42565072e-001 -2.73747407e-002
      -5.70355123e-003 6.70366824e-001 3.62308174e-002 -2.90377170e-001
      -8.34688470e-002 3.70627999e-001 -3.36307555e-001 1.89021319e-001
      -2.69868523e-001 4.10930179e-002 -5.36974669e-001 5.00941202e-002
      -2.66412556e-001 -1.16779879e-001 -6.11311316e-001
      -8.26086700e-002 6.67476729e-002 2.21060842e-001 8.75623643e-001
      9.27830338e-001 3.92054051e-001 3.02374829e-002 -6.97038770e-002
      4.63304132e-001 6.93674505e-001 -3.57252479e-001 1.36775827e+000
      1.04493082e+000 7.13227272e-001 3.65834147e-001 -4.64900136e-001
      1.02467127e-001 4.57640924e-002 5.14650524e-001 6.35518253e-001
      -6.16022110e-001 -1.05985954e-001 -6.47746086e-001
      -3.54955763e-001 5.39347768e-001 5.03174901e-001 5.20769358e-001
      -8.60305190e-001 9.22650471e-002 -8.35321963e-001 -4.17139173e-001
      -5.09041429e-001 -4.84651953e-001 6.19253159e-001 1.16730726e+000
      1.99064910e-001 -6.35673225e-001 1.60212770e-001 6.46508515e-001
      4.52261984e-001 -7.51108110e-001 4.81003448e-002 -2.77773350e-001
      4.95392174e-001 7.33943641e-001 -2.62227386e-001 -2.47651264e-002
      -5.62288046e-001 -3.22160125e-001 1.46306455e+000 1.54428884e-001
      -2.02081382e-001 -2.61010557e-001 1.01629710e+000 -4.41870481e-001
      1.69618040e-001 -2.87363291e-001 -5.72558679e-002 -5.31365812e-001
      -6.16312742e-001 1.36532605e-001 2.28441849e-001 -3.11502069e-001
      3.60619277e-003 4.88094926e-001 1.11850023e-001 -6.07945502e-001
      3.09670866e-002 -1.85143113e-001 -3.76780510e-001 -5.47005713e-001
      -1.21350992e+000 8.30789447e-001 5.48617914e-002 -2.57658690e-001
      5.42783737e-001 -4.43710655e-001 -3.80665481e-001 9.59915042e-001
      7.19018400e-001 1.45142627e+000 5.37783392e-002 -2.93152124e-001
      3.55094612e-001 1.08300865e+000 3.54957223e-001 1.90346032e-001
      2.75003016e-001 6.28278434e-001 5.34090102e-001 -3.90844554e-001
      -5.05917966e-001 -4.12981272e-001 -2.90557504e-001
      -4.15654063e-001 -3.84791911e-001 -1.03956771e+000 3.19528908e-001
      5.77781260e-001 1.07440495e+000 -2.51593202e-001 1.07699044e-001
      1.15522109e-002 -8.47809669e-003 2.73679256e-001 2.43161887e-001
      9.53905225e-001 -5.79809546e-001 -3.79786968e-001 -6.37190819e-001
      3.33014503e-002 4.50278193e-001 1.29777521e-001 -3.70651454e-001
      -3.11227798e-001 -6.05430126e-001 1.05251946e-001 6.62104934e-002
      -4.54614997e-001 7.27612197e-001 5.00744700e-001 1.09102793e-001
      1.06867719e+000 5.05945265e-001 4.72572833e-001 5.25081217e-001
      2.27609694e-001 -4.40044522e-001 2.40238234e-001 -1.51650244e-002
      -7.83116639e-001 -2.55627576e-002 5.52555621e-001 1.17450684e-001
      9.22923386e-002 -1.76861316e-001 -7.85471439e-001 8.56777787e-001
      8.21429044e-002 -3.10491174e-001 1.72782950e-002 3.26125294e-001
      -5.01968503e-001 1.82242602e-001 -5.04804134e-001 -1.50729045e-001
      7.57147446e-002 8.73712063e-001 -5.54618955e-001 -2.58708984e-001
      -5.90944290e-002 -7.75092542e-001 7.69382417e-002 -5.14179289e-001
      1.05529144e-001 2.55178332e-001 6.76135004e-001 -1.48106962e-001
      4.89838541e-001 4.89503257e-002 -4.79214936e-002 -3.70002478e-001
      -6.93017006e-001 -7.36990750e-001 1.65101722e-001 -8.15296829e-001
      5.34749210e-001 -4.40053403e-001 -2.39024714e-001 -5.19996807e-002
      2.66424626e-001 1.50816590e-001 -3.66654515e-001 3.63781124e-001
      -3.17066140e-003 5.87331712e-001 8.80429506e-001 -1.55079840e-002
      9.46144581e-001 4.19388086e-001 1.83390558e-001 1.04844856e+000
      -4.29068714e-001 1.99622631e-001 -9.21369731e-001 4.78156686e-001
      3.04995269e-001 -7.72881567e-001 -7.91713297e-001 2.77509063e-001
      7.65649378e-001 -1.00935698e+000 -3.43920678e-001 -3.19165349e-001
      5.25947154e-001 -4.37758714e-001 -4.22030360e-001 8.58730748e-002
      6.32665992e-001 -2.41172060e-001 2.37862155e-001 -1.11723162e-001
      -4.99768294e-002 -3.60201895e-001 3.51399966e-002 3.32989752e-001
      3.03327531e-001 -4.28919822e-001 -3.97892118e-001 2.61252970e-001
      -3.03660691e-001 8.25863630e-002 3.52714539e-001 -4.37663078e-001
      2.64576346e-001 -5.61227389e-002 -4.58535373e-001 7.05282331e-001
      4.73847121e-001 5.21729410e-001 9.56852198e-001 2.83327908e-003
      2.13298738e-001 -5.13182282e-001 -5.58861315e-001 6.23606086e-001
      -3.33044678e-001 9.68009830e-001 2.92420655e-001 6.91743612e-001
      5.03545664e-002 -1.18854180e-001 3.76290649e-001 -1.75398558e-001
      -1.08100736e+000 -5.96295178e-001 -7.27260411e-001
      -3.04112256e-001 8.36342514e-001 -4.95513588e-001 8.50767344e-002
      5.93605459e-001 1.24226964e+000 -7.33312070e-001 -2.46611923e-001
      -3.05714279e-001 -4.38464642e-001 -1.31120563e-001
      -1.04724193e+000 -6.89575434e-001 1.77400112e-001 -7.01515377e-002
      -4.48804289e-001 -3.98279071e-001 -8.21481571e-002
      -1.03944177e-002 5.56320906e-001 -4.64406371e-001 3.93444031e-001
      -3.62676919e-001 4.16399211e-001 1.91368476e-001 -6.18129551e-001
      -8.91192630e-002 8.02298367e-001 -1.28852338e-001 1.46697447e-001
      -2.74667948e-001 -6.38727665e-001 -2.50995219e-001 3.99186254e-001
      2.86722481e-001 -4.63073365e-002 -3.98347229e-001 -1.00792134e+000
      -1.44780308e-001 1.66542307e-001 -1.22381859e-001 -5.30518353e-001
      3.33371721e-002 1.14012635e+000 -1.09584562e-001 -8.23082387e-001
      -3.98492754e-001 -9.62413073e-001 -4.75291945e-002 8.68718386e-001
      -2.67486483e-001 1.54506583e-002 2.31350541e-001 1.71722006e-002
      1.05342023e-001 -1.44705743e-001 1.58601835e-001 -5.27528003e-002
      9.37720835e-002 4.08302665e-001 4.70949188e-002 -5.56122601e-001
      -5.52311480e-001 -2.17795610e-001 -2.82344464e-002
      -3.33230942e-001 -4.29880738e-001 1.98137715e-001 1.78772286e-001
      -3.13763410e-001 -2.02625230e-001 -1.41539518e-003
      -2.98637182e-001 9.37374234e-002 -5.52027166e-001 3.89367968e-001
      9.09737229e-001 7.62098312e-001 1.40932709e-001 3.39386106e-001
      -2.97674567e-001 -1.13700377e-002 3.06540310e-001 5.81856668e-001
      1.71421230e-001 6.03409186e-002 -8.47796023e-001 9.73951817e-001
      -5.20957828e-001 4.18929964e-001 6.66123867e-001 -1.37788327e-002
      -4.52908576e-001 -2.10662916e-001 2.16734353e-002 3.42734814e-001
      7.25588977e-001 -6.62725605e-003 2.19362304e-001 6.70069456e-001
      4.88560349e-001 2.23262370e-001 1.93981845e-002 -2.80855328e-001
      3.00832558e-002 -4.69753653e-001 -4.91283357e-001 -1.72069743e-001
      -3.38526696e-001 3.28758582e-002 -1.77292332e-001 -2.31960490e-001
      -3.32708627e-001 -5.33590913e-001 -3.47256392e-001
      -4.92794335e-001 -6.49749517e-001 -7.01592028e-001
      -3.50436985e-001 -6.20722234e-001 5.28289378e-001 2.94970214e-001
      -3.94467473e-001 -2.22019836e-001 -2.04065233e-001 2.82010257e-001
      -1.56454653e-001 3.04505050e-001 2.89574683e-001 -6.27423167e-001
      4.11669798e-002 5.44175029e-001 -1.97260812e-001 2.97376603e-001
      -2.99111366e-001 2.56445855e-001 9.74824652e-002 -2.41251126e-001
      8.02672356e-002 2.75006201e-002 1.90712348e-001 1.10066128e+000
      -7.12998390e-001 1.53558711e-002 -4.09113109e-001 5.39165616e-001
      -4.32118952e-001 4.52267051e-001 -1.92387506e-001 7.08639920e-002
      -2.33319342e-001 4.28837955e-001 4.27623242e-001 -2.60247320e-001
      -2.19575554e-001 9.26495790e-002 6.92138672e-001 2.56213665e-001
      -3.48619491e-001 -5.94507046e-002 5.70303723e-002 -3.29407841e-001
      -5.11468537e-002 -5.80381513e-001 1.38693482e-001 -7.13607371e-002
      3.06487560e-001 2.10286915e-001 3.66523080e-002 3.36972088e-001
      -1.06409989e-001 2.53074437e-001 -6.56603813e-001 -2.35077709e-001
      -4.61830467e-001 3.47087905e-002 -3.71552646e-001 -6.08936131e-001
      -2.09409013e-001 -1.87036693e-001 -7.69124134e-003
      -3.30255717e-001 -2.76728123e-002 -3.43603104e-001 3.81053478e-001
      -4.14560348e-001 -7.60709047e-001 3.53484809e-001 -2.81574488e-001
      -4.08926830e-002 -8.78497064e-001 -1.15946715e-003
      -9.34825689e-002 1.96637809e-001 -6.59554601e-001 1.58534139e-001
      5.38668454e-001 -1.43899038e-001 -7.36155629e-001 1.68652952e-001
      3.69381934e-001 -5.00914395e-001 3.00807774e-001 2.63120979e-001
      -1.66472986e-001 -4.19023111e-002 -2.13405564e-001 3.93287092e-001
      2.78593034e-001 -2.22723618e-001 4.01176214e-001 -2.97340304e-001
      -2.80052245e-001 -2.64678538e-001 6.76612630e-002 4.34921205e-001
      -3.04718345e-001 -4.01142649e-002 -2.96171099e-001 1.28201634e-001
      4.55667168e-001 -4.25191939e-001 -2.26731464e-001 -1.46476358e-001
      9.23946917e-001 1.78100124e-001 1.90547407e-002 -3.28111023e-001
      7.45873570e-001 -3.47261250e-001 1.07516229e+000 7.70736694e-001
      1.18861999e-002 -1.74919769e-001 7.27059066e-001 -9.05485809e-001
      -5.61497629e-001 -1.46130100e-001 3.60626012e-001 -4.99294072e-001
      1.84601679e-001 6.24906540e-001 1.79405198e-001 -8.82370055e-001
      -6.21578395e-001 4.85392988e-001 -1.03619707e+000 8.64665866e-001
      2.57935524e-001 -8.38936806e-001 1.39542177e-001 1.16327971e-001
      -5.56241632e-001 2.28625998e-001 -6.76777542e-001 -3.46725911e-001
      -7.99076021e-001 6.51193678e-001 -1.25331149e-001 -9.24821019e-001
      2.53473014e-001 4.52846169e-001 6.07737899e-001 1.01138735e+000
      5.30228503e-002 -1.71349663e-002 -5.04173458e-001 1.99625775e-001
      -8.86431560e-002 1.59025677e-002 2.20363259e-001 1.05356835e-001
      5.87175429e-001 -7.32972205e-001 2.19127879e-001 3.66335779e-001
      -3.23895723e-001 -5.43670962e-004 -4.16322559e-001 8.37453455e-003
      -4.05564308e-001 -7.72838295e-002 1.34793520e-001 3.22414428e-001
      -5.78330994e-001 3.34816307e-001 7.13075757e-001 2.37072870e-001
      5.33080697e-001 -2.58866847e-001 -8.09379965e-002 1.32670307e+000
      -4.76572849e-002 8.65376964e-002 4.29824479e-002 1.39997315e+000
      4.73042965e-001 1.00707270e-001 1.40529111e-001 -5.16629994e-001
      4.69539255e-001 1.11807787e+000 -3.64720374e-001 1.33762121e-001
      1.27149248e+000 6.45707399e-002 5.27499497e-001 6.95620179e-001
      9.39749241e-001 3.95514667e-001 -6.97092563e-002 2.61651129e-001
      -1.39599955e+000 -2.51891881e-001 2.51164407e-001 -7.75966227e-001
      7.89655864e-001 1.21577539e-001 2.03515574e-001 -7.47646809e-001
      -2.75139511e-001 -1.93043664e-001 2.81160533e-001 -1.34750521e+000
      -1.39899039e+000 -7.93141246e-001 -3.06886584e-001
      -1.49716699e+000 1.25271440e+000 7.01148093e-001 -3.76594186e-001
      -1.68221116e+000 -2.15242457e+000 -2.39451265e+000
      -2.84249097e-001 -8.28314543e-001 -4.12352473e-001 2.39283875e-001
      -1.49658546e-001 -6.78121686e-001 3.44885290e-001 1.09860635e+000
      2.58611172e-001 1.29994023e+000 8.63198116e-002 -7.74264038e-002
      -2.33945116e-001 2.18930811e-001 1.75130591e-001 3.87300104e-002
      -1.33459449e-001 -4.61025655e-001 5.17906010e-001 3.34154844e-001
      -9.05328393e-002 -6.32767200e-001 1.90151352e-002 -1.28199482e+000
      -7.95863211e-001 -3.40277553e-001 3.94284166e-002 3.73195291e-001
      -1.35787117e+000 -1.12259841e+000 -1.39149499e+000
      -8.91216815e-001 2.61829227e-001 -3.22277367e-001 -5.39745867e-001
      -5.15507281e-001 1.25568271e-001 -3.31084460e-001 -1.02048850e+000
      -2.16023946e+000 -5.68660617e-001 5.38818575e-002 -1.63397551e+000
      -1.07996631e+000 -9.09199595e-001 -3.50615457e-002 7.28593707e-001
      1.30960792e-001 -2.94381112e-001 1.78469718e-001 -4.61927764e-002
      -4.71111685e-001 1.55653089e-001 5.88619828e-001 6.05375111e-001
      5.88036478e-001 1.76848203e-001 5.08412004e-001 -3.20546836e-001
      9.77561951e-001 -3.78980219e-001 -1.66902959e+000 -2.03672767e+000
      -1.29988408e+000 -3.87410402e-001 -1.26438498e-001
      -1.05032003e+000 8.88450086e-001 9.54237998e-001 -1.07684278e+000
      1.81291744e-001 4.04885501e-001 1.12380409e+000 8.08604300e-001
      -2.39337400e-001 3.76142114e-001 1.34921801e+000 -5.94084978e-001
      -1.49556017e+000 -6.78624749e-001 -3.83152455e-001 2.69511044e-001
      9.58394527e-001 -5.87649345e-001 -4.38810974e-001 7.91438162e-001
      -1.87891424e-001 -4.88918982e-002 1.11461115e+000 -8.33191816e-003
      -4.10984784e-001 -1.82146013e-001 -7.10701585e-001 1.38102686e+000
      -1.02715589e-001 4.22613382e-001 -5.41243315e-001 4.63192940e-001
      6.64105892e-001 3.93826544e-001 -3.82258177e-001 -2.71596551e-001
      -1.20539284e+000 1.07066774e+000 -2.97289956e-002 1.09260529e-001
      4.90671784e-001 8.36036026e-001 9.13036704e-001 5.51954508e-001
      -4.57315385e-001 2.46385887e-001 -1.92707196e-001 2.30541721e-001
      -7.53388703e-001 4.51111138e-001 -1.42506734e-001 1.20346032e-001
      -2.33044904e-002 -4.11304295e-001 -1.07600935e-001 1.79084122e-001
      -6.76407278e-001 -7.90039480e-001 3.72131355e-002 -6.77441061e-001
      8.45839143e-001 -6.05709016e-001 -4.13314700e-001 -8.97923112e-002
      3.82717922e-002 3.23478699e-001 -6.36909187e-001 4.31497335e-001
      -7.87794292e-001 1.20748103e+000 5.73957920e-001 -9.93173793e-002
      -4.80864644e-001 3.16933930e-001 -5.02673507e-001 -5.27792454e-001
      6.52206421e-001 6.29322529e-001 1.84867516e-001 6.82577342e-002
      -2.04538599e-001 3.62019449e-001 -4.26822066e-001 4.15772885e-001
      -2.05886340e+000 -7.61051476e-003 7.78988376e-002 8.77156436e-001
      -2.41470054e-001 -1.62359372e-001 -5.45105457e-001
      -5.80353439e-001 -1.25345051e+000 -4.33736444e-001 5.33194602e-001
      4.90824670e-001 4.90721077e-001 -2.14927018e-001 -7.86482751e-001
      5.32782599e-002 1.81283802e-001 4.09532160e-001 5.06779969e-001
      5.27572811e-001 9.01186913e-002 -1.13173473e+000 2.51072943e-001
      -5.79793900e-002 -8.95063162e-001 9.71623957e-002 2.50714988e-001
      4.90566850e-001 2.81240374e-001 -7.75320113e-001 1.84913129e-001
      7.33737834e-003 4.37972277e-001 9.12321880e-002 9.21992779e-001
      -2.79466540e-001 -5.72473228e-001 9.37940553e-002 3.52780908e-001
      -1.04817621e-001 2.69184172e-001 7.30390072e-001 -6.60779119e-001
      2.73677185e-002 -4.98965591e-001 -6.67596698e-001 7.44089067e-001
      1.24879152e-001 -2.43622154e-001 -2.99095809e-001 1.76496565e-001
      4.36785668e-001 -7.20354497e-001 5.99592447e-001 3.18183720e-001
      1.70779213e-001 -5.27590096e-001 6.60414517e-001 6.66517466e-002
      -8.53145123e-002 -1.33750689e+000 1.21661103e+000 8.99564862e-001
      5.22098780e-001 1.79534853e-001 5.81674278e-001 -7.47091174e-001
      3.02784294e-001 3.30554336e-001 -5.45993507e-001 1.87041849e-001
      4.32925187e-002 -1.15787995e+000 2.86838382e-001 -1.66314915e-001
      -6.09310269e-001 -2.98775047e-001 9.72013548e-002 -6.84506834e-001
      -4.80957448e-001 -1.81255490e-001 -3.50103766e-001 5.27926326e-001
      4.94489998e-001 -9.75099653e-002 -2.98123360e-002 -3.70604932e-001
      -1.13776058e-001 -6.98734105e-001 5.00578344e-001 1.48599863e-001
      -3.32258880e-001 6.38659000e-001 3.95895243e-001 1.02622437e+000
      2.01679952e-002 6.48075104e-001 3.96880895e-001 -1.04938054e+000
      3.77319664e-001 1.05436310e-001 8.44664216e-001 -1.16765648e-001
      -3.86449963e-001 6.72652960e-001 -4.20013636e-001 -2.49362350e-001
      -6.40897393e-001 -5.28621972e-001 3.44496012e-001 4.11406100e-001
      5.03635645e-001 2.82040447e-001 3.80117804e-001 -6.94935739e-001
      -8.15403089e-002 5.09068549e-001 1.68049112e-001 5.40986955e-001
      2.80068278e-001 3.06237429e-001 -3.37459408e-002 1.31313193e+000
      -3.92196566e-001 -5.39149165e-001 -5.93888164e-001
      -5.56384120e-003 -9.80173871e-002 6.81057513e-001 1.71937883e-001
      4.25515443e-001 7.59482801e-001 -9.12247598e-001 1.90361667e+000
      -8.68687868e-001 -2.29452670e-001 -6.36335433e-001 1.25097799e+000
      9.24585104e-001 3.94067131e-002 6.17340565e-001 -7.31527030e-001
      -1.31453383e+000 1.23304880e+000 -5.18183410e-001 8.23162973e-001
      1.61337599e-001 -5.30032516e-001 -1.79886043e-001 7.16568351e-001
      3.09639841e-001 1.14301050e+000 1.62525892e-001 2.75750101e-001
      2.72861063e-001 -1.39671579e-001 3.72566357e-002 1.30775288e-001
      1.72145128e-001 1.08085684e-001 -4.21366930e-001 1.99268684e-001
      -1.40662742e+000 9.40397918e-001 9.49446440e-001 -3.62657756e-001
      3.99947584e-001 6.62745714e-001 -2.24517271e-001 8.19622636e-001
      -1.86168051e+000 -9.26800549e-001 1.48232007e+000 1.29963851e+000
      8.02824259e-001 8.86964977e-001 8.54788423e-001 -5.15428007e-001
      -1.69229209e+000</_></support_vectors>
  <decision_functions>
    <_>
      <sv_count>1</sv_count>
      <rho>-5.5869768480222799e+000</rho>
      <alpha>
        1.</alpha>
      <index>
        0</index></_></decision_functions></my_svm>
</opencv_storage>
