<?xml version="1.0"?>
<opencv_storage>
<my_svm type_id="opencv-ml-svm">
  <svm_type>C_SVC</svm_type>
  <kernel><type>LINEAR</type></kernel>
  <C>2.</C>
  <term_criteria><epsilon>9.9999997764825821e-003</epsilon>
    <iterations>2147483647</iterations></term_criteria>
  <var_all>9360</var_all>
  <var_count>9360</var_count>
  <class_count>2</class_count>
  <class_labels type_id="opencv-matrix">
    <rows>1</rows>
    <cols>2</cols>
    <dt>i</dt>
    <data>
      -1 1</data></class_labels>
  <sv_total>1</sv_total>
  <support_vectors>
    <_>
      -1.64735913e-001 1.48371711e-001 2.14166880e-001 1.42970467e-002
      -2.00856119e-001 -1.19098872e-002 9.97923985e-002 1.51485980e-001
      -2.21402049e-001 1.74022149e-002 1.77557860e-002 1.81927249e-001
      8.09639245e-002 -4.31308858e-002 -2.62987047e-001 -1.52729720e-001
      -1.51851270e-002 -2.24571913e-001 1.69618294e-001 9.55377519e-002
      2.49363929e-001 -4.74348739e-002 -2.23977670e-001 -2.31054753e-001
      -1.40895516e-001 -9.08389501e-003 -1.67238951e-001 9.93322432e-002
      5.80403768e-002 1.58727661e-001 8.56122971e-002 9.46715698e-002
      -5.44030145e-002 -8.86009857e-002 3.46909761e-002 9.75983590e-002
      -1.10312678e-001 6.54448345e-002 3.38516265e-001 2.46544808e-001
      -4.51112837e-001 1.07384371e-002 3.40293080e-001 4.87514317e-001
      -1.97454870e-001 9.79031399e-002 4.24731135e-001 1.44368127e-001
      1.13999054e-001 -2.08872408e-001 -2.90010959e-001 -2.30704233e-001
      2.49751672e-001 -2.05388874e-001 -2.00158861e-002 2.85556674e-001
      -2.20139459e-001 -9.68133882e-002 -2.05558792e-001
      -4.65088710e-002 -4.88424778e-001 -1.87008843e-001
      -2.28723735e-001 1.03704564e-001 3.00081149e-002 -4.06356193e-002
      1.27157615e-002 -2.08941743e-001 -8.05561244e-002 3.22570428e-002
      1.53363436e-001 -9.94289666e-002 -1.85770299e-002 -5.66630483e-001
      -4.39706624e-001 -2.08143964e-001 -2.99698800e-001 1.61829919e-001
      1.81471244e-001 6.04391277e-001 3.61906439e-001 -2.06102759e-001
      4.10940833e-002 1.38651356e-001 -1.98939040e-001 -2.22534746e-001
      -5.09203151e-002 -7.30633661e-002 8.95243883e-002 -6.05663240e-001
      9.87479091e-002 -1.20331444e-001 -4.21287984e-001 -3.10287386e-001
      -7.48830020e-001 -2.51948744e-001 -1.26452744e-001
      -3.32273215e-001 -3.93845178e-002 -1.44402012e-001
      -2.37916037e-001 -1.91424683e-001 3.74642983e-002 -9.52564999e-002
      1.26094949e-002 -4.51565832e-002 7.52423108e-002 1.99575335e-001
      -1.53540745e-001 -3.08046699e-001 -3.09340745e-001
      -3.65297675e-001 -5.68108633e-002 1.18361689e-001 1.48205295e-001
      3.53438616e-001 3.43902260e-002 -3.74717295e-001 4.80317026e-002
      1.47121936e-001 5.02892360e-002 2.36520573e-001 -5.07888347e-002
      -1.23825580e-001 6.75846115e-002 -3.14120084e-001 -5.91694843e-003
      2.11962909e-002 -1.36123925e-001 -2.75934279e-001 -1.71862066e-001
      -4.76081856e-002 -5.09147421e-002 -1.63707465e-001
      -1.84870183e-001 -3.32590640e-001 -3.13418627e-001
      -2.70817786e-001 -2.82275617e-001 -2.94432968e-001
      -1.93993941e-001 -4.47886772e-002 -7.89511800e-002
      -2.46715203e-001 1.05926827e-001 -5.80375548e-004 7.20188469e-002
      5.55149093e-002 5.70704900e-002 -4.57244031e-002 -9.68977660e-002
      6.95878547e-003 -3.39250527e-002 1.24311581e-001 3.42695266e-002
      1.28617153e-001 -1.09548107e-001 -1.23427369e-001 -1.27302200e-001
      1.67054199e-002 1.20268539e-001 -9.02273580e-002 -2.25476027e-002
      5.01239374e-002 3.38747174e-001 2.02914894e-001 1.09523468e-001
      -1.25937492e-001 -5.30289188e-002 1.34103283e-001 3.79782505e-002
      2.34108344e-001 2.38586083e-001 2.38487795e-001 3.83811854e-002
      -1.11728825e-001 -3.14197615e-002 1.01568066e-002 2.44255997e-002
      5.82454614e-002 1.35808028e-002 6.77970350e-002 9.47535634e-002
      1.00622192e-001 -9.19426456e-002 1.12117209e-001 -1.07422628e-001
      3.86724845e-002 -3.34018916e-001 8.52930825e-003 1.18335225e-001
      -3.23012710e-001 -1.60300851e-001 -6.93400800e-002 6.88098893e-002
      -1.41519636e-001 1.80039983e-002 -1.85555771e-001 -2.59190649e-002
      -5.39690703e-002 -1.82743013e-001 3.78425829e-002 -2.08610639e-001
      -3.24721724e-001 1.49696976e-001 4.20628220e-001 -1.31048664e-001
      -1.09883457e-001 -6.64753988e-002 5.46922982e-002 -2.90307961e-002
      -7.36998990e-002 -8.10236856e-002 1.05021000e-001 1.47795767e-001
      -3.48734856e-002 -2.32171919e-002 9.67450440e-002 5.09899110e-002
      -1.33186027e-001 -6.05574623e-002 -9.55133233e-003
      -1.00821413e-001 -1.25319898e-001 -3.46364915e-001 2.04851419e-001
      -2.08364129e-001 -6.01567805e-001 -1.30095705e-001
      -4.25957382e-001 -2.43396521e-001 1.12419754e-001 -7.85045177e-002
      1.43019408e-001 2.72786375e-002 -3.32817584e-001 -2.19944492e-001
      5.86250424e-002 3.28702122e-001 6.25216514e-002 -2.15434253e-001
      2.59839803e-001 2.08018899e-001 2.14678105e-002 -2.27639396e-002
      -1.15453787e-001 -9.17895138e-002 -1.36764288e-001 3.77496742e-002
      5.09914197e-002 2.42573079e-002 -1.73143521e-001 5.69111248e-003
      8.74384418e-002 1.30240381e-001 6.93133846e-002 1.87290564e-001
      2.85312720e-002 6.68748990e-002 1.04068898e-001 -8.20791945e-002
      2.92647462e-002 2.92676389e-002 -1.37450963e-001 -1.07172370e-001
      8.32508728e-002 1.16497688e-001 9.94624048e-002 -4.88650240e-002
      -1.17357820e-001 -3.43962222e-001 -1.27104819e-001
      -1.25122815e-001 -1.04433142e-001 -1.65365815e-001
      -1.51005462e-001 -5.58649227e-002 -1.18990861e-001
      -2.30900720e-001 -1.35542989e-001 -5.67507893e-002
      -7.04422146e-002 -3.77190076e-002 -2.59772658e-001
      -4.30132970e-002 -1.14704840e-001 -2.29093418e-001
      -1.99277282e-001 -1.32010013e-001 -1.35323051e-002
      -6.95576845e-003 -9.22637731e-002 -4.65109609e-002 1.46206794e-002
      -3.21440250e-002 4.25692126e-002 -7.62576759e-002 -5.77107593e-002
      -6.13156706e-002 2.92962670e-001 2.03479588e-001 8.75316039e-002
      -8.42990875e-002 -3.38039957e-002 -5.21758059e-003
      -9.07381997e-002 6.40931651e-002 4.33319986e-001 3.62241477e-001
      2.20061485e-002 -2.64605463e-001 -7.67299831e-002 5.20043112e-002
      -1.09952606e-001 -1.37411863e-001 -1.34749293e-001 3.98452058e-002
      1.20039530e-001 3.43385674e-002 -1.18894771e-001 8.63464102e-002
      1.85292974e-001 1.06656276e-001 -2.08779816e-002 -1.04556724e-001
      -1.89776137e-001 -6.02899134e-001 -2.06893459e-001 1.14254445e-001
      2.21698612e-001 2.62245387e-002 -8.53634924e-002 -2.63286471e-001
      -2.58394450e-001 -1.05479375e-001 -7.99158812e-002 2.03646585e-001
      1.96644459e-002 -2.50281543e-001 2.70326674e-001 3.38933676e-001
      -3.61438036e-001 -2.27453765e-002 -3.26022729e-002 2.27883324e-001
      7.44616911e-002 2.58565992e-001 -6.98607638e-002 3.08879048e-001
      2.23794058e-001 -3.91439535e-002 3.32677327e-002 -1.27855971e-001
      -1.31889313e-001 -1.03216656e-001 8.99566859e-002 -1.53289745e-002
      1.93145737e-001 3.50566804e-002 9.61974263e-002 6.43871650e-002
      -9.89706349e-003 -2.64196396e-001 6.86980560e-002 3.95930037e-002
      9.07219723e-002 1.71429187e-001 -9.45963934e-002 -1.06123853e-002
      2.04531364e-002 -4.14713323e-001 -1.18465647e-002 5.27128316e-002
      4.22291875e-001 2.20073447e-001 -1.94173068e-001 1.76742122e-001
      1.21141464e-001 1.67060271e-001 -1.82504550e-001 -4.47944328e-002
      2.54212201e-001 5.22548705e-002 5.95302097e-002 6.38459399e-002
      2.95213871e-002 -2.30890200e-001 -6.01570979e-002 -1.39295429e-001
      -7.66678452e-002 -1.03056550e-001 -2.62733459e-001
      -1.89786050e-002 -1.69851363e-001 -1.40915856e-001
      -1.88041016e-001 9.67588499e-002 -2.48773992e-002 -1.49693251e-001
      -4.90708975e-004 1.79582819e-001 1.87545210e-001 1.65108591e-001
      2.31213705e-003 -6.75605685e-002 -3.04864556e-001 -2.55922806e-002
      1.15621984e-002 8.30792189e-002 6.50741160e-002 1.34936571e-002
      -2.98571642e-002 -8.53201821e-002 -8.02735910e-002
      -2.39289299e-001 -2.24128291e-001 -1.08902216e-001 1.66000038e-001
      -1.73712343e-001 4.68081534e-002 6.00946359e-002 -1.77953243e-001
      -3.08307558e-001 -5.66172637e-002 2.27921102e-002 -5.57838157e-002
      -8.79154652e-002 -1.80924147e-001 -5.78361414e-002 7.66420215e-002
      7.51102492e-002 -5.76750264e-002 2.81900484e-002 -5.20761730e-003
      2.29924217e-001 1.55605048e-001 9.79849920e-002 2.38500955e-003
      -6.25897711e-003 -4.54449207e-002 -1.03027806e-001
      -1.98912561e-001 3.32748473e-001 2.72302151e-001 1.25272125e-001
      -1.81811914e-001 -5.75800985e-002 -1.22772122e-003
      -1.23948067e-001 -2.22199559e-001 -2.32849270e-001 1.16602229e-002
      2.86003411e-001 2.26527527e-001 -2.47883692e-001 1.22598901e-001
      1.41488239e-001 -6.85111657e-002 -6.98102713e-002 5.83558530e-002
      1.38296083e-001 -3.28707844e-002 5.22934496e-002 1.07369432e-002
      1.85134765e-002 1.44660518e-001 -9.79545489e-002 -1.51235566e-001
      -1.42173246e-001 -1.66482821e-001 1.83470681e-001 2.21023902e-001
      1.08089440e-001 7.95160700e-003 1.79293051e-001 1.41818136e-001
      -3.80365282e-001 -6.10869415e-002 -5.91996238e-002 7.46897906e-002
      2.31711477e-001 2.63893515e-001 -1.11641191e-001 2.13401258e-001
      1.56658024e-001 8.35614353e-002 -1.27005532e-001 -1.74993545e-001
      8.30009580e-002 8.24644566e-002 2.06821784e-001 -1.06541753e-001
      3.55965756e-002 -2.03684896e-001 4.28652577e-002 2.12802216e-001
      9.36732888e-002 -1.72995627e-001 -1.27576411e-001 1.66740119e-001
      2.14008108e-001 2.82396227e-001 9.02200192e-002 2.41980851e-001
      -3.38930897e-002 1.40162870e-001 2.35084027e-001 7.03375414e-002
      1.09861769e-001 1.68390259e-001 -5.49797378e-002 2.93191541e-002
      8.18059295e-002 -7.96971843e-003 -3.15800130e-001 -3.75440568e-002
      3.07929546e-001 3.49320285e-002 -6.18875287e-002 1.13626262e-002
      -4.80343960e-002 -1.66839927e-001 -4.25916836e-002 2.35528588e-001
      8.55158269e-002 2.19662696e-001 -2.06487358e-001 -8.23909342e-002
      6.28099144e-002 -1.56088963e-001 -1.15548410e-002 7.23568127e-002
      2.52736747e-001 -1.84393488e-003 -5.26042320e-002 2.75554210e-001
      2.26897523e-001 -6.85837269e-002 1.49315745e-001 2.08894655e-001
      -1.88959409e-002 -6.81894422e-002 5.87308183e-002 5.74084371e-002
      2.48331223e-002 3.47125307e-002 1.32643692e-002 -1.54534057e-002
      7.07537262e-003 -1.83501363e-001 -2.53307819e-001 -1.41906366e-001
      1.26292855e-001 -2.43536994e-001 3.47691104e-002 1.73974961e-001
      -6.02474324e-002 -2.45887801e-001 1.56979337e-001 -9.04871989e-003
      2.79674809e-002 -1.17270499e-001 -8.33778605e-002 -8.48030597e-002
      2.36934889e-002 1.31176934e-001 -4.04973328e-002 -8.31716210e-002
      1.06642833e-002 1.05172850e-001 6.09630495e-002 8.98172632e-002
      9.51178744e-002 6.39334694e-002 1.31134018e-001 5.14581837e-002
      -1.49969071e-001 1.25888556e-001 1.19607456e-001 1.00092754e-001
      -8.13017562e-002 -6.05430678e-002 -2.22583152e-002
      -1.02516018e-001 -1.10131562e-001 -2.54351854e-001 4.40051593e-003
      4.00244206e-001 3.03352773e-001 -3.69673610e-001 5.61547466e-002
      2.91056372e-002 -2.11644247e-001 -2.01031953e-001 -4.08231393e-002
      2.22447589e-001 8.68827552e-002 6.19794801e-002 -1.28224880e-001
      -1.10136256e-001 2.93135047e-001 -1.35968193e-001 -4.39511806e-001
      5.17972745e-002 1.93255663e-001 3.01712323e-002 -3.20873559e-002
      -6.00303151e-002 -2.15271227e-002 -6.95690215e-002
      -3.27199362e-002 -6.74644858e-002 -6.40671998e-002
      -7.70191029e-002 -1.09952211e-001 8.25172942e-003 -7.08720693e-003
      -1.22739628e-001 -9.97434482e-002 -6.25073612e-002 2.49774203e-001
      -1.30893871e-001 -1.58513457e-001 2.57990751e-002 -6.01583673e-003
      2.09803119e-001 -3.53366174e-002 -5.42751253e-002 -2.03270391e-001
      -1.53800860e-001 -8.75212550e-002 -1.06355146e-001 1.87034920e-001
      -1.62547588e-001 -1.56620085e-001 -2.61419024e-002 1.13752671e-001
      -9.01645795e-002 3.85575965e-002 -1.37891889e-001 -1.85980782e-001
      -2.43028268e-001 1.04472786e-001 1.24458253e-001 -9.54873743e-004
      1.61448866e-002 -3.73535641e-002 -3.44569117e-001 -1.48136854e-001
      -2.07795925e-003 1.35465950e-001 6.08583167e-003 -9.32766572e-002
      -1.58964604e-001 -8.69634226e-002 -3.48587446e-002
      -2.00917467e-001 2.07239973e-005 2.85552293e-001 -1.01530068e-001
      2.33260784e-002 -3.03994089e-001 -1.73767451e-002 -8.04682225e-002
      -2.66046882e-001 5.37923053e-002 -1.87043592e-001 -1.01371154e-001
      -2.42423907e-001 -2.17074350e-001 5.05100528e-004 4.13236201e-001
      -2.28207894e-002 -1.92089509e-002 -2.49864645e-002 1.31947726e-001
      -4.37975936e-002 -2.26248860e-001 -3.05981766e-002 2.73645073e-001
      1.12914994e-001 2.38280505e-001 -4.46344689e-002 -3.60764656e-003
      3.32138431e-003 -7.98960775e-002 -1.66485626e-002 4.98843864e-002
      -2.07974255e-001 2.58976538e-002 5.91675192e-002 6.61460832e-002
      -9.60999541e-003 2.79818594e-001 6.01043105e-002 1.22302428e-001
      -1.38057366e-001 -8.49275514e-002 -6.36889925e-003
      -2.74364632e-002 1.02164693e-001 2.49143131e-002 -6.09233417e-002
      -1.56776942e-002 3.52108814e-002 7.09364843e-003 9.67959911e-002
      3.64578627e-002 4.70312219e-003 6.53351843e-002 -2.51492001e-002
      6.63558114e-003 5.29433191e-002 1.11886904e-001 -5.48649207e-002
      1.15383327e-001 -1.04792133e-001 -4.76730056e-002 -3.74039039e-002
      -6.08210545e-003 -2.00488903e-002 1.02084868e-001 2.81930715e-001
      2.22684488e-001 -1.90807194e-001 3.45937498e-002 1.02769718e-001
      1.43357692e-002 -3.23098060e-003 7.77094439e-002 2.45979592e-001
      1.09664351e-001 7.04811979e-003 -2.24738628e-001 -1.04061320e-001
      2.60043859e-001 -7.09182844e-002 -3.38471860e-001 4.06352151e-003
      1.89660475e-001 5.88046201e-002 -1.66015655e-001 -1.61001042e-001
      -8.26105699e-002 -6.49308562e-002 -5.28443120e-002
      -1.26430884e-001 -2.90172677e-002 -8.27982463e-003 1.73993886e-001
      -2.44738185e-003 1.48533480e-002 9.49704349e-002 4.20494825e-002
      5.27297892e-003 -9.73178744e-002 -2.24930514e-002 -1.53537780e-001
      -3.71089578e-002 -2.30579097e-002 1.36135444e-001 -1.33024259e-002
      2.15810940e-001 1.39311567e-001 1.34357095e-001 -1.36887014e-001
      -6.83433861e-002 -1.83505584e-002 -3.35848033e-001
      -2.04612017e-001 -1.54453918e-001 1.52855301e-002 -1.23842038e-001
      -1.02134839e-001 -2.15841666e-001 2.81514600e-002 -1.35947257e-001
      1.52152523e-001 -2.07352825e-003 -1.53953761e-001 -3.50731254e-001
      -2.31857121e-001 1.81856714e-002 1.37481660e-001 2.78386436e-002
      4.67851805e-003 3.57290246e-002 -2.50409581e-002 8.44643489e-002
      -5.90105634e-003 -3.49359959e-002 6.85103191e-003 -3.01411487e-002
      1.92001730e-001 -2.98355091e-002 -1.67655438e-001 -1.36493489e-001
      2.54063513e-002 -2.04391345e-001 -1.24857910e-001 -1.10262968e-001
      -1.40005782e-001 -1.95539698e-001 -9.33656469e-002
      -3.36649895e-001 -6.54444918e-002 2.38414302e-001 -2.38410145e-001
      -1.01267889e-001 6.27596900e-002 -1.82328969e-001 -1.62149847e-001
      -1.62065715e-001 -2.97168028e-002 -5.83177432e-002
      -4.91234958e-002 1.82108074e-001 -8.94253328e-002 -1.29157677e-001
      1.06558483e-002 5.89485839e-002 6.82014897e-002 2.67952144e-001
      -1.16239004e-001 -2.38436479e-002 -1.55133814e-001
      -2.55101677e-002 1.80669129e-001 -4.49946150e-002 4.27513942e-002
      1.29612386e-001 -3.39146741e-002 -9.74857658e-002 8.26365948e-002
      7.82532915e-002 3.45061421e-002 -3.20833512e-002 -9.62845385e-002
      1.50168063e-002 -2.97489073e-002 -3.98694724e-003 3.11221983e-002
      -4.06851852e-003 -9.52742323e-002 -9.39396173e-002
      -3.51397395e-002 -7.96938017e-002 -7.79682472e-002 1.41003817e-001
      -1.62491962e-001 -1.01464719e-001 -1.67119399e-001
      -3.37727815e-002 -1.12204164e-001 -1.00833811e-001
      -5.62937483e-002 -2.84816716e-002 1.09141059e-001 -4.05482277e-002
      1.96282081e-002 7.51153603e-002 5.84535338e-002 1.17184930e-002
      1.40478283e-001 2.22806066e-001 1.62132069e-001 7.82310218e-002
      8.21540728e-002 8.56938958e-002 1.29356924e-002 1.63799435e-001
      1.47177624e-002 2.26075239e-002 3.82711776e-002 2.21364424e-001
      1.40517473e-001 -1.49939686e-001 -1.89330220e-001 7.35378219e-003
      1.82919670e-002 6.62958622e-002 1.68404058e-002 1.15343206e-001
      2.82199644e-002 3.87129813e-001 -1.43210739e-002 -3.59790400e-003
      1.22833900e-001 1.87334225e-001 2.76018884e-002 -1.51639223e-001
      -2.08956189e-002 4.94759977e-002 9.57619101e-002 3.14041935e-002
      -1.30657747e-001 -3.83253805e-002 7.53175244e-002 1.27525583e-001
      -5.49572706e-002 1.08298697e-001 8.50066990e-002 -7.72171840e-002
      -1.91605128e-002 -5.87190613e-002 -7.02942982e-002 1.82825252e-001
      1.08799614e-001 -1.02682956e-001 -3.20771307e-001 -6.12828173e-002
      -6.14647307e-002 -7.77117908e-002 -9.08976123e-002
      -1.09869845e-001 -2.52214432e-001 -2.93772370e-001 4.27983701e-002
      -1.51972309e-001 -1.05706424e-001 2.35807732e-001 -1.02713466e-001
      8.73300713e-003 -1.15349978e-001 -3.27093080e-002 -1.07797146e-001
      3.58377278e-001 8.13281238e-002 -2.80772280e-002 -7.89392646e-003
      1.38846740e-001 -1.76231533e-001 -2.43049651e-001 3.02097015e-002
      -8.71730894e-002 -2.07409501e-001 6.48451969e-002 -2.54402254e-002
      -2.42165744e-001 -1.76334023e-001 4.25496586e-002 -6.52750954e-003
      -2.85585821e-001 -1.46672577e-001 1.17805511e-001 -1.41100347e-001
      1.44374251e-001 9.21605080e-002 -1.87400654e-002 -9.78327692e-002
      -2.57969499e-001 2.56988734e-001 -3.23032290e-002 -2.00351939e-001
      -2.46376052e-001 2.70279255e-002 4.20628525e-002 8.33907798e-002
      -2.40970910e-001 1.81056708e-001 9.62470621e-002 -2.89497346e-001
      -5.76410384e-004 -1.05997629e-001 -2.22631872e-001
      -3.81863788e-002 6.61028698e-002 -9.83071849e-002 -1.64972365e-001
      -1.90373976e-002 1.28408417e-001 -2.90472507e-001 -1.50412083e-001
      5.30444132e-003 -4.74971868e-002 -4.12728339e-002 2.68875957e-002
      9.22767352e-003 -1.43588027e-002 -1.06078684e-002 -7.00254366e-002
      -1.34035975e-001 -9.97954011e-002 9.56601351e-002 -1.88920304e-001
      -1.32208154e-001 -6.92418739e-002 6.84948489e-002 6.67072609e-002
      7.15849772e-002 1.15435936e-001 -1.89153269e-001 9.41392928e-002
      1.02070443e-001 6.27976954e-002 5.10571077e-002 -1.68648700e-003
      1.41627723e-002 8.89886320e-002 6.77687721e-003 5.66834994e-002
      6.57621026e-003 7.32318731e-003 -7.36024678e-002 -2.85090916e-002
      -1.12965619e-002 9.07861143e-002 -1.52956575e-001 5.86627871e-002
      1.06602997e-001 1.14795186e-001 -1.54102920e-002 -3.96472774e-002
      7.41011128e-002 3.30806039e-002 4.98802178e-002 7.56241083e-002
      8.17601606e-002 6.63175136e-002 3.92726839e-001 2.16241926e-002
      -3.97563018e-002 9.02608857e-002 2.42324412e-001 2.78943516e-002
      -9.97201055e-002 1.49865434e-001 2.03901201e-001 1.79189071e-001
      7.20364526e-002 -6.18037693e-002 2.31045689e-002 2.32506931e-001
      2.06386641e-001 3.21748219e-002 1.18946068e-001 1.28615081e-001
      1.21520862e-001 8.06342736e-002 1.54719338e-001 1.28864840e-001
      -2.27986481e-002 1.86105985e-002 2.11388379e-001 -2.01507136e-001
      -4.12754193e-002 -2.08590403e-001 5.72080817e-003 -1.56325921e-001
      -4.51146346e-003 -9.65130702e-002 -1.80520728e-001
      -3.66074950e-001 -2.32104331e-001 -1.46428898e-001 1.18018240e-001
      -1.50135964e-001 -1.21625364e-002 6.58861846e-002 -3.72347422e-002
      -8.20613205e-002 2.27656007e-001 -2.48260617e-001 7.88692683e-002
      5.39434068e-002 -2.08163843e-001 1.90157428e-001 -2.58455634e-001
      1.19355701e-001 -7.00355768e-002 6.07736362e-003 3.04722369e-001
      6.90684021e-002 5.29462984e-003 -2.37983957e-001 2.23597977e-002
      -5.16811088e-002 -6.08308613e-003 -2.43796185e-002 1.36214998e-002
      -2.95499831e-001 -1.09477423e-001 -7.50787929e-002 4.33553681e-002
      -1.42163560e-001 -8.63455832e-002 2.42583171e-001 -8.49645678e-003
      -1.97517157e-001 -3.84719014e-001 -2.35229895e-001
      -2.16434263e-002 2.21004233e-001 -1.47335827e-001 1.54156640e-001
      -8.09073374e-002 -3.56986701e-001 1.61686212e-001 1.81319565e-001
      1.26628295e-001 2.19434157e-001 1.72278628e-001 1.05000615e-001
      1.51606083e-001 4.41219091e-001 1.42868549e-001 -4.51689452e-001
      9.45740715e-002 -1.01354495e-002 8.43996927e-002 -4.69339732e-003
      4.06707190e-002 1.37692690e-002 -1.22482218e-001 -5.29972911e-002
      -8.10042769e-002 -1.25948384e-001 -4.95445803e-002 7.56076947e-002
      3.71842040e-003 2.36930419e-003 3.35488282e-002 8.53243247e-002
      9.06230435e-002 7.30191264e-003 -1.14343569e-001 -1.18220374e-001
      9.24863666e-002 2.29278162e-001 1.22719007e-002 -7.28158839e-003
      -1.46965280e-001 2.88271587e-002 -2.51769245e-001 -3.70659769e-001
      -2.53227595e-002 -1.42289296e-001 1.34274200e-001 -9.47470665e-002
      -8.12133029e-002 -5.62970676e-002 -1.70218553e-002
      -3.35791200e-001 2.24368677e-001 1.04002476e-001 -5.09044826e-002
      1.55052274e-001 2.37376437e-001 1.88647181e-001 7.35728964e-002
      1.88792259e-001 1.11627139e-001 4.23622727e-002 1.01283221e-002
      1.76758230e-001 1.85098145e-002 -9.10505205e-002 2.42695417e-002
      1.02060005e-001 3.59519236e-002 -8.97498205e-002 9.63865966e-002
      6.58938214e-002 1.24988630e-001 1.07758589e-001 2.67099775e-003
      -7.92604405e-003 1.34108022e-001 6.31147325e-002 -1.74800605e-002
      5.60092628e-002 1.08512267e-001 1.11410953e-001 4.27615121e-002
      6.17202111e-002 1.19652882e-001 -2.24928513e-001 -1.37268618e-001
      1.60945714e-001 4.59578708e-002 2.39766818e-002 9.11269188e-002
      2.92076133e-002 -1.53658435e-001 5.30053601e-002 -1.81859076e-001
      -8.29659998e-002 6.97209034e-003 -9.18133929e-002 -8.64092708e-002
      -4.07185182e-002 -8.49720314e-002 7.00592622e-003 9.85334888e-002
      4.93269898e-002 6.02108538e-002 1.13712624e-003 9.03493091e-002
      7.64518604e-002 -3.94676365e-002 -1.33712351e-001 1.66993707e-001
      -2.81532496e-001 6.56182244e-002 -1.42335609e-001 1.34173766e-001
      -4.84977141e-002 -1.12473473e-001 5.49841337e-002 -3.00160348e-001
      -2.54449040e-001 -1.62429884e-001 -7.09464923e-002 4.65454161e-002
      2.97142774e-001 -1.16098365e-002 8.69594663e-002 1.23870730e-001
      -8.27587321e-002 -2.47122407e-001 9.82554778e-002 -9.62189138e-002
      -4.41399515e-002 1.47407308e-001 -2.14983657e-001 -3.78818005e-001
      3.21028009e-002 2.68162459e-001 -3.34877893e-002 5.93731776e-002
      -2.36339509e-001 -7.39445910e-002 -4.65582460e-002 3.12717468e-001
      1.47856802e-001 9.90897864e-002 9.32622030e-002 -1.06801428e-001
      1.54971287e-001 4.42810208e-001 8.53483677e-002 -3.51133108e-001
      -2.84904361e-001 1.08840801e-001 1.12720571e-001 -2.06073951e-002
      -2.51026571e-001 -3.60253975e-002 1.84026673e-001 1.34630203e-001
      -8.82623121e-002 -5.71582280e-002 -2.17161804e-001
      -2.00871110e-001 7.13859126e-002 1.18363641e-001 4.92387414e-002
      2.70532608e-001 1.96748432e-002 -1.37032494e-001 -7.80393407e-002
      -5.19236363e-002 3.44111249e-002 7.84879699e-002 1.96892321e-002
      1.66652296e-002 -2.02718586e-001 -7.78600648e-002 -1.31856814e-001
      -2.97470003e-001 -4.45043109e-002 -1.76870883e-001 7.23362863e-002
      1.37322703e-002 -1.17962323e-002 3.87730524e-002 6.64302707e-003
      -3.28484476e-001 4.90232296e-002 -3.60216387e-002 -1.14691146e-001
      1.44142821e-001 1.04788184e-001 2.47793257e-001 4.19181250e-002
      2.61374295e-001 -9.72671956e-002 6.24849312e-002 1.08258136e-001
      -1.68385413e-002 7.74858519e-002 4.19630483e-002 9.64008621e-004
      3.12829390e-002 1.16133645e-001 3.47697027e-002 -6.31475523e-002
      5.46180569e-002 9.48077515e-002 1.55477002e-001 2.47067735e-001
      1.46316692e-001 7.54087120e-002 2.03408133e-002 -8.81286636e-002
      -3.79745960e-002 1.34875774e-001 1.29392818e-001 5.04578575e-002
      -3.43538783e-002 1.72721952e-001 -2.92860419e-001 -1.00902915e-001
      6.79940805e-002 7.85026252e-002 -9.63764116e-002 2.01913163e-001
      7.31236339e-002 6.30613714e-002 1.88133538e-001 -1.39489353e-001
      -1.23738132e-001 9.12693515e-002 5.32609485e-002 -1.50263056e-001
      -6.49256036e-002 -7.23374914e-003 -8.06205645e-002 2.10564584e-003
      2.85339728e-002 -1.16187651e-002 1.59885604e-002 2.26921871e-001
      1.64862365e-001 1.18355386e-001 1.09605648e-001 1.59342483e-001
      -4.35439758e-002 1.16924167e-001 -3.26389894e-002 -1.47885308e-001
      -8.68601501e-002 -2.15562105e-001 1.28169432e-001 -1.85457349e-001
      -5.39938152e-001 3.95562239e-002 7.48867542e-002 1.52173311e-001
      3.22421312e-001 -1.95965692e-001 -1.27433324e-002 3.81478146e-002
      -3.38219315e-001 -6.55075395e-003 -5.94190098e-002 1.22041747e-001
      5.09386770e-002 2.31376618e-001 -2.71706164e-001 -2.34156340e-001
      3.81883839e-003 7.25451261e-002 -8.92525464e-002 -1.86919525e-001
      -2.42126033e-001 1.25090778e-001 -1.30592277e-002 4.31242138e-001
      1.79867614e-002 -1.12482667e-001 -2.89749894e-002 2.71578506e-002
      8.71767551e-002 1.34569868e-001 1.35639936e-001 -1.62074670e-001
      -2.14964822e-001 7.96580538e-002 1.31629661e-001 -5.61505929e-002
      -2.41829991e-001 -2.18531899e-002 3.28068316e-001 2.39919081e-001
      -2.76183963e-001 1.97272167e-001 -6.54890910e-002 2.09485125e-002
      1.11444928e-001 -5.37235998e-002 -9.78818014e-002 5.02610326e-001
      1.25712052e-001 -1.67888418e-001 7.89604560e-002 -7.57088363e-002
      1.65986270e-001 3.23272981e-002 -7.48661757e-002 -9.98572037e-002
      -1.72917247e-001 -6.12032674e-002 -2.36684546e-001 5.17064705e-002
      6.52962411e-003 -6.48897067e-002 -4.79093939e-003 1.00364640e-001
      5.21045662e-002 1.66687161e-001 1.82752743e-001 4.20463048e-002
      9.27214250e-002 -2.37981714e-002 -9.39927995e-002 8.56444910e-002
      2.08631461e-003 1.79488808e-001 8.69201645e-002 2.96354800e-001
      -5.86312711e-002 3.58697660e-002 -2.23500524e-002 -8.60710070e-002
      1.13866488e-002 3.43464278e-002 -1.20900199e-001 1.07719161e-001
      1.61759511e-001 -9.57798809e-002 2.33837470e-001 8.42935517e-002
      3.79842930e-002 6.24128617e-002 2.58838952e-001 1.50979191e-001
      9.07803047e-003 1.47997010e-002 -6.47316920e-003 -1.41603034e-002
      9.04259309e-002 5.86833768e-002 5.83714247e-002 7.56319612e-002
      1.68481678e-001 -1.10260800e-001 1.02907326e-002 6.04906641e-002
      1.51183203e-001 -1.49949580e-001 2.21121594e-001 2.51796156e-001
      1.99199259e-001 2.33906925e-001 -2.67651342e-002 6.45615874e-005
      1.43409163e-001 2.30051041e-001 -2.84613460e-001 -7.61362240e-002
      3.36145051e-002 -1.67487204e-001 -5.57983965e-002 7.37267435e-002
      5.02258576e-002 1.35690019e-001 5.79712316e-002 1.10215910e-001
      1.59037516e-001 4.45157513e-002 3.87175381e-002 -1.16912099e-002
      -3.67928296e-002 9.73953307e-002 -1.98776741e-002 -5.09267710e-002
      4.53199297e-002 1.07881658e-001 3.00296955e-002 -3.22166568e-004
      1.55491844e-001 -2.97322758e-002 4.68090624e-002 1.52847648e-001
      -1.90642148e-001 -1.15579389e-001 2.36707330e-002 -8.18511695e-002
      -4.86881174e-002 8.93493220e-002 1.71848565e-001 7.67469928e-002
      1.88282564e-001 -9.68294069e-002 -1.65227894e-002 3.92405927e-001
      -7.01112002e-002 -6.60989806e-002 -3.76010060e-001
      -8.59180391e-002 1.39805481e-001 8.18454623e-002 2.85402853e-002
      9.95212123e-002 1.29226029e-001 -7.56543800e-002 -1.03403024e-001
      6.78994134e-003 -4.98750992e-003 7.88808987e-002 -7.38471448e-002
      -1.73517659e-001 -3.05965748e-002 1.96970515e-002 -5.69261350e-002
      -1.10261455e-001 -7.06454217e-002 8.81402008e-003 8.36453680e-003
      -7.66935050e-002 2.39700824e-001 -1.54691651e-001 -1.25623867e-001
      1.08975448e-001 6.16967641e-002 -5.20768464e-002 3.68166924e-001
      8.05044770e-002 -9.59247202e-002 7.78752640e-002 -8.92371759e-002
      8.05593580e-002 2.75563329e-001 -2.89985985e-001 3.27220596e-002
      1.87473178e-001 1.22877516e-001 1.94345534e-001 -6.11994900e-002
      7.63936937e-002 7.52843171e-002 -2.36691609e-002 -3.94740850e-002
      1.26180679e-001 1.10373572e-001 9.07313195e-004 8.72890204e-002
      4.12611812e-002 9.18110833e-003 -5.68828210e-002 4.98199761e-002
      -1.30269572e-001 5.12132831e-002 3.82661000e-002 1.78500414e-001
      3.53894942e-002 -1.68474261e-002 -1.55778721e-001 -1.37083635e-001
      3.22762467e-002 7.61662051e-002 -8.34810585e-002 1.39868394e-001
      1.95799589e-001 -4.47167754e-002 1.76731169e-001 -9.05190706e-002
      1.43390968e-002 1.23859823e-001 4.06890213e-001 1.55592382e-001
      5.02047054e-002 -1.16987802e-001 3.25303972e-002 2.85091018e-003
      -5.02495095e-003 1.29635751e-001 1.38777286e-001 9.19540375e-002
      6.79669157e-002 4.51040380e-002 7.13453889e-002 1.07345931e-001
      5.23186922e-002 -6.80849552e-002 1.12186417e-001 2.12843418e-001
      2.51657009e-001 1.62446707e-001 -2.90901889e-003 3.44518796e-002
      8.09387192e-002 2.30354860e-001 -1.92563534e-001 -8.82241726e-002
      8.75547528e-002 -1.27808647e-002 -1.27545506e-001 1.59039523e-003
      8.75009447e-002 8.42520669e-002 3.61611769e-002 3.05407107e-001
      3.03448290e-001 4.17956226e-002 -6.40467405e-002 7.68373115e-003
      -6.73286500e-004 1.67722926e-001 -1.25144258e-001 -3.47580388e-002
      2.40733162e-001 1.54556304e-001 -3.02878264e-002 -1.01120934e-001
      1.80317193e-001 1.99708298e-001 1.10240534e-001 1.27418013e-002
      -1.42747106e-003 -4.38973270e-002 1.82821959e-001 1.07107282e-001
      2.32447833e-001 2.00326964e-001 -7.78138712e-002 9.78570133e-002
      3.43389779e-001 -2.73851007e-001 8.73577073e-002 2.76023895e-001
      -4.66897227e-002 4.35240529e-002 -4.59363461e-001 -1.33667707e-001
      1.68297440e-001 -1.24967381e-001 1.20858978e-002 3.16521041e-002
      2.07248926e-001 5.14534041e-002 8.44026133e-002 9.21231508e-002
      5.05527891e-002 3.24369788e-001 -1.00791633e-001 -6.48732558e-002
      1.65303469e-001 -2.59672254e-001 -4.92662340e-002 -1.66852355e-001
      3.55020761e-001 1.16040222e-001 -1.74079418e-001 3.70915495e-002
      -5.14323032e-003 -1.71630546e-001 -1.26726955e-001
      -2.17540652e-001 -4.27994365e-003 -9.63807851e-002 7.15112612e-002
      2.28305422e-002 -1.39015615e-001 2.59322710e-002 -2.07997989e-002
      1.09332748e-001 1.25436723e-001 -2.22049132e-001 7.00611947e-003
      2.81108260e-001 1.75921962e-001 1.76487654e-001 -7.27630407e-002
      2.36435071e-001 7.53996149e-002 7.49888867e-002 -3.02695632e-001
      -1.33339483e-002 1.10289134e-001 -3.09484191e-002 2.50434607e-001
      -3.71425040e-002 -8.52847174e-002 1.76138669e-001 9.76935104e-002
      -2.06509992e-001 3.57268527e-002 1.21981107e-001 1.44417346e-001
      -1.42085865e-001 -1.73106405e-003 -1.11594997e-001
      -1.28798351e-001 -1.29975565e-002 1.06836706e-001 -5.48116900e-002
      7.87869617e-002 1.10911004e-001 2.46258508e-002 -5.73944114e-002
      -1.02897540e-001 5.20292036e-002 8.58004838e-002 2.78385073e-001
      3.38028520e-002 5.45953289e-002 -2.03117892e-001 2.27054637e-002
      -1.87346358e-002 -1.57915726e-001 6.29192591e-002 4.27389555e-002
      -5.72960190e-002 -1.28719807e-002 4.38838974e-002 -1.07731245e-001
      -2.51886189e-001 1.37128472e-001 -2.63714716e-002 2.83343494e-002
      2.27165949e-002 8.35791528e-002 1.30431622e-001 8.61822739e-002
      -1.43435597e-001 -1.63787261e-001 1.26376480e-001 -6.98706806e-002
      -3.78533080e-002 4.25670035e-002 2.12243386e-002 -2.90749408e-002
      1.87859088e-002 5.68343922e-002 5.37652485e-002 -5.98540530e-002
      3.25900197e-001 3.36690962e-001 3.23205702e-002 -1.87457889e-001
      4.73000742e-002 -6.01264201e-002 6.30907416e-002 -2.00523034e-001
      4.04886492e-002 3.79492640e-001 1.69244125e-001 -1.49528056e-001
      -1.50054649e-001 1.31042525e-001 2.13594452e-001 8.28080997e-002
      2.22293139e-001 3.77171487e-001 2.98287541e-001 1.69325843e-001
      2.00999871e-001 3.44848990e-001 -1.72732815e-001 -1.39485016e-001
      -7.80774374e-003 3.77894640e-001 -1.29785284e-001 -2.01705843e-001
      -7.56581966e-003 1.64308958e-002 -6.14670292e-002 -1.22672603e-001
      -1.88063122e-002 1.71550527e-001 -8.13120082e-002 7.91376755e-002
      8.13671108e-003 8.48578066e-002 -4.37156931e-002 2.87952311e-002
      1.51814476e-001 -6.88848048e-002 2.50410914e-001 -1.43543139e-001
      4.26123813e-002 4.52191569e-002 -4.09985632e-001 -2.96755880e-001
      -3.21847290e-001 3.05571742e-002 -1.51388064e-001 -4.00295883e-001
      -1.08494222e-001 6.04160786e-001 2.53858447e-001 -1.79757476e-002
      5.35587370e-002 -1.15488239e-001 -4.43338066e-001 -1.93983823e-001
      -2.26564005e-001 2.65536994e-001 -2.06447884e-001 -1.47854283e-001
      7.39766732e-002 4.83764410e-002 5.99375181e-002 3.17856446e-002
      -5.02863750e-002 -1.07936040e-001 -9.57063660e-002
      -1.72441706e-001 1.57380119e-001 5.77108823e-002 -1.19011188e-002
      -4.99059528e-001 -1.65036678e-001 6.85054052e-004 -1.56197678e-002
      -6.07104506e-003 -1.42704546e-001 -2.69462287e-001 1.91760678e-002
      -1.07347004e-001 9.38643236e-003 5.02551347e-002 -1.30004302e-001
      -3.63483280e-001 -3.52994092e-002 1.25723585e-001 1.84053071e-002
      6.26453608e-002 -2.47297853e-001 -5.45009598e-002 -4.29658651e-001
      -2.45152399e-001 -2.47407898e-001 3.91399354e-001 1.09467573e-001
      3.84761281e-002 7.20329136e-002 7.52243474e-002 5.74300140e-002
      2.52619237e-002 3.99871469e-002 1.52583141e-002 -8.26541930e-002
      1.64548367e-001 -7.27555379e-002 1.20427338e-002 -6.23049662e-002
      -6.58196956e-002 6.26714677e-002 6.70966282e-002 -2.16053873e-001
      -3.86195332e-001 -6.09821752e-002 -2.02091619e-001
      -1.48356676e-001 -9.06358510e-002 3.43216248e-002 1.04181841e-001
      6.59154877e-002 -3.11473876e-001 -4.14791554e-001 1.33885175e-001
      -1.70414194e-001 -8.39355886e-002 -1.78022861e-001 9.23741534e-002
      -2.26752281e-001 -1.91098005e-001 -4.29775752e-002 2.49787092e-001
      -8.31693818e-004 -1.32955741e-002 9.06543508e-002 1.25204071e-001
      -1.81450099e-001 2.32822169e-002 1.01861708e-001 1.83624104e-001
      -2.14807931e-002 1.25442103e-001 6.04168884e-003 9.14183930e-002
      1.39065877e-001 -2.40893185e-001 1.34110913e-001 2.63242126e-002
      1.21858075e-001 -2.02395782e-001 2.59010606e-002 1.71302274e-001
      -3.60799283e-001 -7.11755008e-002 -2.18747929e-002 1.41530991e-001
      -1.91267952e-002 -1.53404877e-001 -7.92416483e-002 9.30035934e-002
      1.73988065e-003 2.97923572e-002 3.75513136e-002 -7.90618639e-003
      6.74421787e-002 6.94776177e-002 8.67632255e-002 -2.96038371e-002
      2.92407945e-002 -5.33905745e-001 -4.34082389e-001 -3.76954854e-001
      -2.72895724e-001 8.68240148e-002 8.36163387e-002 5.38948774e-001
      3.56537789e-001 -2.68560439e-001 -7.30214491e-002 1.76505953e-001
      -1.19335026e-001 8.42171460e-002 -3.84297781e-002 -2.58316472e-002
      7.29976892e-002 -4.66312557e-001 2.56986141e-001 -1.24016516e-002
      -4.18175250e-001 -2.33461425e-001 -2.69256800e-001
      -8.99888426e-002 -1.11620598e-001 -1.27233714e-001 7.51699461e-003
      -1.63730606e-001 -3.12570870e-001 -2.40049005e-001 1.37802765e-001
      -3.62995488e-005 8.64428356e-002 6.42717108e-002 1.38718307e-001
      1.78198978e-001 -2.29182258e-001 -4.47113991e-001 -5.88930488e-001
      -7.72581637e-001 -4.11319852e-001 1.48056775e-001 2.20727906e-001
      6.84112012e-001 8.48573297e-002 -5.96954226e-001 -3.64691138e-001
      -1.30166605e-001 -3.45733911e-001 3.61381322e-001 -2.02888399e-001
      -2.09784985e-001 -4.17245850e-002 -3.70584607e-001 1.82145134e-001
      -3.39805216e-001 -1.00447826e-001 -2.21481487e-001
      -2.75112003e-001 -4.62393701e-001 -2.64534026e-001
      -2.05520824e-001 1.94904715e-001 -1.10789023e-001 -1.54448673e-001
      -1.50949016e-001 -1.99565470e-001 -8.22673440e-002
      -2.57400334e-001 -8.37981105e-002 -7.12535083e-002
      -1.46632090e-001 2.49468818e-001 1.27836511e-001 -7.13623390e-002
      -1.59970298e-001 -1.03289053e-001 -1.33779645e-001
      -1.10569328e-001 8.76266062e-002 6.46231091e-003 -2.45041952e-001
      -1.81360021e-001 1.96531072e-001 -1.22836046e-001 -2.40475193e-001
      7.18309209e-002 1.36848852e-001 -1.40285667e-003 -3.14127803e-001
      -1.84719324e-001 -2.65707940e-001 1.25065759e-001 1.08631007e-001
      -1.80247545e-001 4.65939455e-002 7.46620744e-002 -1.44928306e-001
      1.11398660e-001 -2.14534581e-001 -2.05443390e-002 7.59490300e-003
      -1.76673710e-001 -3.43848079e-001 -2.54975855e-001
      -2.95344651e-001 -2.87995666e-001 -2.53930479e-001 1.15455287e-002
      -3.91816683e-002 -6.08766777e-003 -2.80383676e-002
      -8.77043828e-002 5.53247891e-002 -1.14810690e-001 -5.38253225e-002
      -1.42598867e-001 -6.98163211e-002 -8.31494331e-002
      -5.85871935e-001 -1.68491870e-001 -1.71498451e-002 9.60998908e-002
      -6.89196438e-002 -2.38983020e-001 -1.32357121e-001
      -2.29227394e-002 -1.53808638e-001 -4.94566895e-002 4.43932563e-002
      -3.95694748e-002 8.88192132e-002 1.22018017e-001 1.85735643e-001
      2.78764833e-002 6.63491935e-002 -6.11952245e-002 -6.12937193e-003
      2.56207176e-002 6.97876001e-003 5.27480915e-002 3.75506990e-002
      1.39742538e-001 1.52055845e-001 -1.31612755e-002 -3.77391465e-002
      -5.04423790e-002 -1.44913331e-001 -8.16210806e-002
      -1.70625269e-001 -2.46825412e-001 -2.23960221e-001
      -2.60710388e-001 1.92393392e-001 -2.27320641e-001 -7.14908540e-001
      -2.82665342e-001 -8.26825127e-002 -1.56014934e-001 1.89493503e-002
      -1.07579492e-001 -4.88926880e-002 2.32464750e-003 -3.99440199e-001
      -1.86292112e-001 6.57343268e-002 2.37558827e-001 2.16145784e-001
      -7.86598474e-002 3.13163519e-001 2.85292953e-001 2.04923764e-001
      1.54667467e-001 6.37800545e-002 4.53227274e-002 -1.03695653e-001
      1.09443732e-001 1.26467392e-001 1.30663320e-001 -6.63677901e-002
      3.45830619e-002 1.31431520e-001 1.42600924e-001 1.99444219e-002
      1.44101828e-001 -1.18400715e-001 -6.05707504e-002 9.53539163e-002
      -6.50028363e-002 1.08146995e-001 -1.93569005e-001 -6.15147837e-002
      -1.05673894e-001 -2.30036721e-001 -3.36359531e-001
      -2.51085281e-001 -1.36583939e-001 1.29877478e-001 1.80389717e-001
      7.29864165e-002 -3.12923223e-001 2.00721361e-002 1.58758257e-002
      -1.44223878e-002 -1.32183596e-001 2.15079814e-001 3.06926936e-001
      1.55719630e-002 7.42780268e-002 1.36217311e-001 1.34738937e-001
      -1.34573340e-001 1.21412780e-002 -1.25293776e-001 -1.40624255e-001
      2.47292500e-002 -7.81593397e-002 -1.20679684e-001 5.74272685e-002
      -5.86198317e-003 -9.76862237e-002 4.56390483e-003 5.24096154e-002
      2.16444582e-002 -7.28723630e-002 -1.37784198e-001 -1.91112667e-001
      1.27661541e-001 1.06104366e-001 -8.74877274e-002 -3.81021015e-002
      9.55967903e-002 -1.03530817e-001 2.00512722e-001 -6.93355128e-002
      6.92985281e-002 -1.86373129e-001 -1.57069027e-001 -1.33551925e-001
      -1.15811437e-001 -1.44810319e-001 -2.11334467e-001
      -1.57687545e-001 -6.38543293e-002 -1.35981262e-001
      -3.63436118e-002 -9.29623842e-002 -4.01912555e-002
      -4.98167723e-002 5.52646853e-002 5.17652370e-002 -7.41863474e-002
      -7.66088217e-002 -2.03155801e-001 -3.65341872e-001
      -1.10842891e-001 9.05669630e-002 1.07112631e-001 3.67876282e-003
      -1.31343141e-001 -1.47014081e-001 -1.66315258e-001
      -2.85604119e-001 -1.71654657e-001 -1.99124273e-002
      -4.20242958e-002 1.40384771e-002 5.07109165e-002 1.04885109e-001
      -2.06027791e-001 2.48223217e-003 -1.96014017e-001 -1.74512006e-002
      1.68051682e-002 -3.04356366e-002 -4.22662459e-002 4.30688448e-002
      9.87013802e-002 1.86886564e-001 1.26291081e-001 -8.66288543e-002
      -4.69465144e-002 -2.12692004e-002 -5.96817955e-002
      -3.41246836e-002 -1.96044240e-002 -1.26943197e-002 1.28702745e-001
      -1.98808461e-002 -2.36724898e-001 -5.19667864e-001 2.31531765e-002
      4.41687219e-002 -2.22145393e-002 3.29517573e-002 -2.26286426e-001
      -1.06663369e-001 -4.25222665e-002 -5.88477850e-001
      -9.36967134e-002 9.54207256e-002 3.10499519e-001 2.06446007e-001
      -2.57027060e-001 3.98161188e-002 7.39528388e-002 3.44247907e-001
      -1.54916972e-001 6.79778531e-002 3.46714824e-001 1.61973655e-001
      1.47929981e-001 9.61389020e-002 6.01803076e-005 2.79655121e-002
      1.03775095e-002 -4.68409508e-002 -1.90386921e-001 -9.20349136e-002
      -2.13181958e-001 -2.93047130e-002 -9.03086439e-002
      -1.06356248e-001 -1.73816115e-001 2.32200567e-002 -1.50246710e-001
      -2.95903295e-001 -6.64201230e-002 1.76573455e-001 3.12752537e-002
      3.51742022e-002 -1.23239130e-001 -5.59471548e-002 3.42466503e-001
      1.98307991e-001 -2.10349575e-001 -9.44479182e-003 1.25240773e-001
      6.36884719e-002 -2.44094640e-001 2.37511039e-001 3.74369621e-001
      7.02914670e-002 -3.14302556e-002 2.23977655e-001 4.33816135e-001
      2.08221197e-001 8.65142271e-002 -6.85328022e-002 -8.48368779e-002
      2.24257648e-001 -1.70593392e-002 6.81096762e-002 4.28090766e-002
      -9.93287936e-002 -1.14386551e-001 -6.78079352e-002
      -5.12276171e-003 1.65076435e-001 2.18872204e-002 -3.75451371e-002
      -6.63267300e-002 6.56016171e-002 6.27600774e-002 -8.68186913e-003
      1.53468279e-002 2.34558761e-001 5.68947829e-002 1.46866217e-001
      -2.57412624e-003 2.91301943e-002 -1.71764031e-001 -1.55287638e-001
      -1.56835206e-002 1.26459841e-002 -3.04039326e-002 -4.19387668e-002
      -8.59282464e-002 5.18068895e-002 -9.64426100e-002 -1.50591442e-002
      -1.57588229e-001 -5.85944299e-003 -5.48943356e-002 5.91809340e-002
      6.64216280e-002 9.81462896e-002 -5.41708656e-002 5.08121736e-002
      1.76688045e-001 5.38387783e-002 1.73384361e-002 -5.21160848e-002
      2.50524934e-003 5.34863025e-002 -1.18963595e-003 -7.31636137e-002
      -1.62968472e-001 -1.37565527e-002 1.39393220e-002 -6.09100126e-002
      2.65407143e-003 1.77929029e-002 8.30389336e-002 -1.35358438e-001
      -3.97606902e-002 -1.83212370e-001 -4.74050641e-002 8.94756243e-003
      -8.62823576e-002 -1.75367773e-001 -6.15582615e-002 5.47867045e-002
      1.50867969e-001 1.42449513e-001 -7.53249377e-002 -9.48885083e-002
      -9.10596475e-002 -3.80313769e-002 -1.38519660e-001
      -4.34584357e-002 -3.34366038e-002 -7.47912079e-002 1.47902653e-001
      -7.02098664e-003 -1.81082502e-001 -1.37781173e-001 7.99244195e-002
      1.05402686e-001 3.82612832e-002 2.32658982e-002 3.15925688e-001
      -9.34520066e-002 -6.44825026e-002 2.21886322e-001 1.37938768e-001
      6.14494570e-002 1.45891815e-001 -1.59836158e-001 -7.21409395e-002
      3.23219709e-002 1.14178285e-001 -2.55332559e-001 1.15627736e-001
      3.20148617e-001 8.36544335e-002 8.21981207e-002 8.00167546e-002
      -7.79732689e-002 -6.01077266e-002 4.51194048e-002 -1.08512184e-002
      -1.75361279e-002 2.22735450e-001 -5.73606566e-002 1.01401955e-002
      -1.59552898e-002 -1.82205155e-001 1.36440858e-001 -1.50835797e-001
      2.24571213e-001 1.05510719e-001 9.10726488e-002 2.99342394e-001
      2.68706471e-001 5.30426800e-002 2.24196091e-001 1.45173639e-001
      1.04086384e-001 7.82560632e-002 1.97397023e-001 8.19105804e-002
      1.51591584e-001 -1.21637061e-002 -1.42688319e-001 -2.67265644e-002
      3.32212411e-002 -7.37151057e-002 -8.58440027e-002 5.77467792e-002
      4.14706737e-001 1.76464051e-001 4.61078323e-002 -3.07615045e-002
      -8.32176954e-002 -6.77608550e-002 2.47614115e-001 3.38024318e-001
      3.13281029e-001 1.44088611e-001 4.25263971e-001 -6.78076074e-002
      -1.27310440e-001 1.89775780e-001 -2.88613290e-002 -3.20684351e-002
      9.99139845e-002 2.73735732e-001 2.21515507e-001 1.25100657e-001
      1.39975384e-001 1.12091586e-001 1.87684834e-001 2.38635138e-001
      1.67387016e-002 9.72786173e-002 -3.68951038e-002 -4.84091267e-002
      8.91741887e-002 7.74429962e-002 4.56957854e-002 4.68366817e-002
      -2.44471822e-002 8.67910683e-002 -1.08219780e-001 1.10419266e-001
      -1.37034491e-001 6.63513318e-002 -2.56521832e-002 5.33452518e-002
      1.15126213e-002 1.87319770e-001 -1.82514086e-001 7.25341886e-002
      1.31115377e-001 2.36165267e-003 -1.22606698e-002 -1.14146672e-001
      -8.29668194e-002 1.08132353e-002 -7.24106431e-002 -3.82270589e-002
      -7.71520659e-002 -7.72759244e-002 -1.16181700e-002
      -6.55928850e-002 -6.83352575e-002 -1.21625505e-001
      -3.92633155e-002 7.98593089e-002 -1.05815344e-002 -5.64535186e-002
      7.78087825e-002 1.46476878e-002 -3.09179304e-003 -9.48478281e-002
      -8.78374353e-002 -1.17924139e-002 1.35713398e-001 9.99316201e-002
      -5.25344722e-002 -7.67235085e-002 -1.20417863e-001 1.15765510e-002
      -1.18969798e-001 -6.19010329e-002 -7.64105991e-002
      -7.26297498e-002 2.88402885e-002 -1.32101281e-002 -1.65212125e-001
      -2.96694636e-001 4.12739590e-002 8.87159724e-003 -4.20306176e-002
      -5.56696542e-002 4.58428711e-002 -2.85698697e-002 -1.68549806e-001
      -1.48115516e-001 -1.26513978e-002 9.08445194e-002 1.52634336e-002
      1.29063502e-001 4.00526337e-002 -1.81607142e-001 -1.39920890e-001
      -1.26082227e-001 8.63988176e-002 1.67862341e-001 -8.53947848e-002
      -6.77467044e-003 9.17805918e-003 -1.76876783e-002 -2.64087647e-001
      1.89988106e-003 2.42914204e-002 -1.78180367e-001 7.53635690e-002
      -4.02384698e-002 9.40282121e-002 2.26386730e-002 -1.30723715e-001
      1.60070956e-001 -8.42415839e-002 -5.37366010e-002 -1.12415925e-001
      3.61480080e-002 7.26486892e-002 3.91612709e-001 -4.52229899e-004
      -3.81730832e-002 -1.92364380e-002 1.34509489e-001 2.20418293e-002
      -8.19696188e-002 7.11138919e-002 3.03586215e-001 9.83955935e-002
      1.38240486e-001 -1.27963409e-001 1.50856832e-002 -2.48118993e-002
      -5.82910590e-002 1.36897317e-004 2.41230205e-001 -8.48030373e-002
      -3.16841179e-003 1.55599425e-002 -4.74289954e-002 6.85301274e-002
      -1.98808704e-002 1.48334622e-001 1.28777176e-001 1.15793541e-001
      4.62694943e-001 2.65605524e-002 -1.34637237e-001 2.09004208e-001
      -4.67842668e-002 -1.12194799e-001 1.85424417e-001 1.72309160e-001
      2.99527850e-002 1.87411293e-001 1.38697132e-001 -2.09548548e-001
      3.35364878e-001 -1.35125622e-001 1.61236659e-001 1.20552722e-002
      1.98677272e-001 1.89967118e-002 2.01050341e-001 -2.07320958e-001
      -1.48476824e-001 -6.38435036e-002 8.24813265e-003 9.82336029e-002
      -1.51984543e-002 1.11062139e-001 -1.87785439e-002 1.14797853e-001
      4.89755981e-002 1.10947207e-001 5.64917661e-002 9.77034494e-002
      -1.89053342e-001 6.77672774e-002 5.68273058e-003 -2.77885851e-002
      1.02253035e-001 -3.95529671e-003 -8.54084939e-002 3.57179232e-002
      -3.11606396e-002 -1.71646059e-001 3.32709365e-002 -1.86866716e-001
      -1.46797672e-001 -2.64412433e-001 -2.09643751e-001
      -2.64622241e-001 -1.29633620e-001 2.97677647e-002 2.65448412e-004
      1.35195088e-002 1.05146118e-001 -1.03161693e-001 -3.86067718e-001
      -5.69150634e-002 -1.25484034e-001 -5.11911809e-002
      -1.02279529e-001 2.72816438e-002 -2.54283398e-002 -2.22058240e-002
      -1.37609430e-003 3.52141187e-002 5.73532917e-002 5.20507693e-002
      2.01469492e-002 9.10588056e-002 2.08490733e-002 5.78354998e-003
      -1.57498032e-001 -2.02977344e-001 1.38351480e-002 1.59423205e-003
      -2.50191558e-002 -3.54993762e-003 -1.07414369e-002
      -3.18942010e-001 -2.21572801e-001 -2.86291629e-001 2.05490254e-002
      5.39240278e-002 -7.79685378e-002 1.08423401e-002 5.25869383e-003
      -3.04334462e-001 -1.11197801e-002 -4.06326987e-002
      -5.71695603e-002 -3.21267508e-002 -7.70165920e-002 9.71741416e-003
      -1.07485272e-001 -3.00244801e-002 2.58958507e-002 1.44994661e-001
      3.10434341e-001 2.30656601e-002 -3.11542246e-002 3.52969244e-002
      2.05023438e-001 -4.22842167e-002 3.55244316e-002 7.85752013e-003
      -1.27620742e-001 -2.05934569e-001 -6.86393827e-002
      -4.16999571e-002 7.78940320e-002 2.52407193e-001 -1.75121665e-001
      -1.19297311e-001 8.66160393e-002 -7.84658417e-002 6.07852526e-002
      9.58556980e-002 8.46431702e-002 7.79103115e-002 -8.29542652e-002
      1.50809512e-001 -5.67624085e-002 -7.67036155e-003 1.58503443e-001
      -2.51838379e-002 5.84627427e-002 1.70249328e-001 4.70136888e-002
      4.28365432e-002 -1.11593716e-001 -1.44486934e-001 1.94226757e-001
      7.49984309e-002 1.64674029e-001 3.52199882e-001 3.04540191e-002
      -2.45402530e-002 7.32809529e-002 8.32200423e-002 5.11103682e-002
      9.98961180e-002 -1.03589026e-002 2.08476663e-001 1.11964889e-001
      9.79939401e-002 3.03024650e-001 8.55552778e-002 -2.32598856e-001
      1.19863406e-001 -8.68765563e-002 2.09989130e-001 7.63150305e-003
      3.53053957e-001 1.06795669e-001 -1.49408519e-001 -7.25702867e-002
      -3.07681710e-001 -3.24170798e-001 -1.74060524e-001 2.13790148e-001
      -5.28700389e-002 2.66364902e-001 6.59462139e-002 1.95975751e-001
      1.36137664e-001 1.99244507e-002 -4.60064746e-002 1.38159558e-001
      -4.61034803e-003 5.09608723e-002 3.19043756e-003 1.76259167e-002
      1.70175582e-001 8.88321623e-002 3.78385745e-002 8.72697532e-002
      3.80768552e-002 -1.38232768e-001 9.86592993e-002 -5.05012348e-002
      -7.54288286e-002 -3.06052417e-001 -8.18335712e-002
      -5.24543896e-002 -1.15697734e-001 -8.38973448e-002
      -1.01255700e-001 -1.20939143e-001 -1.30419925e-001
      -2.00824380e-001 -2.89393097e-001 -1.08950734e-001
      -1.18981585e-001 -9.88214910e-002 -2.35586092e-001 6.94517568e-002
      -1.14475330e-002 1.07362129e-001 6.35150373e-002 1.01184346e-001
      -2.32890155e-002 4.75284792e-002 7.77023509e-002 -8.49618688e-002
      2.07283422e-001 4.32778820e-002 -4.14016470e-002 -2.00901497e-002
      4.53593507e-002 2.44780518e-002 4.34239544e-002 8.38965401e-002
      1.37154683e-001 -2.41068140e-001 -1.52243987e-001 -2.50451207e-001
      9.57405716e-002 5.69107197e-002 -2.14244798e-002 1.30115682e-002
      -4.83350605e-002 -2.26796776e-001 7.60954842e-002 -1.07718594e-001
      -8.08401108e-002 -5.34257330e-002 -1.26525655e-001 8.05844590e-002
      -1.99329659e-001 -6.76609650e-002 1.06212251e-001 3.97030227e-002
      -2.42087208e-002 8.78395699e-003 8.85648355e-002 -2.73857806e-002
      -1.34637818e-001 -8.38780925e-002 -1.76736593e-001
      -2.32222825e-001 4.31212001e-002 -6.24131262e-002 -1.63974583e-001
      -5.31691611e-002 7.60233849e-002 -6.95204809e-002 -2.33702824e-001
      -1.85444087e-001 1.51520699e-001 -1.68617710e-001 2.42986664e-001
      2.12771326e-001 3.60007659e-002 5.01185134e-002 -1.91465840e-001
      2.52915561e-001 3.64369079e-002 -4.03751843e-002 -2.03944787e-001
      6.83569834e-002 -3.16252857e-002 1.26521453e-001 -1.61647066e-001
      2.90392250e-001 -3.60592119e-002 -2.00202897e-001 2.63170123e-001
      7.98441917e-002 1.34502947e-002 8.65748450e-002 2.76277587e-002
      -1.97086170e-001 -2.58430034e-001 -8.02017152e-002 9.28990692e-002
      -2.47201726e-001 -9.56873521e-002 -9.04172473e-003 4.35489375e-004
      7.43502006e-002 -1.02140501e-001 -8.13874081e-002 -1.98063448e-001
      -1.58191860e-001 1.04590543e-002 1.30736664e-001 -4.09343746e-003
      1.75312534e-001 -1.22492656e-001 -1.31509930e-001 1.13957204e-001
      -2.00589463e-001 -1.41901910e-001 1.06373236e-001 3.59900713e-001
      -6.86962679e-002 1.77379861e-001 -3.51354182e-002 -2.10800454e-001
      1.98388711e-001 -5.80915948e-003 2.10220680e-001 -1.15517959e-001
      8.30338821e-002 -1.29168155e-002 -9.29896533e-003 2.52353642e-002
      -4.18467164e-001 -1.53171346e-001 -1.00420617e-001 1.84931114e-001
      -9.65788886e-002 5.16379848e-002 7.24661574e-002 -6.00991864e-003
      -6.05416251e-003 -2.00742975e-001 2.35332269e-002 -4.56863567e-002
      -8.36163294e-003 -3.29913795e-002 -3.46036106e-002
      -6.54574111e-002 -1.46380723e-001 -1.21416427e-001
      -1.58958122e-001 -2.80292220e-002 1.99570954e-002 7.57968649e-002
      -1.73682302e-001 8.44585057e-003 -5.91969723e-003 1.59899503e-001
      6.77454323e-002 -1.61498412e-002 -1.30511612e-001 4.03230488e-002
      2.73190830e-002 -5.56789637e-002 1.02430046e-001 1.46835987e-002
      6.86410591e-002 -3.39507982e-002 -1.55851967e-003 9.35963262e-003
      5.85706271e-002 -4.98959348e-002 3.74681838e-002 1.47155672e-001
      -8.51403102e-002 -1.22278087e-001 7.43091181e-002 9.57678035e-002
      1.89333539e-002 -1.67620853e-002 -6.92598298e-002 1.30859409e-002
      -9.39039439e-002 -1.78351924e-001 -1.57824457e-001
      -1.25562251e-001 -6.80007711e-002 8.79411772e-002 -2.23248050e-001
      -7.49383271e-002 5.21529689e-002 3.88760902e-002 5.76178282e-002
      -9.57054365e-003 9.93277729e-002 4.36649621e-002 -1.57736912e-001
      -6.10112809e-002 -3.07268918e-001 -4.28016037e-001 6.49880543e-002
      -3.18438672e-002 5.38142305e-003 -8.21344107e-002 7.56869316e-002
      1.05570257e-002 -9.95836481e-002 -5.26647232e-002 -1.55257553e-001
      -1.51260063e-001 -5.87128662e-002 -1.47857703e-002 2.22603604e-002
      -8.80246162e-002 -2.03419011e-002 2.42761165e-001 1.81553811e-002
      -8.57750922e-002 -5.24582386e-001 -1.48461848e-001
      -1.54722422e-001 9.12335664e-002 -1.19026147e-001 1.07571766e-001
      -1.59335151e-001 -1.68715283e-001 -2.15383377e-002
      -1.15980774e-001 -2.22368520e-002 2.74614920e-003 6.41644970e-002
      6.18934780e-002 -5.06173410e-002 3.30367088e-001 1.96315631e-001
      -3.01005602e-001 1.81205466e-001 -2.09431946e-002 7.75716454e-002
      7.14013353e-002 3.61425802e-002 8.58628005e-003 -1.46716267e-001
      -1.51502833e-001 -1.47444993e-001 -8.02619010e-002
      -1.32434160e-001 7.35730007e-002 -3.98544557e-002 -3.43146771e-002
      7.34123681e-003 1.55992396e-002 8.76381770e-002 1.79258183e-001
      4.01911169e-001 8.17462876e-002 1.17345579e-001 -8.10035132e-003
      -2.59331256e-001 2.84475628e-002 -1.41103894e-001 2.09986642e-001
      1.44104287e-001 7.98897934e-004 1.30971879e-001 -3.18907201e-003
      2.97417700e-001 1.08300902e-001 -3.56675200e-002 -9.12300795e-002
      -2.23358292e-002 2.84679025e-001 8.42770189e-002 1.43200994e-001
      -4.67177071e-002 2.29429349e-001 2.27041632e-001 1.58501744e-001
      3.60193737e-002 1.56445011e-001 -2.70602200e-002 2.48752274e-002
      2.35010274e-002 8.75248667e-003 4.73447219e-002 1.41927006e-003
      -1.61749143e-002 4.99438904e-002 1.60149246e-001 -6.29345253e-002
      6.28588796e-002 1.01609938e-002 1.56838283e-001 2.84043839e-003
      6.72051962e-003 -1.28278553e-001 1.71711724e-002 -1.49486631e-001
      -2.11993624e-002 2.11540267e-001 -6.83496743e-002 1.28253311e-001
      8.73032399e-003 -9.51867700e-002 -8.94316882e-002 -7.08839819e-002
      -4.43502337e-001 1.39290288e-001 8.90380517e-002 1.74862012e-001
      2.34373853e-001 7.21378392e-003 -6.42583072e-002 -2.61730663e-002
      -3.86836864e-002 -1.29752547e-001 -5.78247346e-002 2.11601973e-001
      -2.86619291e-002 -1.05745299e-002 -4.86206859e-002
      -2.67618080e-003 1.13776661e-001 -8.97648111e-002 -2.80281361e-002
      2.53318042e-001 2.60220885e-001 6.35267571e-002 -3.90794575e-002
      1.12664676e-003 8.16824734e-002 -8.98176730e-002 -5.07766083e-002
      -2.95848817e-001 -2.75835335e-001 -2.15677009e-003
      -1.94687799e-001 -6.47130832e-002 -2.59795249e-001
      -7.56969824e-002 -5.66231497e-002 -2.04502895e-001
      -1.64477736e-001 -4.27508987e-002 1.72743112e-001 3.39497924e-002
      1.53066602e-003 -3.12591642e-002 -3.19464714e-003 4.19177786e-002
      6.86824881e-003 2.12188587e-002 7.23236650e-002 -7.79008791e-002
      -3.88259321e-001 -8.30479488e-002 2.19697297e-001 7.64499009e-002
      2.96429619e-002 -2.01385185e-001 1.91672146e-002 1.10487044e-001
      1.10299855e-001 1.90619025e-002 -9.13110450e-002 -1.82013530e-002
      -4.25928347e-002 -3.29903960e-002 3.55731070e-001 1.08228512e-001
      -2.16996744e-001 -1.02953725e-001 7.38239661e-002 2.52471209e-001
      1.44449636e-001 -8.08371790e-003 6.76529780e-002 -3.44610177e-002
      2.40603536e-002 1.00818776e-001 -9.95865790e-004 -1.52298227e-001
      -1.60749838e-001 1.60175592e-001 1.42783463e-001 3.42163630e-002
      1.70760214e-001 -5.42382970e-002 -1.88251555e-001 3.39302272e-002
      -1.25557691e-001 5.66071570e-002 5.43592349e-002 -1.63208723e-001
      -5.59835695e-002 -2.04408914e-001 -1.12815993e-002
      -1.24015950e-001 -1.03452116e-001 3.92822661e-002 2.51244605e-002
      2.46369630e-001 1.86588392e-001 4.13800441e-002 1.96725890e-001
      -4.17615399e-002 1.79934859e-001 -1.80624604e-001 -1.94338292e-001
      1.51022509e-001 4.99616452e-002 1.26017248e-002 1.83581322e-001
      -1.93667307e-001 5.45815453e-002 -1.34956747e-001 -1.05278246e-001
      1.10553913e-001 7.25120446e-003 1.91808701e-001 -2.15535499e-002
      -6.63591847e-002 -5.72396666e-002 1.49500631e-002 -5.49748652e-002
      -2.30785552e-003 -8.35088827e-003 7.68169686e-002 9.38773155e-003
      4.27520229e-003 5.91051094e-002 2.35385522e-002 -9.60413590e-002
      -1.31774113e-001 1.03817396e-001 7.90210664e-002 2.46601969e-001
      -3.36016081e-002 -1.90781862e-001 -1.08097196e-001
      -7.68024474e-002 -3.53633225e-001 1.91248879e-001 1.84871033e-001
      2.11983562e-001 1.95870548e-001 -6.56107441e-002 1.47970358e-003
      -5.29279448e-002 -3.21864933e-002 -1.62365809e-001 9.70901772e-002
      -2.37946641e-002 1.54638693e-001 7.76464045e-002 9.41498205e-002
      1.90923624e-002 -3.04089417e-003 -1.58033580e-001 -1.17238656e-001
      9.13285092e-002 4.35109198e-001 8.28665867e-002 5.96786179e-002
      7.10562691e-002 2.50665247e-001 7.67426193e-002 3.52581814e-002
      -1.02335863e-001 -5.95519766e-002 4.11850028e-002 -1.27258360e-001
      2.41129231e-002 -1.08197741e-001 2.87738349e-002 1.39211286e-002
      -1.17139183e-001 -7.23409504e-002 3.27807516e-002 6.00168966e-002
      2.87152510e-002 4.38176580e-002 -4.21428755e-002 -2.62738429e-002
      1.44876112e-005 -6.27328306e-002 1.10900197e-002 3.32067579e-001
      6.79301098e-003 -1.32977188e-001 -3.42381112e-002 1.16975559e-002
      -2.04992428e-001 -1.42216578e-001 -1.01631604e-001 6.36753440e-002
      2.43019555e-002 3.89208794e-001 -5.49741536e-002 -1.68458655e-001
      -4.38844832e-003 1.20642297e-001 6.75142780e-002 1.59494475e-001
      1.39985025e-001 -3.31157236e-003 -6.09679036e-002 2.68935207e-002
      2.00502932e-001 8.55574459e-002 2.64149834e-003 -3.26286666e-002
      1.03274010e-001 1.08300015e-001 -6.21534437e-002 -2.26520360e-001
      -2.05076411e-001 2.05463246e-002 2.55879849e-001 8.49352255e-002
      -1.38800308e-001 2.24721283e-001 3.25726671e-003 -2.17003524e-001
      5.69775328e-002 -1.85985148e-001 1.15464963e-001 -9.86252949e-002
      -6.58664927e-002 -9.31218937e-002 -1.32535726e-001
      -1.81458235e-001 -1.25846460e-001 1.63375195e-002 -8.57727751e-002
      -9.38612074e-002 -4.58655991e-002 -1.23028651e-001
      -3.46635133e-002 1.77387863e-001 1.49318144e-001 1.49895981e-001
      -3.50242317e-001 -3.36663604e-001 1.05679087e-001 1.81310140e-002
      -1.45945847e-001 1.49763927e-001 -1.14145182e-001 6.91927895e-002
      -2.91260242e-001 2.05665261e-001 -1.85956415e-002 -9.02943239e-002
      1.98521122e-001 5.17526455e-002 1.26386687e-001 1.97800606e-001
      2.09795445e-001 -9.09841061e-002 1.97332650e-001 -1.78659465e-002
      -1.07345857e-001 -4.97276522e-002 2.36972600e-001 1.13429703e-001
      9.36598703e-003 4.10886966e-002 -6.61452487e-002 7.52162933e-002
      1.07563160e-001 1.76108912e-001 -1.38221099e-003 -7.38887191e-002
      -7.17457309e-002 1.24667641e-002 -1.47326037e-001 -2.95992903e-002
      2.17720807e-001 8.59110430e-002 4.01644260e-002 -1.32735940e-002
      1.54801598e-002 6.69391081e-002 8.40449482e-002 8.90591691e-005
      9.47258770e-002 5.24864644e-002 9.93625596e-002 -9.22821611e-002
      9.41080216e-004 -1.54069737e-001 -6.97910711e-002 -2.73750685e-002
      -1.19773820e-001 2.31336221e-001 -1.94951415e-001 1.25712484e-001
      2.88137533e-002 -3.34316455e-002 1.71228554e-002 -4.31393720e-002
      1.19032320e-002 -7.51309395e-002 -8.50927383e-002 1.88479573e-001
      4.27776724e-002 7.43563473e-002 3.05022150e-002 1.16474018e-001
      5.76947555e-002 -4.73280959e-002 -1.76666398e-002 1.53180391e-001
      8.92755240e-002 6.41989289e-003 3.94791588e-002 1.73763465e-002
      1.61378801e-001 4.76600192e-002 -3.93714570e-002 1.89063195e-002
      3.79136175e-001 -6.85100257e-002 -1.20927066e-001 -2.75497953e-003
      6.73409458e-003 -1.70956194e-001 -2.07824513e-001 -1.14894949e-001
      1.40927419e-001 -6.83846185e-004 3.65645438e-002 1.42996917e-002
      2.65796911e-002 -4.74757105e-002 -5.05310372e-002 1.93891320e-002
      6.44495338e-002 6.73305839e-002 5.54858111e-002 4.59441077e-003
      -5.79194501e-002 -9.29635658e-004 1.72538050e-002 5.96742320e-004
      -1.24426983e-001 -1.66506603e-001 -1.93003695e-002
      -6.84882281e-003 5.90723380e-002 -2.38174587e-001 -9.81483683e-002
      1.56515121e-001 1.85516015e-001 -1.23832695e-001 1.34503320e-001
      -3.97156440e-002 3.49809008e-004 -1.31495064e-002 -2.06432804e-001
      2.10337471e-002 2.12536409e-001 -1.43679708e-001 5.90692610e-002
      2.47957587e-001 -7.29707032e-002 1.11632727e-001 -7.52714723e-002
      -1.48233294e-001 2.03915290e-003 -1.32188844e-002 4.59439568e-002
      1.72753990e-001 1.01729676e-001 -7.53837898e-002 -2.62957849e-002
      -3.27542648e-002 3.53900343e-003 -2.41944138e-002 8.43423605e-002
      -6.06446713e-003 6.81541413e-002 -4.12221663e-002 1.93037838e-001
      -3.22278515e-002 1.63759261e-001 -2.59865094e-002 -1.97828069e-001
      2.03331858e-001 2.58230299e-001 1.87809810e-001 1.24853283e-001
      8.03461522e-002 -3.27897109e-002 4.24006321e-002 -2.43667379e-001
      -3.34475189e-001 -5.33363898e-004 3.19142908e-001 1.23548312e-002
      1.48707882e-001 -3.23180743e-002 1.16469994e-001 -8.85434896e-002
      -2.10859343e-001 8.85727555e-002 9.16116387e-002 -9.24471915e-002
      -8.89857188e-002 9.00392905e-002 1.63393587e-001 -7.89886490e-002
      -1.73872579e-002 1.43287447e-003 -3.88689456e-003 5.03396131e-002
      4.89821881e-002 9.38290879e-002 9.39910263e-002 8.79352242e-002
      6.20956570e-002 7.17862546e-002 9.24554467e-002 -7.20353052e-002
      -7.62422336e-003 -1.50777236e-001 -7.68944621e-002
      -2.50475332e-002 -1.03002638e-001 1.45254359e-001 -3.04016583e-002
      7.29429908e-003 8.38215575e-002 6.55656382e-002 4.33795638e-002
      -1.21552609e-001 -4.00554053e-002 -1.03215769e-001
      -6.70147464e-002 6.96798339e-002 8.94900560e-002 1.65866941e-001
      2.18445361e-002 1.14389881e-001 -5.53022809e-002 3.60520929e-002
      4.38171625e-002 1.65117666e-001 2.15173751e-001 -1.99094880e-002
      8.17491934e-002 5.35901673e-002 1.72640994e-001 7.06969202e-002
      -2.33161878e-002 5.62867671e-002 2.53626853e-001 3.59890833e-002
      -1.68645456e-001 -1.04634883e-002 3.61431018e-002 -6.61631748e-002
      -6.31601065e-002 -1.47506194e-002 1.99112236e-001 3.84342037e-002
      2.14254528e-001 1.82134826e-002 4.56369668e-002 -7.91623816e-002
      -6.50472045e-002 1.18234061e-001 9.99803469e-002 6.89068511e-002
      2.22816333e-001 8.55456889e-002 1.12780988e-001 -8.66314173e-002
      -5.44035283e-004 -1.15344338e-001 1.13170713e-001 6.29172400e-002
      -3.95618938e-002 9.17570889e-002 1.94936886e-001 -1.35872081e-001
      -8.04778486e-002 -1.85012266e-001 2.54948791e-002 -1.03999875e-001
      6.57124519e-002 -2.33501699e-002 -2.04051230e-002 -1.14102177e-001
      2.57381033e-002 1.04012504e-001 1.06575169e-001 -1.36890039e-001
      2.14821115e-001 4.23303664e-001 1.43070444e-001 9.45754647e-002
      -1.99087486e-001 2.48481780e-001 8.75741020e-002 6.68339431e-002
      -3.75564657e-002 2.02508897e-001 2.49894530e-001 -2.12713517e-002
      4.93843071e-002 -6.50115088e-002 -1.97632790e-001 1.20271504e-001
      3.10271159e-002 -5.06439880e-002 2.58818436e-002 1.01573899e-001
      8.64799693e-002 -1.47011340e-001 -2.21336223e-002 -7.37618282e-002
      -1.00250468e-001 2.74708662e-002 1.54420689e-001 -1.05084695e-001
      4.95572425e-002 8.05608481e-002 1.39343977e-001 -1.04373597e-001
      -7.21941292e-002 -2.11053584e-002 -1.62764061e-002 1.77199289e-001
      2.65818648e-002 1.81831792e-001 -7.65568614e-002 7.96891525e-002
      1.89449966e-001 -1.33556709e-001 2.21891835e-001 1.33618325e-001
      2.55053639e-001 -1.39218330e-001 -3.44772153e-002 -1.34695604e-001
      8.47898424e-002 2.38415003e-001 -7.40814954e-002 -8.64411294e-002
      -8.58349949e-002 -1.10091060e-001 2.25117818e-001 1.25879154e-001
      -5.54667450e-002 -2.13401511e-001 -8.38100165e-002 6.84067011e-002
      -1.92006957e-002 1.13674114e-003 -1.11558080e-001 -6.05133064e-002
      4.67940755e-002 2.53177341e-002 1.38373420e-001 9.24101695e-002
      2.07044452e-001 1.47165477e-001 4.07432020e-002 8.59115273e-002
      -9.49919894e-002 2.28931140e-002 -1.18201844e-001 8.84529129e-002
      -1.15958892e-001 -4.18130867e-002 2.99391955e-001 2.43272316e-002
      9.56168473e-002 1.56090939e-002 1.03489138e-001 1.23279177e-001
      1.28870293e-001 -3.76208872e-002 3.77020054e-002 4.89108488e-002
      4.14033644e-002 -8.60419311e-003 2.54529845e-002 7.19732940e-002
      2.11813614e-001 3.27088721e-002 -2.69835610e-002 -1.33303270e-001
      -3.76264267e-002 4.12078463e-002 3.59299369e-002 -1.97810913e-003
      2.79226992e-002 1.02930695e-001 2.91462298e-002 6.16004807e-004
      1.64447743e-002 4.78752935e-003 -7.01366737e-002 -6.30168021e-002
      1.52535543e-001 6.66018948e-002 5.12324050e-002 9.28340405e-002
      3.52642685e-002 2.30826885e-001 -2.69501269e-001 -2.41619810e-001
      -3.30850840e-001 8.01151469e-002 -3.92058566e-002 -2.11145997e-001
      1.14972733e-001 3.35886002e-001 9.87439007e-002 -2.77160984e-002
      -3.91169228e-002 2.33439967e-001 -2.02989057e-002 7.83039480e-002
      -1.74576584e-002 1.40251085e-001 -1.43140107e-001 -1.67671442e-001
      1.21337913e-001 1.42387763e-001 3.01925272e-001 1.82510152e-001
      9.72820371e-002 -8.01897720e-002 -3.39108938e-003 -2.06108123e-001
      1.22740909e-001 -3.56646329e-002 7.07496330e-002 -1.85168207e-001
      5.74514791e-002 6.12009056e-002 -1.03266291e-001 -3.47907282e-002
      -4.97079164e-001 -3.27157557e-001 -3.13193984e-002
      -8.12541917e-002 1.09916538e-001 7.34649673e-002 2.21689399e-002
      -2.13556394e-001 -2.87359744e-001 -9.63776782e-002
      -7.76904821e-002 7.42576867e-002 -2.44165942e-001 -4.60752957e-002
      -3.90314758e-001 -2.48601705e-001 -1.67185798e-001 3.19543630e-001
      1.76590860e-001 9.41995382e-002 1.75607309e-001 1.03999458e-001
      9.83484462e-002 3.85691151e-002 1.01332143e-001 -2.41091345e-002
      -9.68057849e-003 1.75761133e-001 -2.05918059e-001 -1.65157467e-002
      -1.33017465e-001 8.07410553e-002 -1.57501251e-001 -4.68622819e-002
      -1.14551134e-001 -2.38725916e-002 -1.34362355e-001
      -1.63030595e-001 -1.42394468e-001 2.46103704e-002 1.68947175e-001
      2.49617293e-001 1.20034762e-001 6.64352253e-002 -9.49085876e-002
      3.22991461e-002 -3.76926214e-001 -2.42028162e-001 -2.74610758e-001
      -1.94431916e-002 -3.34935397e-001 -3.88189286e-001
      -2.70602312e-002 3.25889021e-001 6.19330853e-002 1.30591407e-001
      4.63771559e-002 -2.87314244e-002 -7.45112300e-002 -1.13984495e-002
      4.39412631e-002 4.64473255e-002 7.56038353e-002 -1.63679212e-001
      1.64843968e-003 2.18744367e-001 -6.93034232e-002 -1.05053224e-001
      1.58783756e-002 1.26699194e-001 1.08953066e-001 1.81471959e-001
      -2.93230623e-001 -4.08952534e-002 1.08239651e-002 1.28729701e-001
      -5.99592552e-002 3.86576285e-004 -3.44371460e-002 1.68381795e-001
      4.11801934e-002 1.69422671e-001 -1.05531648e-001 -3.74147929e-002
      9.86428857e-002 3.59008044e-001 2.94107199e-002 -1.57163382e-001
      -1.33125693e-001 2.86331922e-001 -2.08218284e-002 -2.78869987e-001
      -1.92510739e-001 -2.38176972e-001 -2.40081586e-002 3.45395692e-002
      2.67378166e-002 1.87033013e-001 1.30021170e-001 -1.98881224e-001
      -8.36148188e-002 -2.16387194e-002 -6.94509689e-003 1.43227741e-001
      -1.07605256e-001 -2.02041671e-001 -6.16188869e-002
      -3.27117205e-001 2.81378889e-004 -5.69823198e-002 -3.63121510e-001
      -8.00257027e-002 1.18307536e-002 -5.11023728e-003 4.87129390e-002
      -1.60734251e-001 2.77879462e-002 -3.01434752e-002 -1.65034860e-001
      -6.06906451e-002 6.45291060e-002 2.44214423e-002 4.53224219e-002
      1.40995160e-002 5.10525443e-002 6.67433217e-002 -1.92624360e-001
      -2.98927963e-001 -5.31093419e-001 -7.74481177e-001
      -5.18429160e-001 2.83962153e-002 8.92167762e-002 4.80451494e-001
      -8.38257149e-002 -5.31584263e-001 -3.66559535e-001
      -3.22365254e-001 -2.64982164e-001 9.52516571e-002 -1.01511411e-001
      -1.96470380e-001 5.62743517e-003 -4.74864215e-001 -5.43538183e-002
      -2.70018607e-001 -2.67445713e-001 -3.22630644e-001
      -1.91933736e-001 -3.76246870e-001 -2.56095082e-001
      -1.56457901e-001 1.16818294e-001 -4.04795557e-002 -1.07709095e-001
      -7.86473528e-002 -2.48211026e-001 -3.81817818e-002
      -2.43488774e-001 -1.43423155e-001 -1.41992256e-001
      -1.67178929e-001 3.59870970e-001 2.56972283e-001 -4.54965271e-002
      -2.82600820e-001 -3.40453625e-001 -5.39011419e-001
      -5.52937329e-001 -8.59639943e-002 -8.03553611e-002
      -4.85340744e-001 -1.52576387e-001 5.95824905e-002 -1.92087248e-001
      -2.28624403e-001 -4.66206744e-002 -2.10469544e-001
      -1.92364767e-001 -3.46453249e-001 -1.92834735e-001
      -2.96477139e-001 -2.31920391e-001 -2.37890422e-001
      -5.03238142e-002 -7.25554451e-002 -4.03808653e-002
      -2.28780225e-001 2.14488134e-001 -2.37561390e-001 -1.55113026e-001
      -2.86690801e-001 -1.74502984e-001 -1.55507162e-001
      -9.40523073e-002 -1.56633347e-001 -3.60447198e-001
      -1.83858231e-001 -1.52713582e-002 1.74283817e-001 1.57512605e-001
      4.70516793e-002 2.71327458e-002 -1.50407642e-001 -2.13851482e-001
      -2.22403049e-001 -2.37150695e-002 -1.30379006e-001
      -1.25102147e-001 8.91619995e-002 1.17769055e-001 3.63708943e-001
      -6.99646100e-002 -6.17741272e-002 9.97859836e-002 1.82573184e-001
      -2.89724376e-002 2.58736219e-002 7.31404424e-002 3.83810839e-004
      1.76353604e-001 -1.17922097e-001 -9.68247578e-002 -1.61790475e-002
      -1.92428857e-001 7.42541850e-002 1.23698600e-001 -3.73545922e-002
      -1.06533384e-002 -1.12708416e-002 5.65428287e-002 4.26112264e-002
      -9.32467729e-002 -2.68168431e-002 -2.17296043e-003
      -7.74593353e-002 -1.02949463e-001 -7.76448399e-002
      -2.80741528e-002 -9.92074460e-002 -1.63146228e-001
      -1.31000832e-001 -7.11380839e-002 -1.65880471e-002
      -8.60282257e-002 -5.47994137e-001 -8.53534639e-002
      -2.80460995e-002 -3.89796421e-002 -4.96218875e-002
      -1.62377447e-001 -1.62632223e-002 -2.16078132e-001
      -2.44885698e-001 -1.73297375e-002 1.34580880e-001 7.85739906e-003
      1.19742818e-001 -2.69261785e-002 9.87595171e-002 1.98584586e-001
      2.15430766e-001 3.53779793e-002 2.89972015e-002 2.27131862e-002
      -6.11934960e-002 7.69011974e-002 5.03817908e-002 8.11496302e-002
      6.29411340e-002 6.56688139e-002 8.03126469e-002 1.29642887e-002
      -1.03430599e-001 2.93887425e-002 -2.15393126e-001 -1.94849983e-001
      -1.70423128e-002 -1.26403004e-001 -5.49544953e-003
      -2.69273788e-001 -2.08761379e-001 -2.78478205e-001
      -2.38894552e-001 -3.35995406e-001 -3.34606439e-001
      -5.01841754e-002 9.40393806e-002 1.25645772e-001 -2.23580729e-002
      -3.20664704e-001 -2.22073272e-002 1.33478627e-001 -5.50770313e-002
      -1.94950521e-001 1.39017299e-001 3.01933050e-001 1.10211119e-001
      -7.63769746e-002 -1.34666497e-003 6.49669692e-002 -1.09817170e-001
      5.78070134e-002 -4.31190878e-002 4.14917804e-003 7.46797398e-002
      -2.09999114e-001 -2.80417174e-001 -2.41698418e-002
      -7.58232549e-002 -2.70042032e-001 -3.24328959e-001
      -2.13740274e-001 -1.56500623e-001 -2.71520853e-001 3.07703763e-002
      -2.46727914e-001 -1.50009513e-001 -1.39252916e-001
      -7.92234391e-002 -1.50764510e-001 -1.30563423e-001
      -2.72761285e-001 1.77174866e-001 4.33780432e-001 1.36559188e-001
      -5.25883026e-002 7.63119906e-002 -8.74170754e-003 1.84690401e-001
      2.12119166e-002 1.52302235e-001 4.88764234e-002 -3.40313255e-003
      -1.41457483e-001 -1.26683652e-001 -1.68551296e-001 1.62178893e-002
      -7.08790347e-002 7.90875703e-002 8.04141909e-002 3.62789296e-002
      -1.20487615e-001 -1.23977467e-001 -2.50124168e-002
      -1.83850303e-002 3.94672304e-002 -9.13996622e-002 1.10893343e-002
      -9.62601602e-003 3.64231728e-002 6.90320879e-003 -8.43397155e-003
      4.31624576e-002 -1.04908710e-002 1.12992033e-001 -1.49538994e-001
      -2.96701789e-001 -1.97902262e-001 -2.23728180e-001 8.66808668e-002
      1.42652839e-001 -2.01285735e-001 8.50316212e-002 -1.27985114e-002
      1.05643161e-001 -6.40585870e-002 -3.52206320e-001 -6.84704492e-003
      7.23807886e-002 -6.03256794e-003 7.27570103e-003 1.05540939e-001
      1.04741335e-001 4.76705059e-002 -2.42812019e-002 1.65999811e-002
      1.21457256e-001 1.43396199e-001 -7.00123459e-002 -1.52716234e-001
      1.13987684e-001 1.18031442e-001 3.70138176e-002 -1.77892502e-002
      -1.01514585e-001 8.44069384e-003 -1.41275734e-001 -2.53322423e-001
      6.87209815e-002 8.93454775e-002 -6.56727403e-002 4.82329801e-002
      -1.60366386e-001 -1.85180977e-002 1.55676022e-001 1.47517860e-001
      -2.41357796e-002 3.99272470e-003 1.48577526e-001 -1.22621179e-001
      6.76571056e-002 8.66102576e-002 1.14283353e-001 -5.85275479e-002
      1.63032606e-001 -1.03807531e-001 -1.64965495e-001 -4.76754317e-003
      -3.95282097e-002 5.85654303e-002 1.52531834e-002 8.56559798e-002
      8.57594535e-002 9.76055637e-002 -1.33853421e-001 -1.71592906e-001
      -2.35808566e-002 1.02287419e-001 -5.82307354e-002 -8.45607072e-002
      -1.93171591e-001 2.99186651e-002 1.74863651e-001 9.76783335e-002
      -3.98092419e-001 -1.12323724e-001 1.85018286e-001 -1.16604887e-001
      -3.78396899e-001 1.26167253e-001 3.28820020e-001 -1.09738573e-001
      -1.14400923e-001 1.11960247e-001 1.91563204e-001 1.52896628e-001
      1.06949538e-001 -1.98038280e-001 -1.14011027e-001 3.01627144e-002
      -4.15683575e-002 -7.04106688e-003 3.24227959e-002 -8.99994969e-002
      -1.41325742e-001 -8.90505612e-002 -1.99991520e-002 2.14289397e-001
      2.61052996e-001 -9.61920246e-002 -2.60473579e-001 -5.16530015e-002
      1.06368318e-001 -2.41300697e-003 -8.47676471e-002 -1.35366227e-002
      -5.51655702e-002 8.91991705e-002 2.27543309e-001 8.50149710e-003
      -7.23419860e-002 -1.16004497e-001 1.66448668e-001 1.79016277e-001
      -1.32827178e-001 1.65112257e-001 -1.78593561e-001 1.34544104e-001
      -8.87522474e-003 1.19320296e-001 7.35618100e-002 1.85651347e-001
      6.12202212e-002 2.14363664e-001 3.10728908e-001 1.89435668e-002
      -7.42983213e-003 -8.36529955e-002 6.57668039e-002 -7.37552205e-003
      -8.38415101e-002 -1.08397700e-001 3.35896015e-002 2.41804987e-001
      9.72309187e-002 -1.14978261e-001 -7.57772475e-002 1.20027587e-002
      9.00419652e-002 2.43871391e-001 -1.45296967e-002 -1.81816787e-001
      -2.35961005e-001 -1.61877528e-001 -1.43211037e-001
      -7.96427354e-002 -2.77871728e-001 1.32995071e-002 -5.82889915e-002
      -2.78667212e-002 -1.96303755e-001 -4.18861538e-001
      -1.15107313e-001 2.05471516e-001 -1.72026202e-001 1.07805893e-001
      1.07154265e-001 2.69136447e-002 -2.40978785e-002 -1.47090390e-001
      -1.37641907e-001 1.93579346e-001 -7.50329942e-002 -8.45042244e-002
      -1.16663594e-002 1.11807086e-001 -2.15039346e-002 -7.12777078e-002
      -1.10981561e-001 1.07273526e-001 5.07559739e-002 1.74907669e-001
      9.78014618e-002 1.38222575e-001 9.04917121e-002 1.12862820e-002
      2.14527249e-002 -1.29901096e-001 -5.23184873e-002 1.36005864e-001
      4.72441874e-002 -9.84688476e-002 4.06445637e-002 2.73407906e-001
      3.61687364e-003 1.25039509e-002 -3.42956185e-002 -3.48032303e-002
      -2.08194852e-001 7.08124861e-002 2.43792608e-002 -2.43467718e-001
      3.01528890e-002 6.83466420e-002 8.51804391e-002 1.10363521e-001
      3.46797816e-002 1.90210976e-002 -2.97399200e-002 3.91677320e-002
      -9.62020829e-003 -4.80649620e-002 1.10547438e-001 1.42719582e-001
      2.03652442e-001 2.11325526e-001 1.73856512e-001 1.01513639e-001
      8.00249130e-002 3.27952690e-002 -1.32746041e-001 8.83311499e-003
      -1.06917150e-001 -1.88643187e-001 -5.23895919e-002 4.03711982e-002
      -1.74519479e-001 8.44919775e-003 2.31176555e-001 2.89310396e-001
      2.44317353e-001 -6.01997897e-002 -2.43977994e-001 -1.12461552e-001
      -1.65107027e-001 2.28279114e-001 2.19376981e-001 3.03757370e-001
      3.71703990e-002 4.69556093e-001 -1.47120297e-001 -1.45776495e-001
      1.13334119e-001 -8.65106285e-002 -4.02859040e-002 1.02027636e-002
      1.87974170e-001 1.42178938e-001 8.12203735e-002 9.82295126e-002
      1.43154278e-001 2.66007304e-001 3.83811682e-001 4.35783416e-002
      -5.97619452e-002 -1.71738520e-001 -1.37139261e-001 1.16101913e-001
      -6.00340329e-002 -9.77349933e-003 -2.20285589e-003 9.00141001e-002
      9.96335968e-002 2.27749422e-002 7.23948926e-002 8.07749256e-002
      1.38956755e-001 -7.97211379e-002 1.19308613e-001 2.12654009e-001
      1.74633652e-001 -1.25714630e-001 3.02701369e-002 2.19660588e-002
      -1.32382855e-001 -1.49290422e-002 -1.06241733e-001
      -3.00340969e-002 7.10509941e-002 -3.80245224e-002 4.45738947e-003
      -2.55335063e-001 -1.88590884e-001 -1.23180084e-001 6.39532432e-002
      8.92187208e-002 -5.93192354e-002 4.58475151e-005 2.53304690e-001
      -1.22089051e-001 -5.98473102e-002 -9.37307924e-002
      -1.09287826e-002 6.12293407e-002 -1.96721628e-002 7.20897242e-002
      -3.61858569e-002 1.17686093e-001 1.42001331e-001 -8.96534026e-002
      1.15708776e-001 6.74606487e-002 2.15428304e-002 -7.59142712e-002
      -1.80390954e-001 -1.28998369e-001 1.35526121e-001 2.57859752e-003
      -8.73121545e-002 4.41048443e-002 2.44491205e-001 -3.87293585e-002
      -1.19194180e-001 -1.13910586e-001 2.36495733e-001 7.49725150e-003
      1.61300525e-001 1.63652766e-002 8.58417451e-002 -2.32118964e-002
      -2.06332043e-001 -8.48860852e-003 -1.55182004e-001
      -8.91204998e-002 1.16463341e-001 5.86914346e-002 -5.77944592e-002
      -7.09026530e-002 1.04900628e-001 6.12592213e-002 2.35877652e-002
      -6.82550995e-003 -1.11678103e-002 -3.49489674e-002 5.44825010e-002
      6.16392456e-002 -2.60454625e-001 2.70969514e-002 2.43248325e-002
      1.09916240e-001 -1.02953268e-002 -2.98892707e-002 -1.80487502e-002
      -1.31546482e-001 -9.46943387e-002 -1.50682613e-001
      -1.06451876e-001 1.04778051e-001 4.82828356e-002 3.12109683e-002
      1.76354930e-001 2.02210814e-001 1.30462721e-001 2.80727278e-002
      -8.32978543e-003 1.70161910e-002 2.58535743e-001 7.91888237e-002
      2.31452435e-001 3.59718278e-002 1.63492113e-001 -1.50099561e-001
      -6.86157197e-002 -3.40888016e-002 1.30589798e-001 -2.17357948e-002
      -8.62463564e-002 -1.57545403e-001 -2.08492890e-001 6.36806786e-002
      -6.41235709e-002 8.64947885e-002 1.24365702e-001 -2.45601721e-002
      4.14222687e-001 -3.02398559e-002 -1.73825234e-001 1.09399818e-001
      -7.73855671e-002 8.96396413e-002 2.17902914e-001 1.84768453e-001
      -1.53328463e-001 1.14049837e-001 6.65316880e-002 -1.71872303e-001
      1.74029633e-001 8.78958628e-002 2.18361184e-001 -5.03872223e-002
      -1.18590873e-002 4.94782664e-002 3.21875513e-001 2.86957864e-002
      -7.61048868e-002 -8.08271288e-004 1.19908817e-001 1.12899713e-001
      -8.23994949e-002 8.18129107e-002 -1.44270927e-001 1.09246247e-001
      -2.18403805e-002 3.96593586e-002 1.11480713e-001 1.73390493e-001
      -2.07906708e-001 -1.37725517e-001 -1.01705156e-001
      -2.67202482e-002 1.79085448e-001 -5.04775234e-002 -8.39743391e-002
      -5.10021001e-002 -9.05962512e-002 -7.27432072e-002
      -1.73630953e-001 -6.49996474e-002 -2.02285722e-001 2.39995316e-001
      2.18349040e-001 -7.95705840e-002 9.09179449e-002 3.66981685e-001
      -1.52417896e-002 2.78504808e-002 -4.21649441e-002 3.96012813e-002
      -1.96737088e-002 3.76347415e-002 -2.83546140e-003 3.55260894e-002
      -1.46527335e-001 8.76434669e-002 5.85487531e-003 6.35756254e-002
      5.07961027e-002 8.39009658e-002 2.64193173e-002 1.34528344e-002
      1.13625616e-001 7.38832653e-002 1.43461436e-001 -4.17583697e-002
      1.36000171e-001 2.63550550e-001 6.77454248e-002 -2.54574716e-002
      -1.22788236e-001 1.86366722e-001 8.52323174e-002 3.06554407e-001
      6.09435849e-002 1.64850622e-001 -1.05390437e-001 -2.34401673e-001
      -1.30974175e-002 -1.26025707e-001 8.63680467e-002 2.09169209e-001
      1.74690131e-002 -8.47208053e-002 1.04449250e-001 1.59355253e-001
      4.73520868e-002 -4.38574404e-002 6.92357868e-003 -3.66361886e-002
      -9.02108178e-002 1.51743770e-001 1.55532271e-001 4.58716340e-002
      -3.61295938e-002 -2.23994977e-003 9.85917449e-002 -1.93617120e-002
      3.63589972e-002 2.46752352e-002 -1.76061168e-001 -1.33038938e-001
      -2.13654369e-001 -8.87463391e-002 1.08289875e-001 -8.54073390e-002
      -9.67086479e-002 -1.91815998e-002 2.00996801e-001 5.77134341e-002
      2.63346545e-002 -4.14173640e-002 -6.62156716e-002 1.89401299e-001
      -6.33033887e-002 1.41589239e-001 -2.08085135e-001 1.57134891e-001
      9.74640325e-002 6.37576217e-003 5.72982840e-002 1.09995399e-002
      -8.76974761e-002 1.11124054e-001 4.46120128e-002 -6.51519001e-003
      1.19915135e-001 -4.36414592e-002 1.48389086e-001 2.60889888e-001
      -6.84179738e-002 -2.04920266e-002 -4.77148704e-002
      -7.10707949e-003 8.89695734e-002 2.19397217e-001 6.83356216e-003
      2.08281904e-001 1.00639157e-001 -1.39535844e-001 1.00774303e-001
      -7.88737088e-002 -2.31686994e-001 1.63196810e-002 9.72956866e-002
      1.70554131e-001 -2.89411724e-001 1.47754152e-003 6.73150420e-002
      2.37514861e-002 1.43637165e-001 -1.85412005e-001 -3.11422981e-002
      4.25620330e-003 1.95841983e-001 2.35432629e-002 2.36064315e-001
      5.66638932e-002 1.96505576e-001 2.30144724e-001 2.40812190e-002
      -4.09348719e-002 1.16777986e-001 1.74683500e-002 -5.16611226e-002
      -4.18847054e-002 1.01098746e-001 2.34558702e-001 1.06060125e-001
      -1.19829081e-001 3.55591215e-002 1.45875901e-001 -9.31392238e-002
      1.13024227e-002 1.21647485e-001 -8.64285678e-002 -1.36868626e-001
      3.58178467e-002 -5.08565865e-002 6.06522076e-002 3.15585732e-001
      3.23529691e-001 1.29100010e-001 -9.67629030e-002 -1.66089877e-001
      -1.01342611e-001 6.00374043e-002 1.98967859e-001 9.39611048e-002
      1.69444859e-001 6.04510196e-002 -2.97331600e-003 1.09082066e-001
      1.89157892e-002 4.96550724e-002 -2.65019629e-002 7.89218172e-002
      3.05365831e-001 2.27659405e-003 1.96852148e-001 3.50441262e-002
      1.64178744e-001 2.01967955e-001 1.29819036e-001 -5.15527539e-002
      -1.45855129e-001 9.12236422e-002 1.88956931e-001 4.30646062e-001
      9.60054025e-002 2.92829752e-001 -3.70955886e-003 -1.62905321e-001
      8.89011770e-002 6.45788983e-002 1.31094396e-001 2.12458566e-001
      2.45548412e-001 -7.18171000e-002 -1.53941792e-002 1.17368810e-001
      -2.06125099e-002 -2.01940849e-001 -1.54873244e-002 1.80774461e-002
      -1.18586719e-001 3.36092450e-002 9.55935381e-003 -5.99590316e-002
      -2.51412749e-001 -7.76559114e-002 -5.46451565e-003
      -2.88369395e-002 1.20562250e-002 -8.68643541e-003 6.41328022e-002
      -3.72865461e-002 -5.40824980e-002 -2.43219342e-002 7.77557194e-002
      -7.67529011e-002 -7.32025579e-002 -9.14869085e-002 9.60498527e-002
      -8.01207051e-002 1.99906044e-002 7.89709538e-002 -1.03457114e-002
      3.97238135e-002 -6.35443926e-002 9.53418389e-002 -1.64220989e-001
      7.80313313e-002 2.20773984e-002 -8.85778591e-002 -6.02553524e-002
      4.39269617e-002 -1.93429161e-002 1.68639868e-001 -1.26419961e-001
      -1.14880569e-001 1.25167131e-001 1.06973320e-001 7.78806806e-002
      3.19844261e-002 -3.10542975e-002 -3.90128046e-002 -1.24260105e-001
      2.01239213e-002 1.40443593e-001 -1.16764985e-001 2.11571287e-002
      -2.34898459e-002 -9.43117775e-003 3.94372754e-002 -2.08215177e-001
      -9.42769647e-002 -2.11237669e-001 -1.61171928e-001 1.12071216e-001
      1.20973825e-001 -2.09148601e-001 -1.19238095e-002 -1.30705982e-001
      -7.26222992e-002 8.22981074e-002 -1.53501362e-001 -7.11541548e-002
      -2.13680370e-003 2.25940436e-001 -1.89810380e-001 2.41667047e-001
      1.68775305e-001 -7.45655894e-002 2.82929778e-001 9.74213183e-002
      1.45306274e-001 -4.01584012e-003 6.88539445e-002 -1.14465646e-001
      -6.08121566e-002 -4.14248332e-002 -1.55840665e-001
      -1.64425261e-002 -3.89664546e-002 1.40986159e-001 1.51546290e-002
      -3.87787446e-002 2.59767305e-002 8.97111595e-002 -7.58979842e-002
      -2.61907160e-001 6.80306628e-002 5.53884804e-002 -7.07120523e-002
      -8.35616589e-002 1.84075639e-001 1.19851932e-001 -1.15199879e-001
      -2.42191836e-001 -1.44336060e-001 1.08922951e-001 7.90034905e-002
      8.82405043e-002 4.81318869e-002 2.89616287e-001 -6.48597479e-002
      -9.49543864e-002 -6.20117830e-003 6.40948862e-003 2.87391208e-002
      -6.37382455e-003 1.67295545e-001 4.24177796e-002 1.82762399e-001
      -8.54190141e-002 -1.60052683e-002 -5.00481576e-002 1.74187899e-001
      -1.74783692e-002 1.10925227e-001 -8.88193324e-002 1.97799876e-001
      2.40589172e-001 3.67436893e-002 1.45790011e-001 1.80500504e-002
      -1.64722085e-001 4.52394187e-002 4.50301133e-002 -1.43451784e-002
      2.31886998e-001 1.59561649e-001 -5.45733934e-003 -8.22831988e-002
      7.85861611e-002 4.75925133e-002 -1.87691599e-001 -1.57383829e-001
      -9.99376848e-002 -1.77479506e-001 1.45262688e-001 7.06748441e-002
      6.30574021e-003 -2.19623223e-001 -9.31626409e-002 1.65181644e-002
      -1.71494097e-001 -4.05166000e-002 1.61120594e-001 1.20355599e-001
      6.80844262e-002 -1.30072340e-001 -5.46650700e-002 9.09192711e-002
      -3.05887628e-002 -6.49256334e-002 -7.72429770e-003 2.56232858e-001
      -1.91835836e-002 1.09783579e-002 7.32994601e-002 5.59001639e-002
      7.93275610e-002 2.68709511e-002 5.61965443e-002 -1.46883493e-002
      4.66789789e-002 -2.73246802e-002 -1.84729800e-001 -9.78394821e-002
      1.07318357e-001 1.56887695e-001 1.72244847e-001 -1.72949731e-001
      -4.88864370e-002 1.05754897e-001 1.02190964e-001 -1.07606472e-002
      -1.52804658e-001 -9.11693498e-002 3.47526707e-002 -1.59270957e-001
      1.90441334e-003 8.97687376e-002 -7.26511851e-002 2.75386631e-001
      -3.35002015e-003 -2.47341804e-002 2.89217960e-002 6.70483932e-002
      2.85949279e-003 -9.78543386e-002 -7.41880611e-002 3.65715697e-002
      9.57138762e-002 -1.16767310e-001 6.73853457e-002 -5.10201082e-002
      -2.90950537e-002 2.39142706e-003 3.62935998e-002 6.39693737e-002
      1.46731973e-001 4.86162156e-001 2.01612934e-002 1.27790213e-001
      -3.08153890e-002 -2.71611452e-001 4.32062661e-003 -6.42246455e-002
      1.33379847e-001 1.98524594e-001 3.81285790e-003 -1.07953407e-001
      -4.89504337e-002 1.28960848e-001 1.76492542e-001 -5.60592636e-002
      5.98115027e-002 8.47525150e-002 3.11994165e-001 5.63764907e-002
      1.64967030e-001 -1.18581071e-001 1.11138992e-001 9.27920416e-002
      1.90550815e-002 1.11899711e-002 5.18303663e-002 -9.29998532e-002
      1.58245027e-001 1.74954738e-002 -1.17413223e-001 1.80279873e-002
      -1.33591413e-001 7.13603795e-002 9.93045941e-002 2.27833197e-001
      -1.67229667e-001 2.09847271e-001 -6.15010411e-002 -1.05318397e-001
      -2.35265478e-001 7.36508444e-002 -1.23604788e-002 -6.66889027e-002
      -2.11771745e-002 -2.61966116e-003 5.74787743e-002 -2.41133377e-001
      1.13811091e-001 -2.82206722e-002 2.29231373e-004 1.36978537e-001
      -1.80460904e-002 -1.97434753e-001 2.06138082e-002 1.24730319e-001
      1.73372123e-002 3.57648730e-001 -1.13171890e-001 2.31777262e-002
      1.80103560e-003 3.80260274e-002 -2.18909875e-001 -9.99370404e-003
      1.33696988e-001 1.49825467e-002 -4.67164954e-003 3.76687087e-002
      1.18911237e-001 1.45879444e-002 -7.36940876e-002 -1.02088846e-001
      -9.99084190e-002 2.23989055e-001 1.31198063e-001 3.27662081e-002
      -1.64389268e-001 -3.24837342e-002 8.15286860e-002 -1.45671785e-001
      -9.73400548e-002 1.24112740e-001 -1.83534771e-002 -1.14789009e-001
      -1.01644613e-001 -5.75832427e-002 1.50653258e-001 -7.28191063e-003
      -1.79508448e-001 -1.11766934e-001 -6.26396164e-002
      -1.77533869e-002 -8.85355398e-002 2.68506501e-002 -8.88031647e-002
      -5.22265360e-002 8.89197439e-002 1.18019782e-001 1.30539998e-001
      4.96172309e-002 7.83128664e-002 -1.34798780e-001 8.84191878e-003
      1.03509322e-001 1.54376447e-001 1.43791482e-001 -5.27378432e-002
      5.41398004e-002 1.30079731e-001 1.61398530e-001 -5.97460754e-002
      -2.31937036e-001 -7.09717423e-002 7.65239373e-002 -4.72513437e-002
      3.36749330e-002 6.92684129e-002 -2.74129547e-002 8.76243711e-002
      -1.11816198e-001 -9.58398357e-002 -9.23079997e-003
      -8.03053081e-002 -9.97969061e-002 -2.78104693e-001
      -1.66956097e-001 -1.19106412e-001 1.78327680e-001 -4.60063480e-002
      -1.27438679e-001 2.27431878e-002 2.00502828e-001 7.26451278e-002
      9.43661705e-002 2.34961938e-002 1.50026366e-001 1.07168183e-001
      -6.26556575e-002 5.18856049e-002 -3.02002113e-002 -1.44108742e-001
      -1.58805009e-002 -1.18844442e-001 -8.63234848e-002
      -2.00836733e-002 9.60080549e-002 -1.85794070e-001 -5.77209368e-002
      8.76202062e-002 1.89680815e-001 -7.03871343e-003 1.00930713e-001
      4.57548462e-002 2.95109808e-001 -3.00103631e-002 -2.05156937e-001
      7.49462843e-002 -1.67001504e-002 -1.14212260e-001 -2.94633396e-002
      -1.25478759e-001 5.24021126e-002 1.06325939e-001 -1.18470266e-001
      1.89297646e-002 -5.95511608e-002 1.48796454e-001 -6.97262958e-002
      9.67082626e-004 -1.50534734e-001 -1.20822072e-001 5.58451302e-002
      4.79084663e-002 3.62635776e-002 1.17399292e-002 -1.88154846e-001
      -5.91985397e-002 2.75948942e-002 -3.98420878e-002 -1.37434393e-001
      -4.72855201e-004 8.67463127e-002 -4.35530394e-002 3.14287484e-001
      2.59813126e-002 1.54902018e-003 -2.42405627e-002 8.12067091e-002
      -1.91759333e-001 2.19755426e-001 -8.50246102e-002 2.19941020e-001
      3.12147290e-001 2.04234809e-001 3.25444281e-001 2.59881705e-001
      1.57349408e-001 4.43035364e-002 2.61173379e-002 -6.43846467e-002
      1.10781059e-001 -7.60624632e-002 8.89474601e-002 -2.61467241e-004
      2.12045051e-002 -1.74498916e-001 -3.40211876e-002 3.23890805e-001
      1.69837207e-001 5.71408793e-002 4.67497855e-002 -1.40356086e-002
      5.28393611e-002 1.07896894e-001 -9.48453471e-002 -1.24637000e-001
      1.44744918e-001 -6.21774280e-003 -1.75624695e-002 3.47575694e-002
      -8.14847574e-002 1.41153455e-001 8.30925070e-003 -1.89459071e-001
      -1.37076855e-001 -1.11109160e-001 -1.16006341e-002
      -2.02547640e-001 4.74067085e-004 -4.78124842e-002 -2.43455973e-002
      2.88154650e-002 1.67896152e-001 1.59565836e-001 -2.44669914e-002
      1.33780569e-001 1.52489603e-001 4.74133063e-003 2.51550023e-002
      6.69387802e-002 1.93239331e-001 2.34118327e-002 1.43193096e-001
      1.94810718e-001 1.58505887e-001 -3.72388922e-002 -1.03791066e-001
      -2.17144620e-002 1.20400287e-001 9.77889076e-003 4.26794104e-002
      4.25399058e-002 1.27305418e-001 8.27178434e-002 -1.12894937e-001
      -8.08995366e-002 -7.21933832e-003 -1.38239413e-001
      -1.36830404e-001 -2.91828752e-001 -6.73291832e-002 9.24910381e-002
      2.15271398e-001 -7.60833025e-002 -9.25021395e-002 -6.73831720e-003
      1.92897469e-001 -6.44740984e-002 9.93917808e-002 -3.81843559e-002
      9.92639884e-002 2.46397823e-001 -2.59552114e-002 4.99550924e-002
      -8.35646763e-002 -9.22640786e-002 -1.06504746e-001
      -8.52545127e-002 -9.27265659e-002 1.03072181e-001 7.24616647e-002
      -5.27117774e-002 -2.39603259e-002 -5.99870868e-002
      -1.78794220e-001 -8.32362399e-002 5.54815233e-002 1.88465156e-002
      1.98722333e-001 -8.38901177e-002 -1.77962661e-001 -1.66413561e-002
      -1.21250257e-001 -2.12330222e-001 -1.14574127e-001
      -8.65961909e-002 3.49904150e-002 -5.43005615e-002 6.03262596e-002
      -1.99096762e-002 -5.20861149e-002 1.70802414e-001 -1.17553376e-001
      1.12569153e-001 1.29229426e-001 1.05246462e-001 -6.40819371e-002
      6.01912737e-002 2.32965909e-002 -1.88231513e-001 -1.16909482e-001
      1.27647772e-001 -1.04661267e-002 1.56551674e-002 2.22489703e-002
      -4.38605361e-002 1.40780315e-001 1.06754564e-001 3.13376844e-001
      2.33559590e-002 6.44772574e-002 -1.23545766e-001 -2.00802255e-002
      -1.68658018e-001 1.06339090e-001 -1.53348193e-001 3.44776213e-002
      1.65748820e-001 5.54878972e-002 2.87265539e-001 8.37425143e-002
      5.88352159e-002 6.35229945e-002 3.20807725e-001 -2.10881531e-001
      -1.67732611e-001 -1.96024552e-001 -8.86877403e-002
      -5.32062538e-002 5.76723218e-002 1.69875054e-003 -9.42001566e-002
      -2.44672447e-002 -2.88471431e-001 -1.50650665e-001
      -4.01654541e-002 -2.85300966e-002 -8.20359960e-002 3.17589082e-002
      1.47829205e-002 -1.81692064e-001 -1.13021672e-001 3.54293920e-002
      -2.20673047e-002 5.57966717e-002 2.45059934e-003 1.18547812e-001
      2.04948019e-002 5.83479367e-003 3.12402621e-002 3.77992056e-002
      3.96891758e-002 -4.04376313e-002 -7.88624492e-003 -7.19337240e-002
      -6.16676547e-002 -6.51611527e-003 1.32061228e-001 8.86387900e-002
      7.72671700e-002 1.78588420e-001 1.01762436e-001 -2.28296909e-002
      -1.29233435e-001 -1.08970754e-001 2.50127047e-001 3.67846116e-002
      1.03772573e-001 1.13449641e-001 2.63805598e-001 -6.40540123e-002
      -8.16048216e-003 -4.11233753e-002 1.39073646e-002 1.05054282e-001
      3.87506075e-002 4.17949408e-002 4.52386402e-002 1.07019655e-001
      9.06796660e-004 -7.16006709e-003 2.20183246e-002 -1.15696983e-002
      -7.40581155e-002 -1.17270544e-001 -1.04348622e-002 1.14276186e-001
      2.42835835e-001 -5.65854087e-002 4.09161579e-003 -2.80050747e-002
      1.58149675e-001 -8.58680308e-002 6.45563006e-002 -6.45679459e-002
      1.03246510e-001 2.52226293e-001 -1.20348886e-001 8.87840688e-002
      -1.10961087e-001 2.29471400e-002 1.65472068e-002 1.74492635e-002
      -1.42442882e-001 2.01662928e-001 1.41349465e-001 -1.15650631e-001
      -1.26379523e-002 4.83236685e-002 1.60500646e-001 1.75884083e-001
      9.16097984e-002 1.24449404e-002 1.10758744e-001 8.58585164e-002
      1.23145521e-001 -2.83706915e-002 5.27626313e-002 -2.51936596e-002
      3.69323455e-002 -8.87622088e-002 6.65564761e-002 7.91901909e-003
      -9.19614807e-002 -8.49335715e-002 -8.63571465e-002 2.60205179e-001
      4.48148772e-002 1.14425151e-002 -1.11540314e-003 -1.47225246e-001
      -2.39369586e-001 -2.83868853e-002 -4.41347100e-002
      -3.22697669e-001 -1.02534018e-001 1.33127540e-001 -1.30856395e-001
      -1.06160641e-002 -1.31830662e-001 -1.55029684e-001
      -1.34668544e-001 -1.58098415e-001 3.36309671e-002 1.07420750e-001
      1.82941165e-002 -7.77103752e-002 8.78571197e-002 1.27646267e-001
      -1.36006162e-001 3.57264392e-002 -7.32611939e-002 3.12961601e-002
      4.53599617e-002 1.85986683e-001 1.13555349e-001 7.02079162e-002
      3.78091410e-002 1.91159267e-002 -3.44770998e-001 -7.20434561e-002
      -2.42313296e-002 -4.30054665e-002 -8.93169194e-002 8.43702033e-002
      -9.05074645e-003 -1.99929848e-001 -6.25655279e-002 9.32993963e-002
      -4.05371249e-001 4.64980491e-002 2.88004987e-002 7.11359233e-002
      -9.59837995e-003 1.48238838e-001 -1.70147166e-001 -7.09705055e-002
      -1.32171229e-001 -2.64114171e-001 4.38571386e-002 6.00062869e-002
      1.89977676e-001 7.04208314e-002 -2.53418814e-002 -5.64631522e-002
      5.35509549e-002 9.63562727e-002 8.88388604e-002 3.19164768e-002
      -1.03622805e-002 -4.25094515e-002 1.71322916e-002 7.19547197e-002
      1.60647079e-001 7.98876137e-002 2.82580018e-001 8.84227678e-002
      6.48996234e-002 -1.19849771e-001 8.76310747e-003 2.48403966e-001
      1.13741919e-001 1.92625597e-001 1.59430951e-001 2.16637015e-001
      -2.39723772e-001 3.97047102e-002 1.04225338e-001 2.01360971e-001
      9.71536934e-002 -8.25421363e-002 -4.25368622e-002 -2.21604779e-001
      1.92644328e-001 -9.75886267e-003 4.47312230e-003 1.21522166e-001
      1.53202772e-001 2.15511043e-002 -1.45609081e-001 3.82330492e-002
      2.61671752e-001 2.22943172e-001 3.81066129e-002 6.49501104e-003
      -9.89883542e-002 3.46014164e-002 -3.74113880e-002 3.32997888e-002
      -2.27828063e-002 8.79932120e-002 2.59635150e-001 -1.00215875e-001
      2.05317885e-001 7.02006370e-002 1.54324442e-001 1.85236633e-001
      1.29499957e-001 -5.88067733e-002 2.75075942e-001 3.56191471e-002
      -2.08910048e-001 -1.83979515e-002 5.92588931e-002 1.14441581e-001
      2.35466197e-001 1.10269729e-002 -8.65486488e-002 -9.47317705e-002
      1.77463040e-001 -1.69390902e-001 -1.49873570e-002 -3.35495919e-002
      7.49777779e-002 1.49450116e-002 6.77541196e-002 8.06616396e-002
      2.50145160e-002 -1.01703955e-002 4.61580344e-002 1.47643732e-003
      1.03415035e-001 1.83086157e-001 -1.27828851e-001 -6.95999861e-002
      3.01221595e-003 1.86981753e-001 -4.32919757e-003 8.36573243e-002
      9.04877577e-003 4.80974279e-002 1.52262732e-001 -3.46633494e-002
      1.74411342e-001 -9.28759575e-002 -1.55886725e-001 1.26159415e-001
      -1.01502001e-001 2.81829715e-001 2.17233807e-001 2.00734705e-001
      -2.27470338e-001 -5.90547398e-002 3.71918678e-002 -5.94097450e-002
      1.81683630e-001 -3.26639079e-002 -1.24650501e-001 -7.05814362e-002
      -4.63940874e-002 2.30311289e-001 7.93852136e-002 -5.22591248e-002
      -1.64025232e-001 -2.72184275e-002 2.02798564e-002 -1.24909496e-002
      -5.39776459e-002 -3.85285653e-002 -5.19841090e-002
      -1.44749470e-002 -3.66197899e-002 1.77221820e-001 1.37002751e-001
      -1.29034325e-001 1.79953635e-001 9.66764763e-002 1.30617037e-001
      -1.12949379e-001 1.42414197e-001 -1.93302497e-001 -6.99814707e-002
      1.97004387e-003 8.25945884e-002 4.65202779e-001 3.12132061e-001
      1.32083848e-001 1.57800287e-001 3.71480376e-001 -2.81677898e-002
      1.17154166e-001 -2.12254658e-001 -3.91499745e-003 7.25864843e-002
      8.17325562e-002 2.37542093e-002 4.76068072e-002 1.65558860e-001
