<?xml version="1.0"?>
<opencv_storage>
<my_svm type_id="opencv-ml-svm">
  <svm_type>C_SVC</svm_type>
  <kernel><type>LINEAR</type></kernel>
  <C>2.</C>
  <term_criteria><epsilon>9.9999997764825821e-003</epsilon>
    <iterations>2147483647</iterations></term_criteria>
  <var_all>3780</var_all>
  <var_count>3780</var_count>
  <class_count>2</class_count>
  <class_labels type_id="opencv-matrix">
    <rows>1</rows>
    <cols>2</cols>
    <dt>i</dt>
    <data>
      -1 1</data></class_labels>
  <sv_total>1</sv_total>
  <support_vectors>
    <_>
      -1.84089512e-001 2.25288913e-001 5.53947240e-002 -4.03817654e-001
      -3.23521435e-001 9.86079127e-002 4.91521299e-001 2.40956113e-001
      -4.27736044e-001 -1.77164167e-001 1.56615719e-001 2.90853173e-001
      -2.03571513e-001 -1.25909403e-001 -1.22900553e-001 2.78912514e-001
      1.04204729e-001 -2.70808518e-001 -2.58778572e-001 -2.03094855e-001
      -1.30570248e-001 -3.74158174e-001 -2.41441235e-001
      -1.08309031e-001 1.29570916e-001 2.22381756e-001 -9.65486839e-002
      -3.40244651e-001 -8.37539416e-003 -1.27250589e-002
      -3.32406461e-002 -5.24703227e-002 -3.53945553e-001
      -2.31243856e-002 -4.48848354e-003 -9.67205018e-002
      -3.56818698e-002 2.90733308e-001 3.17144960e-001 -5.67199625e-002
      -4.71849367e-002 4.85978313e-002 2.66574740e-001 -9.31720287e-002
      -2.32342362e-001 1.48129568e-001 3.27930480e-001 -7.84022361e-003
      -2.50964105e-001 2.86482926e-002 -6.20147437e-002 -3.20819855e-001
      -8.27663839e-002 1.39586240e-001 -3.05165261e-001 1.55050457e-001
      2.85424352e-001 -1.67793199e-001 -4.23423164e-002 -2.22838879e-001
      -9.28546935e-002 -4.63863797e-002 -2.84179181e-001 1.38262495e-001
      1.53929330e-002 -6.96907341e-002 -1.18086472e-001 -4.53625806e-002
      7.88984150e-002 -2.52188474e-001 -2.52743244e-001 -3.30115147e-002
      1.70760587e-001 4.40108869e-003 -4.10104066e-001 -7.41387066e-003
      2.36318707e-002 2.78281118e-003 2.79786382e-002 1.73181072e-001
      2.02734768e-001 -7.44438916e-002 -3.42003107e-001 -2.43258998e-001
      -8.24798271e-003 1.11482479e-001 7.70191625e-002 2.32056677e-001
      3.77783984e-001 3.09613913e-001 1.76274717e-001 -1.63003340e-001
      -5.54117084e-001 -3.73644799e-001 -2.23783404e-001
      -8.66723284e-002 -5.97680844e-002 -6.11598641e-002
      -1.55939132e-001 -2.25626677e-002 -3.06390468e-002
      -1.73414722e-001 -1.13635235e-001 4.09683287e-001 2.78191388e-001
      1.88146636e-001 -1.31983966e-001 1.58250462e-002 -4.93154019e-001
      -2.00833023e-001 4.97311689e-002 8.50152820e-002 3.18377875e-002
      -2.04488233e-001 -1.27472937e-001 -6.85315803e-002
      -1.95009578e-002 -2.28202015e-001 -5.57348877e-002 2.79472247e-002
      3.98918003e-001 9.13793128e-003 -8.12178403e-002 3.44770432e-001
      2.77919918e-001 2.99325705e-001 -5.79056777e-002 7.10985959e-002
      -3.47824544e-002 5.80725968e-002 2.81184882e-001 2.36034676e-001
      2.55800068e-001 -2.21920133e-001 -9.33483988e-002 5.28652906e-001
      1.70237094e-001 -2.50019766e-002 1.99936125e-002 3.42434309e-002
      1.07704639e-001 1.98891833e-001 2.31944650e-001 9.12756994e-002
      -3.10499310e-001 -2.46608511e-001 2.00133752e-002 5.25753833e-002
      2.73399558e-002 -1.08652562e-001 8.26066658e-002 -1.47496879e-001
      -8.37097242e-002 -3.24503154e-001 -2.14508832e-001
      -5.42082414e-002 -1.12889037e-001 6.94389641e-002 -4.04853420e-003
      -7.92587847e-002 -5.86506054e-002 2.56763428e-001 6.80598691e-002
      -2.35305578e-001 2.52437685e-002 -2.95286831e-002 1.21498905e-001
      -2.72961497e-001 -6.97075501e-002 -1.65496897e-002 2.57768095e-001
      -1.60259664e-001 -1.12379208e-001 -2.24809140e-001 8.79101921e-003
      1.82960585e-001 9.61402990e-003 2.49226123e-001 4.85880263e-002
      -7.23221749e-002 3.19745213e-001 -2.66056061e-002 -2.83384293e-001
      -1.92964658e-001 7.87878260e-002 3.60783078e-002 -6.80707991e-002
      8.23960304e-002 1.37840509e-001 -4.25179094e-001 -2.11423203e-001
      -3.84853661e-001 -1.05861023e-001 -4.27768240e-003 2.20330879e-002
      -1.57880872e-001 -2.21874621e-002 -3.77915576e-002 2.51081735e-001
      1.05698248e-002 -1.47199973e-001 6.77389354e-002 -2.03072391e-002
      6.01239130e-002 -3.86365861e-001 1.77301481e-001 2.82942414e-001
      5.46888784e-002 -2.95629889e-001 7.34461471e-002 1.05749227e-001
      -1.56180695e-001 6.84731156e-002 -1.78660706e-001 2.73865879e-001
      9.98612270e-002 -8.52976739e-002 -1.96271867e-001 1.63127273e-001
      3.02201688e-001 -7.02063292e-002 2.06261456e-001 -1.99450120e-001
      -2.36805931e-001 6.02961518e-002 -1.53812096e-001 2.61157751e-002
      1.40281767e-001 -9.76153016e-002 1.50260940e-001 -2.33610105e-002
      -1.66750088e-001 -2.49254331e-001 3.50015387e-002 -1.69930309e-001
      -1.61093429e-001 -1.97636001e-002 -1.69135556e-001
      -2.57142305e-001 1.01209961e-001 2.98581701e-002 2.08772629e-001
      2.88891699e-002 -1.65094391e-001 5.09440191e-002 -1.72813535e-002
      2.79516160e-001 1.67631149e-001 -2.93313235e-001 -1.49955109e-001
      2.15452343e-001 -1.52119637e-001 -5.26616462e-002 -1.30991995e-001
      -6.85446337e-002 -3.95588949e-002 1.92873776e-002 1.78756639e-002
      7.14693964e-002 -2.03640655e-001 1.72576159e-001 -1.20659709e-001
      6.52410742e-003 6.52921274e-002 6.14245720e-002 -1.65399581e-001
      5.56005090e-002 7.76106417e-002 -3.37530710e-002 -1.88735172e-001
      -4.03131485e-001 2.83027235e-002 -1.47747539e-003 3.09888944e-002
      5.44631854e-002 -2.90882111e-001 2.67942041e-001 2.34504919e-002
      -1.60078198e-001 -3.36745620e-001 2.27404013e-001 1.49880692e-001
      6.51231855e-002 -1.51886433e-001 -2.76405752e-001 2.08504364e-001
      1.94307387e-001 -7.96840563e-002 -3.98998037e-002 -2.97502987e-002
      1.29089698e-001 1.06974304e-001 -2.55424201e-001 -2.59053499e-001
      -1.84496626e-001 -1.32696657e-002 5.53127714e-002 1.70839921e-001
      1.90106601e-001 2.94307560e-001 1.98026702e-001 -8.94448608e-002
      -1.00695737e-001 -7.60740414e-002 -1.48190513e-001 3.47443745e-002
      -5.99807739e-001 -3.62432301e-001 -1.61620602e-001
      -2.63168216e-002 6.21135235e-002 -2.88891256e-001 -4.32816260e-002
      1.91601038e-001 -5.48308296e-003 -2.67734565e-002 -2.83411704e-002
      8.88061002e-002 2.20478307e-002 -3.04511245e-002 1.42597035e-001
      -1.24088868e-001 1.35850191e-001 2.85015348e-002 -1.27948731e-001
      1.53025389e-001 3.61352593e-001 -1.00065447e-001 3.07894759e-002
      -1.67740792e-001 1.24817774e-001 -2.84133404e-001 -3.47379804e-001
      -9.56751555e-002 1.57691836e-001 1.37043357e-001 -5.56015894e-002
      -1.58617541e-001 2.54016314e-002 1.09280169e-001 -2.26694830e-002
      -1.52148813e-001 4.28463332e-002 1.49244666e-001 8.68459642e-002
      -9.00639445e-002 -2.64663488e-001 9.41909552e-002 2.91246176e-001
      -1.45699754e-001 -2.07553700e-001 6.04965501e-002 -1.98026508e-001
      9.23040658e-002 -3.06220800e-002 -9.20274481e-002 -6.65877089e-002
      1.89334840e-001 -7.32156038e-002 1.66162476e-001 9.47794039e-003
      1.64533243e-001 3.46761614e-001 -2.80604333e-001 -4.27059740e-001
      7.61684179e-002 7.61553720e-002 1.59094274e-001 -8.06449503e-002
      4.88188937e-002 -4.82036173e-003 7.80096948e-002 -2.04918221e-001
      -7.85461515e-002 -2.91411757e-001 2.47116983e-001 8.34864154e-002
      2.46883463e-002 1.54526874e-001 -3.48406196e-001 2.28221826e-002
      -8.35870486e-003 -3.18806291e-001 -9.51473694e-003 4.12359461e-003
      -7.40247741e-002 1.67488661e-002 7.81223830e-003 -4.36227977e-001
      -9.87807941e-003 -1.18885823e-002 8.97513181e-002 3.66584122e-001
      1.66459307e-001 -7.28629529e-003 1.02425953e-002 1.34421587e-001
      -3.92917722e-001 1.52296722e-001 2.16956392e-001 9.23670381e-002
      -4.11266759e-002 3.49244952e-001 2.46025398e-001 3.97801906e-001
      1.56385377e-001 -2.48120710e-001 2.44010165e-001 -2.02206582e-001
      -1.63938105e-001 -1.44415155e-001 -2.60595754e-002 2.04969153e-001
      4.14507598e-001 -4.14187647e-002 -2.08698884e-001 1.65324584e-001
      9.64036286e-002 3.29575956e-001 1.34903893e-001 1.07625835e-001
      6.40674978e-002 1.74010083e-001 3.64112668e-002 6.78108335e-002
      1.00811101e-001 -1.47245720e-001 5.99084646e-002 8.34100246e-002
      7.47373402e-002 2.60310680e-001 -4.13274802e-002 3.01947724e-002
      -8.85758698e-002 3.65498960e-001 -1.43444445e-002 -1.92382053e-001
      -8.71247891e-003 3.98243926e-002 -2.04457752e-002 1.56294167e-001
      1.39267087e-001 1.16876915e-001 1.16748288e-001 1.16928637e-001
      -2.56446570e-001 -4.99095619e-002 -7.48835364e-003 8.36698636e-002
      1.95113700e-002 4.34008539e-002 -2.10512206e-001 1.23592146e-001
      -1.65504828e-001 -7.37657845e-002 -1.67300761e-001
      -1.70757592e-001 2.71548748e-001 4.55198027e-002 1.26121761e-002
      -3.28671098e-001 -9.64006335e-002 9.19722393e-002 2.41081908e-001
      -3.35956402e-002 5.55080958e-002 1.59261495e-001 -6.77579194e-002
      1.60070315e-001 1.67237148e-001 1.36027157e-001 1.44471182e-002
      1.96270287e-001 3.28442365e-001 7.36177266e-002 1.53136402e-001
      1.38171269e-002 9.85438898e-002 7.78623223e-002 -7.04161730e-003
      -2.12165698e-001 -1.88574970e-001 2.48787507e-001 -1.31177440e-001
      1.13517307e-001 9.49896947e-002 -1.47626167e-002 -9.64517742e-002
      6.30194098e-002 -1.44532338e-001 1.94155127e-001 1.05115280e-001
      3.87484223e-001 3.43429983e-001 2.28629991e-001 1.45371154e-001
      1.68212488e-001 -1.53298795e-001 -1.58102121e-002 -3.10269862e-001
      -2.99706936e-001 8.49921852e-002 -1.82507709e-001 1.56031877e-001
      -1.13100305e-001 2.07189202e-001 -2.46495858e-001 -4.55347151e-002
      -7.23592490e-002 1.30266473e-001 -3.02988989e-003 3.25278461e-001
      1.16849810e-001 2.03606769e-001 4.60233510e-001 1.97749082e-002
      8.72183964e-002 1.97570145e-001 -2.18612894e-001 1.56862080e-001
      1.22072011e-001 -7.98970535e-002 -2.01437194e-002 -5.83242849e-002
      -4.67323244e-001 -1.74437195e-001 -1.03841864e-001
      -2.60423839e-001 2.34672889e-001 2.84616128e-002 -1.58628762e-001
      -1.56421050e-001 -1.89409778e-001 -1.97953045e-001 7.41239265e-002
      6.27177535e-003 -2.21086010e-001 -7.72098154e-002 -2.43781894e-001
      -3.34306955e-001 9.19430777e-002 -2.90848672e-001 -3.93018693e-001
      -4.60077167e-001 -2.47863695e-001 8.31800550e-002 4.31890965e-001
      4.93741184e-001 2.51560152e-001 -2.55759627e-001 -2.74756830e-002
      1.79240510e-001 3.00441742e-001 1.88199997e-001 -1.05974257e-001
      1.34123832e-001 1.25300974e-001 -2.26491898e-001 -7.24001899e-002
      -7.03345910e-002 -4.00713474e-001 -4.77272630e-001
      -4.00764160e-002 6.33096844e-002 2.96642810e-001 3.21081996e-001
      2.70607531e-001 -1.37334898e-001 9.65394378e-002 -5.27420416e-002
      1.01064444e-001 1.21685848e-001 -4.66497727e-002 2.12120324e-001
      -3.06308687e-001 -2.84689099e-001 -5.62078170e-002 7.52126947e-002
      1.64449707e-001 -3.65379639e-002 1.05401464e-001 1.25819206e-001
      -1.33891150e-001 -1.30360663e-001 -3.80910754e-001
      -1.05274841e-001 4.72721010e-001 -2.79247701e-001 -2.36281410e-001
      -1.93943575e-001 2.40630843e-002 -1.90906584e-001 -4.62654471e-001
      -2.10190400e-001 1.00493565e-001 1.23586752e-001 -2.26752132e-001
      -2.24510595e-001 3.19909044e-002 8.73919427e-002 -3.07949353e-002
      -2.27951929e-001 -1.89577937e-001 -1.83115125e-001 3.29786181e-001
      -1.75492555e-001 -3.22188944e-001 -1.41941205e-001 1.92452714e-001
      6.51744530e-002 -2.58240849e-001 -1.04375169e-001 2.38117918e-001
      5.04652202e-001 -4.00655180e-001 -4.75283742e-001 -3.29672068e-001
      -2.77656391e-002 8.87510702e-002 6.40465170e-002 1.17382124e-001
      2.41320163e-001 1.58739567e-001 5.39099984e-002 -2.66075999e-001
      1.03303581e-001 2.99739033e-001 4.37246650e-001 2.30207637e-001
      2.16937765e-001 -1.41989857e-001 -1.64077394e-002 -6.21994734e-001
      -1.91538155e-001 -2.57463813e-001 -1.44973814e-001 1.18693132e-002
      -1.20258905e-001 -3.08942348e-001 -1.09035388e-001 2.33647078e-001
      7.59320408e-002 -6.48093522e-002 9.83185545e-002 1.08151734e-001
      2.34094366e-001 5.64505935e-001 1.13923572e-001 -1.05603822e-001
      -6.60556406e-002 -7.32991993e-002 8.99014995e-002 2.53866673e-001
      1.97430447e-001 2.22161449e-002 -4.85704914e-002 -5.65692745e-002
      2.41040178e-002 1.60689190e-001 2.06252992e-001 1.69014469e-001
      3.43603700e-001 3.39239925e-001 1.28781676e-001 1.59008950e-001
      -3.62209380e-002 5.14252782e-002 -1.59276277e-001 1.09798051e-001
      -2.58167565e-001 2.98107773e-001 4.88699190e-002 -6.79218918e-002
      1.90616965e-001 1.95431963e-001 9.47558060e-002 -4.66138273e-002
      1.37974760e-002 -3.58647816e-002 1.73954651e-001 1.25072390e-001
      -1.54598922e-001 1.34009808e-001 1.07394524e-001 3.20074186e-002
      2.50685588e-003 7.97710791e-002 1.74035653e-001 5.08631468e-002
      -3.38269353e-001 -6.49884716e-002 8.49327222e-002 3.06665059e-002
      -7.34080747e-002 -3.27504188e-001 3.98645410e-003 5.41469634e-001
      2.20579952e-002 -7.07280114e-002 4.95210998e-002 -3.02731548e-003
      4.37000841e-002 -9.28570256e-002 7.68499449e-002 1.82077259e-001
      1.01762703e-002 1.83942467e-001 -1.74167395e-001 -1.80518419e-001
      -1.15925699e-001 1.20284259e-001 -2.13849079e-002 1.97935462e-001
      3.95285100e-001 3.32242906e-001 1.44608051e-001 9.09922794e-002
      1.38757601e-001 -7.64371678e-002 4.73516472e-002 2.12671235e-003
      -2.76006311e-001 -9.42385197e-002 2.60351539e-001 -1.19265363e-001
      -2.31639117e-001 -3.46617758e-001 -1.67393535e-001
      -2.91363597e-001 2.13794768e-001 -7.47342929e-002 -7.08064586e-002
      5.55063710e-002 -4.00904045e-002 -1.46396905e-001 -2.30408162e-001
      -2.48480923e-002 -1.04849031e-002 1.36133581e-001 2.05703735e-001
      1.19085133e-001 6.14160150e-002 9.77303982e-002 -7.38816485e-002
      8.61743763e-002 -1.19773328e-001 7.76477763e-003 2.80563891e-001
      4.94967610e-001 -6.02066256e-002 1.66660130e-001 -1.69991434e-001
      1.35065511e-001 1.70188949e-001 -2.36035455e-002 7.52292722e-002
      1.94591150e-001 -1.66326925e-001 -2.93186188e-001 -1.94836985e-002
      -2.08309516e-002 -7.27378055e-002 -4.12462540e-002
      -2.09910795e-001 -3.02053634e-002 6.77620471e-002 -3.67186308e-001
      -1.35856554e-001 1.26251489e-001 3.08167875e-001 -3.11807636e-002
      -2.07250506e-001 1.25710651e-001 1.93050802e-002 -8.64554718e-002
      2.98125786e-003 -1.34388372e-001 -3.87005806e-002 -7.69541189e-002
      -7.81787932e-002 -1.86067484e-002 -2.10888684e-003 7.40962848e-002
      -2.18093824e-002 1.01284105e-002 3.34491208e-002 1.24587014e-001
      2.74097204e-001 -6.76191747e-002 9.92725417e-002 5.13390154e-002
      -2.28312671e-001 1.09615132e-001 -7.50731900e-002 5.65788448e-002
      -5.51816188e-002 -2.11998776e-001 -2.46271670e-001
      -3.49380411e-002 1.06867868e-002 -1.36788398e-001 4.39423621e-002
      -8.67402405e-002 -8.73187780e-002 -2.74381310e-001
      -2.53218770e-001 -7.74008334e-002 1.30926237e-001 -3.34716891e-003
      -6.72575505e-003 -5.79305440e-002 -1.42702669e-001 1.32860824e-001
      3.38658579e-002 1.32876977e-001 7.63681903e-002 1.20401103e-002
      2.22387478e-001 5.30088097e-002 -1.38976038e-001 9.13216099e-002
      1.79863110e-001 2.12838218e-001 3.24085653e-001 4.30593878e-001
      1.83430776e-001 1.57696337e-001 6.75565377e-002 -4.38193232e-001
      -5.15256405e-001 -2.28918806e-001 4.99605620e-003 3.56711000e-002
      2.34358963e-002 2.02075228e-001 -1.98047742e-001 5.75745804e-003
      -5.29014952e-002 4.30338122e-002 2.62875170e-001 1.11084558e-001
      -2.11547494e-001 1.07327260e-001 1.18555285e-001 -2.72739567e-002
      -2.74302941e-002 -1.19718676e-002 3.90752777e-002 1.35473251e-001
      3.28571051e-001 2.50121713e-001 -7.48752728e-002 -3.17581296e-001
      -2.00974599e-001 1.06456190e-001 3.16175103e-001 2.94361681e-001
      -2.97320008e-001 1.39093727e-001 8.48318487e-002 -4.77862135e-002
      1.89345330e-001 -1.01442911e-001 -1.30592018e-001 1.37251923e-002
      -2.43549645e-002 2.14247525e-001 3.17451470e-002 -2.30161265e-001
      6.18259236e-002 4.42884527e-002 4.48685028e-002 -3.56048286e-001
      -8.17084387e-002 -4.54799980e-001 -8.18604752e-002
      -4.31683660e-002 -1.43769160e-001 -2.47879833e-001
      -1.37543082e-001 -3.21649820e-001 1.97375137e-002 1.92083433e-001
      1.58399701e-001 4.76121390e-003 -3.42813358e-002 2.58716512e-002
      2.20652018e-002 -8.58637244e-002 4.93091531e-003 -2.01638371e-001
      1.65703669e-001 2.09799632e-001 3.55474025e-001 9.49126333e-002
      -5.20631336e-002 -1.77405730e-001 -1.39188662e-001 1.38638467e-001
      1.14868440e-001 1.77623793e-001 -2.56120324e-001 -2.61571072e-002
      1.82237476e-001 -1.98090047e-001 5.10404073e-002 2.93655545e-001
      -5.18556297e-001 -6.69008121e-002 -1.00090452e-001
      -2.35729694e-001 -4.58526462e-002 1.67705700e-001 -6.44997060e-002
      2.05042869e-001 2.60556757e-001 -2.56225646e-001 -1.41640767e-001
      8.31356645e-002 -2.27172375e-001 2.09697470e-001 -6.40271753e-002
      -1.93954855e-002 1.61570728e-001 6.07089475e-002 -2.57746518e-001
      2.76350141e-001 5.42407110e-002 -1.05265476e-001 -4.46959853e-001
      -6.15040399e-002 1.51974320e-001 -1.92771077e-001 -7.73080215e-002
      1.79589521e-002 -2.52381772e-001 -5.25366440e-002 -3.57601464e-001
      1.51503384e-001 3.30709934e-001 6.25690520e-002 9.60123632e-003
      1.33370936e-001 -2.46079281e-001 -5.43350838e-002 -4.65683788e-002
      -1.53124496e-001 1.65789455e-001 8.96041840e-002 7.41633847e-002
      2.68805213e-002 -1.53670087e-001 -2.60081533e-002 1.22210927e-001
      4.40030508e-002 -1.10212326e-001 -1.43653661e-001 6.54950216e-002
      4.59403962e-001 3.30412649e-002 4.94128726e-002 3.86794074e-003
      2.92069130e-002 5.92579134e-002 3.32639575e-001 -3.67286988e-002
      -2.81525075e-001 2.15778530e-001 -2.16552719e-001 -2.20330849e-001
      -9.45324749e-002 1.38507066e-002 5.76100051e-002 -1.62243575e-001
      8.15865397e-002 2.53310911e-002 1.83489427e-001 -1.17450081e-001
      -9.77080166e-002 6.83371946e-002 1.06997050e-001 -1.22781254e-001
      -2.47730374e-001 -8.59639421e-002 -1.62808239e-001 2.12705716e-001
      -7.51255006e-002 9.39621478e-002 2.15157524e-001 -1.80693679e-002
      -8.78335163e-002 -5.74576333e-002 7.31593668e-002 2.02489406e-001
      8.98226425e-002 2.16188833e-001 4.22554016e-001 1.41731473e-002
      2.17515618e-001 -8.21939483e-002 2.33849540e-001 -8.93948823e-002
      1.01364248e-001 -4.42918874e-002 -1.64768115e-001 3.01058680e-001
      2.33952776e-001 -8.72253701e-002 -1.81271747e-001 2.27207452e-001
      3.71015966e-001 2.11949602e-001 1.10999584e-001 1.59959361e-001
      1.94081277e-001 1.95449844e-001 -2.41658166e-001 -2.65548285e-002
      3.50898176e-001 2.28528455e-001 7.23487958e-002 2.10367236e-002
      8.00232515e-002 -1.01080917e-001 5.51051162e-002 9.61241797e-002
      -1.48520842e-001 2.90267020e-001 -1.72423109e-001 -8.91523808e-003
      9.74948481e-002 8.77083614e-002 -7.60305375e-002 1.34172171e-001
      -5.52618988e-002 -1.81663200e-001 -3.88724804e-002 1.38328791e-001
      8.37516636e-002 3.53391141e-001 2.57044673e-001 -4.00749147e-002
      -4.45673987e-002 8.09283778e-002 -2.01407105e-001 -1.31076083e-001
      -1.95921734e-001 -1.33992687e-001 -8.07988718e-002 4.59802002e-002
      -2.55000032e-002 8.66820365e-002 -1.06877439e-001 2.83353418e-001
      -1.79617435e-001 -1.94585964e-001 -3.41190808e-002
      -1.49462193e-001 -4.52743948e-001 -1.96942225e-001 1.23888135e-001
      3.92511100e-001 2.96418536e-002 -2.17305690e-001 7.46800005e-003
      -9.79815647e-002 7.32325017e-002 1.13645747e-001 -1.33506596e-001
      -2.62662590e-001 -4.63483669e-002 5.09613812e-001 1.26385450e-001
      2.09107995e-001 -1.80151120e-001 -3.97927277e-002 -2.96707392e-001
      -3.29680830e-001 2.62164492e-002 2.90164471e-001 -2.06188604e-001
      -1.10818841e-001 -1.09719172e-001 -3.12822074e-001
      -1.37919366e-001 -4.21092771e-002 5.44211268e-002 5.25077403e-001
      1.73148483e-001 -1.73664361e-001 1.68351710e-001 1.20132089e-001
      4.09986079e-001 3.39050114e-001 1.65782094e-001 -4.86317500e-002
      1.02936476e-002 -1.44611403e-001 -2.98076153e-001 -1.23308018e-001
      -5.39611638e-001 -3.86543423e-001 -4.85042393e-001 1.13352798e-002
      8.28083605e-002 4.64297980e-001 8.14905614e-002 -2.44543314e-001
      1.76187813e-001 1.69212092e-002 -1.99084580e-001 3.05522919e-001
      -1.65195763e-002 -1.92013949e-001 -1.99793085e-001
      -3.08447983e-002 -2.63275895e-002 7.62739405e-002 9.75716338e-002
      -2.57147968e-001 9.04120430e-002 -2.34610183e-004 -2.55589694e-001
      1.47113413e-001 -3.68745513e-002 2.34405808e-002 3.01811397e-002
      -2.22965389e-001 -1.28429219e-001 1.61640123e-002 -1.26424700e-001
      -3.03423256e-001 8.31761211e-002 3.52674544e-001 -2.46005923e-001
      -3.01079433e-002 -3.27315509e-001 -1.84713468e-001
      -2.02090114e-001 -2.47544974e-001 -3.92975241e-001 7.57164359e-002
      -1.79974318e-001 -1.40215188e-001 -6.46415949e-002
      -9.30010751e-002 9.23380703e-002 -2.76447628e-002 -8.88594314e-002
      -6.83937222e-002 3.33892316e-001 -9.30598751e-002 1.39929920e-001
      -1.46449566e-001 -5.36128223e-001 -3.09405625e-001 2.17325047e-001
      -1.12667039e-001 -4.57429476e-002 8.81399438e-002 1.52275190e-001
      -1.28673967e-002 -3.41400467e-002 -5.56236366e-003 6.75109401e-002
      2.25064501e-001 2.06682220e-001 2.54843026e-001 3.81617337e-001
      1.48120433e-001 1.10014610e-001 2.74264663e-001 -2.09523901e-001
      -1.99151069e-001 1.00737274e-001 -7.79117178e-003 -2.76408225e-001
      -1.57496497e-001 4.95365709e-002 4.25231934e-001 3.10031533e-001
      -4.82027009e-002 2.29855143e-002 1.04888603e-001 2.51159877e-001
      2.90065594e-002 1.61566988e-001 6.67354763e-002 -4.46803346e-002
      -9.38339904e-002 -1.18079923e-001 1.43348739e-001 3.91567171e-001
      -8.30458254e-002 -4.14699242e-002 4.58412975e-001 2.54811913e-001
      -4.85950485e-002 -1.41242042e-001 -1.05698872e-002 2.34511510e-001
      3.49971563e-001 9.65601504e-002 -1.26244292e-001 5.14926732e-001
      1.51299760e-001 3.18770707e-001 2.07273126e-001 -2.08760709e-001
      -1.43101558e-001 1.09697983e-001 -8.19600970e-002 -2.15777576e-001
      3.00957292e-001 4.42716062e-001 2.71142880e-003 1.76646948e-001
      -2.23680019e-001 2.36753806e-001 3.63623083e-001 4.27903645e-002
      -1.17131703e-001 2.75678307e-001 -1.99028756e-002 1.95517112e-002
      -2.94589728e-001 -1.70334633e-002 -2.19894618e-001 2.19368935e-001
      1.20291039e-002 -2.02429011e-001 3.52372527e-002 1.52799875e-001
      2.39823565e-001 1.34804651e-001 1.98986024e-001 1.76217929e-002
      1.86482072e-001 1.09580174e-001 -1.22108143e-002 -1.19102925e-001
      2.60797203e-001 2.10748479e-001 1.07504100e-001 -1.93941355e-001
      9.90839489e-003 2.51303643e-001 -3.55781354e-002 1.63816586e-002
      1.25354841e-001 -4.21446383e-001 3.49781215e-001 3.07591647e-001
      -5.76236770e-002 1.64938435e-001 2.12795794e-001 1.47070348e-001
      -2.63683759e-002 2.44935974e-001 1.47472769e-001 3.02529801e-002
      -2.23804459e-001 -8.60270634e-002 -2.11352378e-001
      -4.94120717e-002 1.35192484e-001 5.87361827e-002 -1.86494723e-001
      -1.67320251e-001 8.12103376e-002 -6.12278469e-003 1.64040759e-001
      9.69606452e-003 -1.07118472e-001 1.39119446e-001 1.79155976e-001
      2.16341928e-001 -5.03278337e-003 -3.82549524e-001 -1.22295156e-001
      8.33000615e-002 -3.17335993e-001 -8.05829018e-002 -2.66702622e-002
      -1.12431556e-001 1.95823789e-001 -6.66060746e-002 -1.26686677e-001
      -1.56779498e-001 1.42272681e-001 -6.08162358e-002 1.96627870e-001
      7.73697793e-002 -1.18572958e-001 1.76280737e-001 1.35117143e-001
      -1.15886554e-001 -1.23705126e-001 1.38935849e-001 -2.02050239e-001
      -1.10166639e-001 -1.02444403e-001 2.42028926e-002 -5.46793500e-003
      2.44544715e-001 2.33885348e-002 4.14639153e-002 7.70957991e-002
      -1.08278111e-001 1.58915725e-002 9.67505798e-002 1.63291946e-001
      -1.17280722e-001 4.44658250e-002 -2.40261644e-001 -9.78998765e-002
      2.03052938e-001 2.64345199e-001 2.33901724e-001 -2.49159545e-001
      -2.89339900e-001 3.95575399e-003 -1.23628467e-001 2.61612207e-001
      2.47414172e-001 1.86309636e-001 3.11448246e-001 -5.88299334e-002
      -8.63986984e-002 -3.67975533e-002 -1.43411383e-001
      -2.46247828e-001 -1.23990901e-001 -2.15482578e-001
      -1.28020495e-001 -3.66259098e-001 -4.02866900e-001
      -2.04023570e-001 -1.51291579e-001 5.12177963e-003 5.35572283e-002
      -1.70671597e-001 -3.78974602e-002 1.45323813e-001 -7.81928771e-004
      -2.59725880e-002 2.12090969e-001 -3.02988350e-001 -4.73248549e-002
      5.64700291e-002 2.03874394e-001 -1.15054786e-001 -8.01778063e-002
      -1.32280707e-001 -1.46311089e-001 -1.79148138e-001 1.65191188e-001
      -2.26170961e-002 2.33706728e-001 -3.61866020e-002 1.18932603e-002
      5.04569821e-002 -1.58379525e-001 -2.48315305e-001 -2.42281377e-001
      -1.06336445e-001 2.05254614e-001 -1.02509126e-001 2.64838398e-001
      2.05782786e-001 7.15508386e-002 2.77458817e-001 -5.95031381e-002
      -1.12313487e-001 -2.53357112e-001 -1.36724770e-001
      -5.63533194e-002 3.17394316e-001 6.82771280e-002 -2.62331635e-001
      -9.11023766e-002 1.86205819e-001 -6.11694455e-002 7.08566308e-002
      1.36839122e-001 -2.46042028e-001 4.59701538e-001 1.34125054e-001
      -1.23239078e-001 -3.62615590e-003 -2.85535991e-001
      -4.80425134e-002 4.03504819e-003 2.69857738e-002 1.00158498e-001
      -2.50416752e-002 -6.42013103e-002 1.74538255e-001 5.11910208e-002
      8.82440060e-002 1.03733368e-001 2.90296525e-001 2.30904281e-001
      2.19851479e-001 1.37827829e-001 -6.38305247e-002 -2.82031089e-001
      7.48979747e-002 5.13642095e-003 6.13540336e-002 -1.35425270e-001
      -1.88270640e-002 -6.49046823e-002 1.57003358e-001 1.94236398e-001
      2.62413472e-001 1.12102717e-001 1.06722303e-001 2.24723816e-002
      -1.25143841e-001 6.81609288e-002 1.99226454e-001 -1.89876661e-001
      -1.54692814e-001 1.29712060e-001 2.63475150e-001 3.17079097e-001
      -7.15564415e-002 2.64240392e-002 2.03950614e-001 1.23111859e-001
      1.67586312e-001 7.51788821e-003 -3.33736232e-003 -5.22464179e-002
      3.25613111e-001 -6.81971163e-002 7.74007365e-002 1.15074351e-001
      1.18511364e-001 -9.16204154e-002 -1.68757245e-001 1.99287266e-001
      -1.19209729e-001 5.90666980e-002 2.71739513e-001 2.46428192e-001
      3.16521004e-002 -3.09398174e-002 -3.44850481e-001 -5.32529615e-002
      4.88074943e-002 6.53798804e-002 1.60167649e-001 1.39341399e-001
      1.34150133e-001 3.34463179e-001 -1.18778981e-001 -3.78582120e-001
      -1.69220850e-001 1.90663010e-001 -2.93217171e-002 -2.04278827e-001
      -2.10773777e-002 7.73355290e-002 -6.35785162e-002 -6.25223815e-002
      -2.42389023e-001 -6.52349070e-002 1.44953042e-001 3.58043127e-002
      -1.80549264e-001 3.04751307e-001 5.85014757e-004 5.59247769e-002
      -2.57303268e-001 2.35846356e-001 3.75112775e-003 -2.13902324e-001
      8.88601616e-002 3.19914728e-001 -2.05580696e-001 -3.79845798e-002
      7.75411054e-002 1.81778789e-001 2.40121335e-001 3.04090101e-002
      -1.84219822e-001 -3.59573476e-002 7.79475644e-002 -2.81938463e-001
      -1.55347735e-001 -4.10356186e-002 9.46975276e-002 8.69416744e-002
      -1.91324800e-001 -2.30799139e-001 -5.49462177e-002 4.22392003e-002
      1.23770498e-001 1.57173127e-001 -2.75942627e-002 2.00076066e-002
      1.00184418e-001 -8.96304622e-002 -1.17994048e-001 -1.46064712e-002
      -5.72235957e-002 2.46105641e-001 -2.65042990e-001 1.99271068e-001
      -2.36325860e-001 -1.28200993e-001 -1.89773053e-001 1.88837186e-001
      4.30377185e-001 7.58554861e-002 -8.98238644e-002 3.18928957e-001
      -3.26301754e-002 -8.72658938e-002 -1.17995322e-001 1.36191383e-001
      -1.21183798e-001 8.80954340e-002 2.34525621e-001 -7.81633630e-002
      1.49425849e-001 5.19104348e-003 -2.12237462e-002 -8.55971053e-002
      -2.61650115e-001 5.15978336e-002 1.17857404e-001 -5.74452057e-002
      -5.97307160e-002 -3.23664793e-003 1.27334967e-001 -2.96828803e-002
      1.65308863e-001 -2.59031415e-001 -7.96913169e-004 1.29768848e-002
      2.70637780e-001 -4.56483364e-002 -6.84372112e-002 2.34360155e-002
      -1.03808679e-001 4.04057577e-002 2.90211111e-001 -1.89013779e-002
      1.66631818e-001 -2.95083709e-002 7.71140084e-002 -3.19578759e-002
      -2.49401048e-001 1.20749973e-001 -6.92041814e-002 2.15546116e-001
      -1.53946802e-001 1.22020133e-001 6.14933521e-002 1.12207439e-002
      2.81268626e-001 6.23288145e-003 1.38324291e-001 2.78316319e-001
      1.76566780e-001 3.22523147e-001 1.09721109e-001 1.13130480e-001
      2.74569690e-001 -3.02859843e-001 -1.42905831e-001 -1.76944509e-002
      1.32241786e-001 1.30906522e-001 -1.47605598e-001 -1.55695202e-002
      1.42986268e-001 -8.48824903e-002 2.62801915e-001 -5.10407612e-003
      -1.80631503e-001 -1.63303763e-001 1.56551949e-003 -4.16253239e-001
      -1.39937401e-002 -8.84004161e-002 1.23126186e-001 2.90258676e-001
      -4.77547310e-002 -2.71402806e-001 -1.69157565e-001 1.76957816e-001
      -1.78942576e-001 -1.05492599e-001 -2.55969197e-001
      -1.72254425e-002 -1.37831613e-001 -3.22632790e-001 4.57477523e-003
      -2.60683894e-002 7.00801536e-002 -3.89898986e-001 -5.08984178e-002
      1.15059480e-001 1.99322522e-001 2.89308190e-001 2.78356254e-001
      2.72845291e-003 -1.77737594e-001 4.90088910e-002 -9.28422809e-002
      -1.19704269e-001 -1.73982069e-001 -1.48199886e-001
      -3.97718363e-002 1.88055083e-001 -2.31981855e-002 1.35266602e-001
      4.18156296e-001 -3.57060760e-001 -5.86039603e-001 -3.34269702e-001
      -1.56754702e-001 1.30938655e-002 -1.75242096e-001 1.17348701e-001
      -1.39890071e-002 2.51860887e-001 -1.81858361e-001 -2.37104930e-002
      -8.91113654e-002 -1.89367652e-001 -1.59268960e-001
      -2.25143448e-001 -1.73617378e-001 1.18188038e-001 4.41937655e-001
      -4.43507098e-002 -1.21497467e-001 -1.05840586e-001
      -2.92131931e-001 -1.09219842e-001 9.97008458e-002 1.13959305e-001
      -2.63077706e-001 1.62202984e-001 -9.16964039e-002 -2.75334060e-001
      1.43647537e-001 6.20098300e-002 -1.39942905e-002 -2.23078132e-001
      -2.53717035e-001 1.99740559e-001 1.11350510e-002 -4.44535345e-001
      -4.64735292e-002 -2.16122642e-001 5.69232106e-002 -5.76356649e-002
      3.50619853e-002 6.14613621e-003 -2.43667871e-001 -1.37947723e-001
      -7.20605925e-002 1.43579111e-001 6.13112301e-002 -1.44085968e-002
      2.27815583e-001 3.62596571e-001 -5.76229319e-002 2.59560257e-001
      1.56317502e-001 6.33822009e-002 -2.54463673e-001 -2.48625055e-001
      -3.55803430e-001 -1.83526874e-001 -7.70268124e-003 1.16639666e-001
      -7.37193823e-002 -2.78679371e-001 7.87712783e-002 -1.47496074e-001
      -1.12678699e-001 -2.87891366e-003 4.75634523e-002 1.13635115e-001
      -1.31233046e-002 -1.43380344e-001 2.06779674e-001 -2.80212630e-002
      2.48997975e-002 7.35269412e-002 -3.93125057e-001 -3.38726491e-001
      -1.48011416e-001 9.42607000e-002 6.55682534e-002 2.39153698e-001
      7.96206445e-002 -5.73175699e-002 -7.90514238e-003 -2.06286952e-001
      -1.52923465e-001 1.51455060e-001 1.45991817e-001 3.62375900e-002
      -5.82372323e-002 3.61876562e-002 4.40708660e-002 8.42993185e-002
      -4.65433568e-001 -2.06130713e-001 -2.18410477e-001
      -4.16178778e-002 2.70139426e-001 2.57953376e-001 7.71442875e-002
      1.84500933e-001 1.84404880e-001 1.42047435e-001 1.38448134e-001
      2.37438247e-001 2.44131714e-001 -5.55942161e-003 -1.69234633e-001
      -1.44144058e-001 -2.91229308e-001 1.44666284e-001 -2.92582572e-001
      -2.27574855e-001 1.68995321e-001 5.12981005e-002 2.08845973e-001
      2.23605350e-001 1.44884795e-001 2.53398538e-001 1.83377504e-001
      -1.04841337e-001 1.62776232e-001 1.38398483e-001 1.53612569e-001
      -3.93372364e-002 -3.18017185e-001 -1.57088667e-001
      -2.31347218e-001 1.31684065e-001 1.25710681e-001 -1.10649563e-001
      -1.94950029e-002 1.16381384e-001 1.80438176e-001 5.07598966e-002
      1.49481162e-001 2.24729300e-001 4.92619306e-001 3.35760415e-001
      3.36662441e-001 2.32280537e-001 2.56501734e-001 2.05555767e-001
      -5.76038323e-002 -7.90840946e-003 1.25610188e-001 2.09822640e-001
      -1.26710147e-001 -1.61311105e-001 -2.14718819e-001
      -1.46950796e-001 1.14430524e-001 2.96493527e-002 2.53301740e-001
      4.35125232e-001 3.75917971e-001 -2.40983963e-001 7.98525661e-002
      -1.20951168e-001 8.41317922e-002 5.54511920e-002 -1.54063508e-001
      2.31984425e-002 2.27294832e-001 1.50663137e-001 -3.47109996e-002
      -5.06104305e-002 -1.35681167e-001 6.12784475e-002 1.29067943e-001
      2.52205938e-001 1.35233805e-001 3.48207913e-002 -5.67014106e-002
      1.17967740e-001 2.31087506e-001 -1.16397336e-001 -2.47273028e-001
      -4.01227236e-001 -1.29669411e-002 2.88379937e-001 2.25785568e-001
      5.76484352e-002 -8.48095044e-002 -3.18470113e-002 1.87335446e-001
      1.69152953e-002 2.46054798e-001 3.41361910e-001 1.43108353e-001
      1.08310804e-002 1.46899298e-001 2.24308316e-002 1.11985337e-002
      9.24194381e-002 1.10617146e-001 -4.04263660e-002 -5.01973480e-002
      -2.47171931e-002 -1.95060801e-002 1.73225403e-001 -1.69695765e-001
      -1.23129621e-001 1.65428236e-001 -1.29384354e-001 1.90937877e-001
      -5.10187894e-002 -1.36529937e-001 -1.20065741e-001 7.23144636e-002
      -5.05724140e-002 3.64580490e-002 1.18300967e-001 2.61133797e-002
      1.48955062e-001 3.86117965e-001 2.71274745e-001 2.46805698e-001
      -1.58587292e-001 -1.15878778e-002 -5.71473427e-002 1.17101423e-001
      -1.22278564e-001 9.46846232e-002 3.58014107e-001 1.01172268e-001
      1.03135884e-001 -7.68102929e-002 1.25242412e-001 6.66938871e-002
      1.76843569e-001 1.35633156e-001 -2.64588416e-001 6.29053786e-002
      2.13720347e-003 7.59093687e-002 -7.54200667e-002 -4.94027473e-002
      -1.92507088e-001 -9.43594500e-002 -1.54601142e-001 1.29008263e-001
      1.78790435e-001 1.08228140e-001 -2.98133373e-001 1.75000951e-001
      2.51403242e-001 1.31649524e-001 7.13994578e-002 2.25213066e-001
      -2.10053399e-001 -3.58547568e-002 8.06980729e-002 -4.16933030e-001
      -1.48226157e-001 -9.72055551e-003 1.69465870e-001 1.69946238e-001
      -6.12605959e-002 -3.56593490e-001 -8.51830095e-003 2.80906916e-001
      5.41862063e-002 2.27209419e-001 -5.50065264e-002 1.72146317e-002
      3.24007690e-001 1.30678430e-001 -1.05911523e-001 5.61629273e-002
      -1.86061293e-001 -3.94232780e-001 -3.98592949e-002
      -4.02777009e-002 1.13058463e-002 4.41313125e-002 -5.08069173e-002
      3.13051820e-001 1.27028495e-001 -1.31619573e-001 -4.46998745e-001
      9.72944126e-002 -4.72635984e-001 -4.01203185e-001 1.15376160e-001
      3.92350465e-001 1.64034754e-001 -8.68640020e-002 -8.03377330e-002
      2.35168025e-001 -4.69550602e-002 -7.33820675e-003 -3.50075029e-002
      -1.53078929e-001 2.33697891e-001 -8.23579505e-002 -3.36924791e-002
      3.18396360e-001 -9.72952992e-002 -1.42263070e-001 4.80166636e-002
      2.04709291e-001 4.73783910e-002 2.33586598e-002 3.12135249e-001
      -1.14572167e-001 -1.18848659e-001 2.71783937e-002 3.55261832e-001
      -1.33485690e-001 5.98961860e-002 -1.85953185e-001 8.88144672e-002
      -2.39339024e-002 -5.94185591e-002 1.68854535e-001 -1.12041272e-001
      1.27693459e-001 7.48225152e-002 3.89671959e-002 -1.67001545e-001
      -8.99181515e-002 -5.06563894e-002 -1.65911704e-001
      -2.18338985e-003 2.91365869e-002 3.32725763e-001 -2.51263440e-001
      1.31725237e-001 -3.46502215e-002 -9.98246577e-003 7.67064318e-002
      -1.56872705e-001 -5.19577926e-003 -7.65808523e-002
      -6.62342012e-002 -3.04730888e-002 -3.48640531e-002
      -2.20408171e-001 -3.96154560e-002 2.62158979e-002 -5.51587231e-002
      2.21861050e-001 -2.78561383e-001 1.56012714e-001 9.01209638e-002
      8.88017658e-003 -5.76854460e-002 9.01640505e-002 2.78205931e-001
      -2.81587958e-001 6.00105345e-001 -3.60012800e-002 2.57798404e-001
      2.32874975e-002 -9.35727556e-004 -2.49715030e-001 -1.27485050e-002
      -9.56766307e-002 -9.22691673e-002 3.65433283e-002 -1.32965043e-001
      -5.18224686e-002 -5.95066920e-002 5.21710366e-002 -7.88587984e-003
      1.44072369e-001 -8.66075978e-003 -2.78344154e-001 -3.80313732e-002
      -1.11361772e-001 -3.23414147e-001 3.47791538e-002 -4.76721413e-002
      9.14778486e-002 7.13863149e-002 3.39345895e-002 -1.55660063e-001
      3.44334990e-001 -1.09947443e-001 2.84423560e-001 2.01744288e-001
      1.19088534e-002 5.25893755e-002 3.82352501e-001 -1.58895373e-001
      -8.44106749e-002 -9.40553695e-002 -2.23897636e-001 3.52822319e-002
      1.10458322e-002 -2.51711369e-001 6.10020980e-002 -7.90404379e-002
      2.28000209e-001 -2.02947482e-001 -7.58091807e-002 1.15200408e-001
      -1.12889566e-001 -1.99752137e-001 -1.41440690e-001 1.52326435e-001
      3.83220762e-001 -2.12570861e-001 1.24229029e-001 -1.21929720e-001
      1.40285164e-001 4.16689727e-004 4.99049053e-002 -1.92053691e-001
      -5.84111437e-002 -1.84377775e-001 -1.02172755e-001
      -6.45561218e-002 -7.91987553e-002 8.16042647e-002 3.32214274e-002
      2.34415606e-002 -1.30859256e-001 7.50622526e-002 6.74651423e-003
      -1.76725015e-001 4.51038629e-002 -8.87575224e-002 2.75229126e-001
      -1.68169856e-001 -5.28596379e-002 9.31805894e-002 -9.98365954e-002
      -3.54869336e-001 -1.54321656e-001 8.92800912e-002 2.34514669e-001
      1.47911668e-001 -6.06794748e-003 -1.36062652e-001 -1.16580501e-002
      -1.41380340e-001 -1.61005840e-001 1.79827511e-002 -1.23569191e-001
      1.29628211e-001 7.58692771e-002 2.33462825e-001 -2.24588454e-001
      -1.85537130e-001 -4.15991247e-001 3.98726344e-001 -1.18706428e-001
      -2.44993027e-002 1.30637884e-001 -4.01833095e-002 4.28408422e-002
      -2.11296305e-002 1.50416330e-001 -1.08296536e-001 -1.30341098e-001
      3.01945582e-002 -6.11804165e-002 1.77922726e-001 -7.65324309e-002
      1.79436266e-001 -9.90126356e-002 -1.55655637e-001 -4.08552378e-001
      9.47329625e-002 9.26440135e-002 5.28680272e-002 1.92996580e-002
      2.60138400e-002 2.02602535e-001 3.02488863e-001 -1.25850394e-001
      1.52548030e-001 1.92043230e-001 -3.55063498e-001 -4.28438485e-002
      -1.68841764e-001 -1.00835614e-001 -1.55199878e-002
      -2.88992614e-001 8.18239972e-002 7.74978027e-002 -4.44615364e-001
      1.02611274e-001 1.92543585e-002 2.17219740e-001 6.16571531e-002
      1.20401956e-001 1.37443999e-002 5.61960526e-002 2.63531923e-001
      1.42593924e-002 -2.88370967e-001 -1.31189048e-001 -9.39840898e-002
      -4.57745492e-002 1.18156910e-001 6.17680326e-002 1.45154342e-001
      1.80303141e-001 -5.01790605e-002 -1.34535804e-001 9.13098082e-002
      -2.24467680e-001 -2.55690981e-002 1.71034545e-001 -3.06922197e-001
      1.65967271e-001 8.21130425e-002 -2.13489056e-001 2.62595564e-001
      5.24520352e-002 1.08997338e-001 -2.16302142e-001 -1.26188695e-001
      -3.49891573e-001 5.54510765e-002 1.83205590e-001 7.68605322e-002
      -2.07922027e-001 -9.32844914e-003 4.18559127e-002 1.86335430e-001
      4.92741346e-001 -6.10019118e-002 -5.24791256e-002 -1.21772960e-002
      -1.55679300e-001 3.13245893e-001 9.32962969e-002 1.80590913e-001
      -3.83577466e-001 -1.55578628e-001 -2.25120798e-001
      -4.37609479e-002 -5.05779833e-002 3.30826700e-001 -4.78042737e-002
      3.73199999e-001 -3.96875069e-002 -1.32029459e-001 -2.49337688e-001
      -8.09542477e-001 -2.70516247e-001 1.66913599e-001 -2.88954049e-001
      -3.11334550e-001 4.23229933e-002 -8.46170709e-002 -2.25022420e-001
      2.67301053e-001 1.68790728e-001 1.13671198e-001 1.13978006e-001
      -4.80031043e-001 1.73628870e-002 4.38194990e-001 3.42879772e-001
      8.45439211e-002 -3.52203213e-002 -4.17800933e-001 1.05441250e-002
      -5.35891950e-002 -1.49931282e-001 -9.59443450e-002 2.18244016e-001
      2.07775414e-001 1.27972052e-001 1.46266043e-001 -8.94980282e-002
      -2.54732400e-001 6.63303882e-002 -4.43258196e-001 -2.95615017e-001
      -6.92883208e-002 -1.63149178e-001 -2.66604841e-001
      -4.36087586e-002 -7.10607991e-002 2.76780259e-002 5.02030179e-002
      -2.25309104e-001 -9.23585668e-002 -2.22412467e-001 5.34051657e-002
      3.20612848e-001 3.53456363e-002 1.34628445e-001 4.77758832e-002
      -3.64564061e-002 2.63091698e-002 -2.70425647e-001 6.75403103e-002
      -2.28100255e-001 9.23888460e-002 -4.18770052e-002 -1.58962443e-001
      -9.42875519e-002 1.14362225e-001 -1.50007799e-001 -1.01517104e-001
      5.42261712e-002 6.75605163e-002 2.29346216e-001 -2.50963390e-001
      -2.73326874e-001 -1.30437106e-001 7.03168437e-002 1.51091307e-001
      4.19255346e-002 -2.63070941e-001 -8.09980035e-002 -1.08123301e-002
      -7.29593709e-002 1.82276011e-001 -8.97571668e-002 -1.25633225e-001
      6.56062290e-002 3.38571340e-001 1.32391080e-002 -1.55491129e-001
      7.49325827e-002 2.38802999e-001 5.31326950e-001 2.82872230e-001
      8.92849714e-002 4.77105260e-001 1.95766866e-001 3.86096388e-002
      3.73664126e-002 5.84811829e-002 -3.99800748e-001 -2.44912431e-001
      -4.16998774e-001 -1.76368132e-001 4.04363833e-002 2.38896012e-001
      2.53541879e-002 2.97717042e-002 2.49778017e-001 -7.61037171e-002
      7.60224313e-002 -1.28118813e-001 5.30032292e-002 -2.05570146e-001
      1.31016180e-001 -1.19913436e-001 -1.61083877e-001 -2.98106730e-001
      1.02061974e-002 -1.58815876e-001 -1.23753212e-001 -9.58116725e-002
      4.35105950e-001 2.08638310e-001 3.02977234e-001 2.17002019e-001
      9.43147093e-002 3.00054520e-001 1.19217515e-001 7.97783490e-003
      2.00865880e-001 1.59212038e-001 -5.42597175e-002 -1.47969067e-001
      -7.59980083e-002 -1.43670946e-001 3.17878455e-001 -2.11970761e-001
      -1.98646843e-001 -4.81608868e-001 -1.27020881e-001 2.86124479e-002
      1.75918370e-001 4.36378151e-001 8.19820985e-002 3.56034935e-001
      -1.60065740e-001 1.48977995e-001 -2.19760075e-001 1.18455760e-001
      1.76883508e-002 -2.80702919e-001 -5.67694344e-002 1.29097039e-002
      1.33951932e-001 -8.58237222e-002 1.47073612e-001 3.23113799e-001
      2.54691213e-001 -1.35822028e-001 -1.58807084e-001 1.64296981e-002
      6.64011389e-002 -2.34044403e-001 -1.87889170e-002 1.92089304e-001
      3.59315239e-002 -7.62696937e-003 -3.03286109e-002 -2.55285025e-001
      1.08123533e-001 -1.11123487e-001 2.08504200e-002 -4.02602226e-001
      -8.48173201e-002 -1.29238144e-001 2.39688337e-001 -1.60934553e-001
      -2.97320308e-003 -2.11186841e-001 2.68087894e-001 -2.55205512e-001
      -1.97072282e-001 -2.09462136e-001 -1.78408548e-001
      -2.50238299e-001 -1.48314953e-001 -1.19060397e-001
      -1.51967540e-001 4.45632413e-002 1.97393373e-001 1.33051991e-001
      2.03777492e-001 1.30269334e-001 -1.99277788e-001 1.85788646e-001
      6.94465786e-002 -2.83947345e-002 -1.37406334e-001 3.12848747e-001
      7.72328451e-002 -1.58209771e-001 -5.20018823e-002 1.16625607e-001
      -1.67229339e-001 2.02886924e-001 -7.35342596e-003 -1.27141416e-001
      -5.70113957e-002 -7.31020048e-002 -3.90859425e-001
      -2.71103352e-001 -1.21759072e-001 1.65763527e-001 -7.68276444e-003
      -4.81670834e-002 -9.57281366e-002 1.56219780e-001 1.93612099e-001
      -3.20286714e-002 -4.64799479e-002 1.64837226e-001 3.44939649e-001
      1.20890876e-002 -5.79352640e-002 -1.76851507e-002 -2.23214895e-001
      1.53582066e-001 7.00939372e-002 -6.15464523e-002 -1.36655450e-001
      2.38204613e-001 3.38750780e-001 1.42790213e-001 -1.08295389e-001
      -1.14379577e-001 1.74393147e-001 1.93209559e-001 1.04820907e-001
      -1.50178358e-001 3.56372267e-001 -1.64976880e-001 -3.52931708e-001
      -3.13163757e-001 -7.63557106e-002 -3.35442764e-003
      -1.20827511e-001 -2.29423583e-001 1.61686167e-002 3.15143287e-001
      3.17631483e-001 -3.38002771e-001 -1.31736338e-001 -4.37455699e-002
      1.83656558e-001 1.48104280e-001 4.14256193e-002 7.84651861e-002
      2.92325305e-004 8.02589878e-002 -2.26233178e-003 -8.81680194e-003
      -1.59920186e-001 5.25846593e-002 3.67655978e-002 3.60412151e-002
      -2.89475143e-001 3.91661763e-001 -2.48468644e-003 3.67295519e-002
      2.51418203e-001 9.34765860e-002 1.20514162e-001 1.45665050e-001
      1.14919595e-001 3.33327651e-002 1.53483957e-001 1.79991454e-001
      -1.46941736e-001 -1.43134311e-001 -3.09044425e-003
      -8.78123790e-002 1.22232355e-001 -2.84789860e-001 -2.11660370e-001
      4.09147829e-001 2.95833677e-001 -1.94198489e-002 6.43247440e-002
      5.24003468e-002 -1.80842727e-001 3.65354449e-001 2.30844751e-001
      3.73552918e-001 4.79019821e-001 -2.05522865e-001 -9.60812047e-002
      3.35574448e-002 2.80397981e-001 1.19669162e-001 1.03262410e-001
      -2.33048305e-001 -6.58427551e-002 2.90256202e-001 9.85275209e-002
      2.13223845e-001 6.42029708e-003 1.56810120e-001 1.44472808e-001
      1.40281096e-001 -1.24875873e-001 7.17482641e-002 4.42068279e-001
      1.31160781e-001 1.89705014e-001 -1.30121946e-001 6.78851306e-002
      -3.58753726e-002 1.41957939e-001 -1.27934769e-001 2.63562977e-001
      2.45487362e-001 1.14051908e-001 8.62741247e-002 -1.87110811e-001
      6.88413978e-002 7.89088532e-002 -1.11268125e-001 -6.57729134e-002
      1.63915291e-001 8.24931785e-002 -9.40293148e-002 3.53344679e-001
      8.15871730e-002 2.08597973e-001 1.61782190e-001 -4.60860841e-002
      -3.87549907e-001 7.28700534e-002 2.15398192e-001 -2.29353964e-001
      4.71437901e-001 -9.24099982e-002 2.60841995e-001 2.77986854e-001
      3.12918305e-001 -2.85135787e-002 1.06702454e-001 -3.01896065e-001
      -2.09949210e-001 -9.44521874e-002 -3.34384255e-002 1.78564236e-001
      1.49854109e-001 1.92240298e-001 1.83570921e-001 1.68977737e-001
      -2.23544121e-001 3.68735455e-002 -3.66159603e-002 -1.40355244e-001
      1.56179965e-001 1.53359435e-002 2.07512066e-001 -2.13737842e-002
      -3.87213618e-001 3.11193049e-001 -1.16909273e-001 2.47360051e-001
      -8.44551399e-002 1.52597949e-001 1.29843980e-001 1.08442128e-001
      -1.44255325e-001 7.72479251e-002 -1.08046956e-001 -1.90580800e-001
      3.69289890e-002 -2.57788152e-001 1.84306934e-001 -5.67578822e-002
      -3.74203891e-001 -3.43260765e-001 1.07817939e-002 -1.18912101e-001
      -1.84875935e-001 4.43546064e-002 9.72859655e-003 2.77888507e-001
      1.92377746e-001 -8.35114345e-002 1.84471160e-001 5.04730940e-002
      8.98898300e-003 -1.54681116e-001 -1.40682310e-001 1.24801628e-001
      8.84606093e-002 1.25570253e-001 -2.73051281e-002 -3.78171384e-001
      -2.07416508e-002 -1.35403275e-001 -1.07725717e-001 1.29245579e-001
      -1.36445358e-001 2.66175508e-001 1.08313523e-001 8.32677819e-003
      -1.54512316e-001 -4.14595716e-002 -7.36650527e-002
      -3.95653993e-002 4.09709178e-002 -3.46075296e-002 5.84147125e-002
      -2.02313542e-001 -2.33749345e-001 -4.14148808e-001 4.24619764e-002
      1.48380399e-001 -1.24489985e-001 6.60319328e-002 8.16551968e-003
      2.95001805e-001 -5.43727241e-002 2.45254934e-001 2.48022988e-001
      1.98026448e-001 8.82155821e-002 2.21808534e-002 -2.97916681e-002
      2.23536789e-001 2.87185192e-001 -1.08608462e-001 -1.07566640e-001
      1.97623610e-001 8.04466903e-002 -1.39897484e-002 -1.68217197e-001
      5.21496534e-002 -2.17561405e-002 1.19395129e-001 -2.69058347e-001
      -6.77157715e-002 -1.96191102e-001 -1.62739992e-001 2.16842636e-001
      -2.29080454e-001 2.72856981e-001 1.90599822e-002 2.70311058e-001
      -2.73237005e-002 -6.93813041e-002 -1.49804950e-001 1.37701362e-001
      1.75827667e-001 -1.31711485e-002 4.54019345e-002 1.35350093e-001
      2.28933573e-001 -5.10872751e-002 -2.40428969e-001 -9.01124403e-002
      1.21613825e-003 5.68564199e-002 2.01414660e-001 1.46541402e-001
      5.11895306e-002 1.44231886e-001 1.49808362e-001 -8.50311015e-003
      -9.88962129e-002 -4.29741852e-002 4.34925109e-002 -2.49068901e-001
      3.22706819e-001 2.20219821e-001 -1.11945279e-001 -3.05458754e-002
      -2.26282757e-002 3.08991037e-002 1.02102444e-001 -1.12389430e-001
      -1.28961027e-001 -9.19264629e-002 7.42732882e-002 -1.36229500e-001
      1.04779504e-001 -2.62135416e-001 -2.24271119e-001 3.85580920e-002
      5.74471056e-002 7.38947764e-002 -2.48118881e-002 7.20688477e-002
      5.30017577e-002 2.17594460e-001 7.91044459e-002 -1.72161236e-001
      1.84460357e-001 -1.96066767e-001 9.46535394e-002 -2.33559504e-001
      -2.73097068e-001 -2.67820954e-001 4.98224758e-002 -8.08077306e-002
      -6.79272562e-002 -1.40295371e-001 -7.84111843e-002 4.02616858e-002
      4.71448861e-002 2.51643479e-001 2.19533727e-001 2.53786534e-001
      -1.37144119e-001 -1.03987113e-001 1.05562285e-001 -4.17849720e-002
      -3.97393480e-002 -8.66225213e-002 -1.10061198e-001
      -3.60674053e-001 -3.05049610e-003 3.69496364e-003 -4.20799255e-002
      2.75321692e-001 2.45603137e-002 5.94354346e-002 -2.02545717e-001
      1.61021218e-001 1.54248640e-001 2.71560043e-001 5.17773293e-002
      2.22211882e-001 5.00538154e-004 8.11723471e-002 -2.89289176e-001
      -9.26599056e-002 -2.15827972e-002 -2.96796616e-002 9.02911797e-002
      7.94677958e-002 1.25061318e-001 -1.37246242e-002 1.75780840e-002
      3.75737607e-001 2.74411738e-001 -7.85837844e-002 -2.71906644e-001
      -4.20864850e-001 -2.17843637e-001 -2.20333025e-001 9.91332233e-002
      -5.85345179e-002 -2.23104194e-001 -3.89345437e-001
      -4.71839271e-002 1.43174887e-001 -4.97617014e-002 -4.05998290e-001
      -2.32494175e-001 -4.07889783e-002 2.87353583e-002 3.91117543e-001
      -3.07185054e-002 -7.56636262e-002 -4.80354726e-001
      -1.97481498e-001 -3.82949352e-001 1.08141311e-001 1.38545752e-001
      -2.93886393e-001 -2.78521162e-002 -1.31530359e-001
      -2.75151014e-001 6.02823421e-002 2.63658851e-001 -5.25404662e-002
      1.55817807e-001 -2.04873845e-001 -1.59977376e-001 -1.43417090e-001
      -3.27946573e-001 -2.07562596e-001 2.77977258e-001 -2.75410652e-001
      -1.60530701e-001 1.56969801e-001 1.59614328e-002 -3.56883645e-001
      -8.33528042e-002 -1.74206480e-001 2.40133815e-002 -2.58542746e-001
      -4.11093563e-001 -2.96532720e-001 -1.09208435e-001 1.23659402e-001
      -1.14819475e-001 -1.26062572e-001 5.67411035e-002 -2.74988618e-002
      -3.09080258e-002 3.56382094e-002 -3.64616007e-001 6.79934919e-002
      2.85833795e-002 3.19759957e-002 -2.23788973e-002 -2.34193161e-001
      -9.40821916e-002 -1.11732043e-001 -2.12710932e-001
      -2.08154526e-002 4.18542147e-001 1.24324873e-001 3.51419561e-002
      -1.74102634e-001 -5.77227436e-002 2.05580071e-001 -5.06496966e-001
      -1.90596044e-001 -1.05869010e-001 -2.16765344e-001
      -1.03036739e-001 1.37943953e-001 -1.38244340e-002 1.81267276e-001
      3.61710876e-001 7.68416151e-002 -1.33928999e-001 1.96078986e-001
      2.94932961e-001 -2.43817180e-001 1.60400793e-001 -3.38520966e-002
      1.43091366e-001 -3.88306472e-003 -5.93408607e-002 -3.08056861e-001
      -3.06843400e-001 -7.70608038e-002 -5.78169376e-002 2.00986683e-001
      1.48301482e-001 4.64343965e-001 2.63803840e-001 2.60528401e-002
      -2.00220063e-001 1.19181156e-001 -1.85165033e-001 -4.83689010e-002
      1.11858949e-001 -1.01810940e-001 -3.29989463e-001 -1.54746741e-001
      3.17901850e-001 2.31581792e-001 -1.13808148e-001 -2.36686647e-001
      -8.38675424e-002 -2.19096363e-001 -6.60993084e-002 7.13599026e-002
      -8.17398205e-002 1.45369127e-001 1.66111380e-001 2.06196204e-001
      1.15647249e-001 1.40742632e-003 1.09231304e-002 9.61238593e-002
      1.60000965e-001 -1.00633219e-001 2.59291351e-001 7.29474351e-002
      -1.58245280e-001 -2.97881305e-001 -8.22774544e-002 1.56958967e-001
      1.19846299e-001 -2.79437691e-001 -1.70292947e-002 1.67580858e-001
      -8.21152702e-002 7.98694342e-002 2.49618545e-001 8.64288285e-002
      -3.11586708e-001 -1.29118532e-001 7.49214366e-002 -1.50194570e-001
      3.01283225e-002 -6.60198405e-002 -2.38175523e-002 1.59624889e-001
      -5.15850335e-002 -1.60604492e-001 -3.34556736e-002
      -2.55156428e-001 3.06482792e-001 9.95520130e-002 4.85776305e-001
      1.47414312e-001 1.80909544e-001 1.43836945e-001 4.28571105e-002
      -1.73308849e-001 -5.67189932e-001 -3.77254069e-001 3.19571644e-002
      -3.77510816e-001 4.20435853e-002 -1.10355709e-002 7.35745803e-002
      2.31700584e-001 -1.98760465e-001 -1.82932615e-001 -1.31145045e-001
      2.68292338e-001 1.49434984e-001 6.32340414e-003 -2.31323764e-002
      1.09663531e-001 3.63911204e-002 2.33374581e-001 -6.59335852e-002
      2.15407908e-002 -1.25541374e-001 1.28566185e-002 -9.84580442e-002
      1.08459823e-001 -1.79369450e-001 2.80068249e-001 3.05233747e-001
      1.83551133e-001 -1.23230942e-001 -1.90034613e-001 1.86685309e-001
      -1.26296446e-001 -9.19897854e-002 -4.48963046e-002 2.29997694e-001
      -2.00936079e-001 -1.87875450e-001 6.86358735e-002 1.92115813e-001
      -9.64250937e-002 -1.54453050e-002 8.15573707e-002 1.57208589e-003
      2.72234738e-001 -1.22985438e-001 1.85731217e-001 -1.09069422e-001
      8.22375491e-002 -1.41387880e-002 -6.13058433e-002 4.26166393e-002
      6.89243525e-002 -1.89487450e-003 -6.44881576e-002 -1.52336568e-001
      -2.54855126e-001 -2.81302780e-001 2.07591653e-001 -1.51681021e-001
      -2.49937415e-001 -3.69309723e-001 1.48451805e-001 2.38238368e-002
      -5.56920134e-002 1.62281349e-001 -3.88287380e-002 3.35598379e-001
      9.24523994e-002 -3.01454812e-001 4.27767029e-003 -3.54795158e-001
      -3.06939006e-001 2.15082958e-001 -3.80816055e-003 1.11194444e-003
      2.62496471e-001 -1.47685558e-001 -1.94615394e-001 -1.39108703e-001
      -5.58285564e-002 1.43435910e-001 -5.44647388e-002 -1.89050242e-001
      1.20542571e-001 4.97640967e-002 -1.65198684e-001 -2.77175367e-001
      7.02976584e-002 4.31491733e-002 -1.62025645e-001 1.30479440e-001
      -3.73493619e-002 -9.67490152e-002 2.56951123e-001 1.48423165e-001
      -2.53611386e-001 -1.14231206e-001 7.64776319e-002 1.74289882e-001
      7.03805685e-002 -3.05485904e-001 -3.23246181e-001 -1.61763474e-001
      3.77123982e-001 3.02926660e-001 1.54198438e-001 3.10118198e-001
      3.29644307e-002 8.46034065e-002 -9.89114717e-002 7.41020814e-002
      3.60418051e-001 -2.23914325e-001 -2.68625051e-001 4.05236304e-001
      4.89823380e-003 -2.13589102e-001 -3.64254862e-002 4.86810952e-002
      5.93377091e-002 1.05907612e-001 1.84539407e-002 -1.96564630e-001
      -7.36357085e-003 2.95009315e-001 -1.91724464e-001 -1.96465969e-001
      -1.04959428e-001 4.95128073e-002 1.44947112e-001 2.42852837e-001
      -5.82867526e-002 2.79627860e-001 1.53541982e-001 -1.95874274e-001
      7.00202361e-002 1.75205007e-001 2.88742110e-002 1.59387901e-001
      -8.56969357e-002 6.03852384e-002 1.52159169e-001 -7.21044168e-002
      -2.69857019e-001 -9.82342511e-002 1.68552287e-002 1.38684228e-001
      3.23032886e-001 -1.74008071e-001 1.40303411e-002 3.77590507e-002
      -1.76858202e-001 1.33713663e-001 -2.28683680e-001 9.48468000e-002
      -5.94072416e-002 1.82793796e-001 -2.31393754e-001 -8.04580450e-002
      2.70254940e-001 3.66892153e-003 -1.78776324e-001 2.38905892e-001
      2.77532697e-001 3.82353775e-002 3.64023782e-002 7.57518932e-002
      -1.89947113e-001 -1.14872061e-001 -4.06120457e-002 3.55551764e-002
      2.15908319e-001 3.46166790e-002 -7.24127516e-002 2.94383079e-001
      1.96188211e-001 8.01716298e-002 1.69067726e-001 -1.30776241e-001
      -4.09070812e-002 -1.47052884e-001 -2.25290671e-001
      -1.44661799e-001 -5.26635488e-003 1.27695903e-001 2.35131457e-001
      1.50152043e-001 -2.08914369e-001 2.65425034e-002 1.44131899e-001
      -5.62859923e-002 -3.10018182e-001 7.96480775e-002 2.38553524e-001
      2.15379134e-001 -2.90000916e-001 8.90512764e-002 7.65642226e-002
      1.57010313e-002 9.69759673e-002 1.07440330e-001 1.69214591e-001
      -3.16346914e-001 2.28821393e-002 -2.79245060e-003 -1.61182545e-002
      -1.81114390e-001 2.67246719e-002 3.57695781e-002 6.14511929e-002
      2.03906849e-001 -1.22081503e-001 1.34801120e-001 1.60962150e-001
      -3.11564684e-001 -1.42411590e-001 2.63618622e-002 1.80983260e-001
      -1.86105654e-001 -2.56342560e-001 -2.15503529e-001
      -4.34286416e-001 -3.28115486e-002 1.37146711e-001 1.95218697e-002
      5.58907688e-002 -5.78838447e-003 8.33310261e-002 8.19267780e-002
      -3.43432128e-001 -5.75625777e-001 -2.12506488e-001
      -3.60037610e-002 -3.24541032e-001 1.40764624e-001 -1.70683295e-001
      2.62367457e-001 2.30584875e-001 -1.80570215e-001 2.77802087e-002
      -1.02144405e-002 -5.69711067e-002 1.75232056e-003 1.35266125e-001
      2.26523072e-001 1.11956224e-001 -1.66599393e-001 -1.67983845e-002
      -2.39721224e-001 1.04996957e-001 2.25936472e-001 1.13734573e-001
      2.22879246e-001 4.30114381e-002 1.25977680e-001 5.07209972e-002
      -6.39222097e-003 1.33857399e-001 -3.36653776e-002 8.03250261e-003
      1.15325533e-001 1.76166557e-002 4.75605018e-002 -2.09974088e-002
      -7.30761588e-002 -2.43681863e-001 1.06138662e-001 -5.35057373e-002
      7.91693032e-002 -1.42316177e-001 -7.92034492e-002 -2.75651794e-002
      2.05538958e-001 -1.62131876e-001 -1.75462082e-001 -2.59252489e-002
      4.52650525e-002 -1.89192444e-001 1.20880224e-001 -1.21873885e-001
      -5.33817001e-002 -8.81618634e-002 -2.85399377e-001
      -1.16596138e-003 -1.01386264e-001 -1.02558978e-001 8.02436844e-002
      -1.46756202e-001 -4.79175197e-003 3.07068322e-003 5.74180149e-002
      -6.67720363e-002 -1.74033806e-001 2.61144936e-001 2.02490926e-001
      -1.65487174e-002 3.82069200e-001 1.35346889e-001 8.22288543e-003
      2.14852944e-001 2.79913276e-001 -2.97365747e-002 2.00493842e-001
      -4.00475450e-002 -9.18873847e-002 4.53510098e-002 -1.49316562e-003
      1.79532021e-001 1.49983643e-002 1.29393980e-001 1.44883692e-001
      -4.96972166e-002 5.17326780e-002 -2.55159587e-001 4.10637148e-002
      -2.11968948e-003 -2.32198358e-001 -9.53196436e-002
      -2.40861177e-001 -1.45581245e-001 -1.34016111e-001 1.90782636e-001
      -1.81645691e-001 -4.16325293e-002 -8.18372369e-002 1.29004747e-001
      2.00367108e-001 3.20347100e-001 3.52778286e-001 -4.91759665e-002
      4.43675593e-002 -2.38366663e-001 -1.16541803e-001 -2.74257734e-002
      -9.95736476e-003 3.88814747e-001 -1.22329451e-001 -9.17195063e-003
      -1.91627666e-001 -1.10667069e-002 7.88522512e-002 -8.62407982e-002
      -2.34404877e-001 8.56986046e-002 2.17582196e-001 -1.30398855e-001
      -2.77310908e-001 -2.94483721e-001 -1.39931902e-001 2.44180202e-001
      2.49606043e-001 4.09855992e-002 -6.91010337e-003 -1.51591092e-001
      -6.92639947e-001 -3.25712204e-001 3.93229164e-002 -1.23895854e-001
      -1.66417509e-002 -1.12946488e-001 -3.40053774e-002 2.10821062e-001
      3.00126821e-001 4.18889113e-002 -2.26836830e-001 -2.76809067e-001
      6.50043637e-002 4.06881899e-001 -2.11215741e-003 -2.05056041e-001
      4.80792411e-002 -2.56768107e-001 -2.19864860e-001 -8.11440647e-002
      -1.12853251e-001 1.78608939e-001 -1.74499989e-001 1.92595601e-001
      -2.83398479e-002 -7.32421177e-003 -2.08329722e-001
      -2.60855734e-001 -4.30967748e-001 -3.82165946e-002
      -9.93885323e-002 -2.18566313e-001 1.37655675e-001 1.61691204e-001
      -1.32395446e-001 2.64918804e-002 4.62168306e-002 -1.01375744e-001
      7.16024190e-002 -1.05927639e-001 -7.05776095e-001 4.66902107e-001
      1.59994796e-001 2.73208529e-001 -2.97021959e-002 -1.94359317e-001
      6.30894527e-002 3.15682530e-001 -3.00169021e-001 -3.77895564e-001
      1.47228763e-001 6.08835276e-003 1.53629214e-001 1.67923406e-001
      1.02817841e-001 9.64646041e-002 1.66623831e-001 -1.88612714e-001
      -1.43468276e-001 8.50674361e-002 1.06646791e-001 3.32415826e-003
      -2.76001930e-001 2.42517814e-002 -3.61739725e-001 1.98916927e-001
      -9.99889243e-003 -3.24313670e-001 -1.16550669e-001
      -1.64714053e-001 -2.68336944e-002 1.41035452e-001 -4.12223302e-002
      -4.61398929e-001 2.14819893e-001 3.76537107e-002 -3.18486035e-001
      2.96188481e-002 6.31923452e-002 -1.46519676e-001 -1.72472373e-001
      -1.77808851e-001 -1.07827615e-002 4.86767828e-001 -1.26560569e-001
      -1.17877401e-001 1.50226299e-002 -3.16419512e-001 -7.57134482e-002
      1.22608602e-001 2.30779797e-001 -5.73235331e-003 4.03835148e-001
      6.48159608e-002 -1.36132007e-002 1.47226423e-001 3.19525838e-001
      -1.57144457e-001 5.58848232e-002 -3.02079678e-001 -2.34558538e-001
      1.48057863e-001 -1.74748674e-001 4.99769151e-002 4.73474078e-002
      3.24649036e-001 1.57084599e-001 -5.49813844e-002 -9.22409669e-002
      -2.84839153e-001 -3.10134113e-001 1.21332325e-001 4.44652960e-002
      1.33173779e-001 2.02406868e-001 -1.44724265e-001 3.04388325e-003
      -3.06809455e-001 -3.60352069e-001 -2.97538098e-002 2.70170689e-001
      -4.71490361e-002 4.51349020e-002 1.82835478e-002 6.72320426e-002
      6.18134961e-002 7.28833005e-002 -3.22530299e-001 -1.00369841e-001
      2.20181271e-001 -1.60925433e-001 -2.15006590e-001 2.06562966e-001
      3.00345104e-002 1.70095831e-001 -2.83858087e-002 -1.31080942e-002
      -3.86276364e-001 -2.85397708e-001 1.45474777e-001 3.20749760e-001
      6.16998039e-002 3.01410586e-001 3.27649146e-001 4.26396355e-002
      3.38396162e-001 4.55562957e-002 3.24617811e-002 -1.73125267e-001
      1.52904410e-002 1.09215103e-001 1.42314881e-001 -2.84346968e-001
      2.35186256e-002 -3.85974854e-001 -4.51903582e-001 -3.89317214e-001
      2.78889298e-001 2.63574123e-001 3.90598476e-002 2.65887469e-001
      1.55399024e-001 1.43365905e-001 1.82271779e-001 1.06142186e-001
      8.26980919e-002 -7.47687221e-002 -3.74733540e-003 -2.91015625e-001
      -5.56331640e-003 3.65468442e-001 2.12007821e-001 1.88793808e-001
      -4.42147218e-002 -7.98075125e-002 4.78010327e-002 4.71647419e-002
      2.48628169e-001 -9.85299274e-002 5.10309935e-002 4.55569662e-002
      -1.59234226e-001 -2.27984458e-001 -1.10748760e-001
      -1.55227974e-001 8.80889874e-003 -2.26190791e-001 9.21185762e-002
      -3.90890427e-002 1.58831313e-001 -2.16544434e-001 -4.55059670e-002
      -4.50680479e-002 2.59299055e-002 6.99428916e-002 3.13865729e-002
      -1.59582987e-001 1.17461309e-001 1.73939526e-001 2.37125412e-001
      -5.11751883e-002 -7.35417977e-002 1.60032213e-001 1.10365175e-001
      1.02843247e-001 -3.05691771e-002 3.42195809e-001 -3.51177901e-002
      -2.46535968e-002 -1.08583368e-001 -1.53956413e-001 2.93133914e-001
      1.22006685e-001 2.05270976e-001 -6.84670731e-003 2.25053340e-001
      3.36893052e-001 2.47300506e-001 -3.84874761e-001 -3.87665592e-002
      -9.41200331e-002 5.65199414e-003 1.92938873e-003 -3.33178759e-001
      7.37468246e-003 6.42352924e-002 9.78772566e-002 -8.59549642e-002
      6.24647699e-002 9.30170938e-002 9.31290165e-003 6.93256482e-002
      -1.22963741e-001 -3.02873105e-001 1.83731273e-001 1.16273172e-001
      -2.83841550e-001 -1.94097430e-001 1.65612891e-001 8.48659128e-003
      1.19675897e-001 -5.72640374e-002 -4.14698832e-002 5.82113117e-002
      1.20363981e-001 -4.06842232e-001 -1.49688572e-001 -1.97385736e-002
      2.00418591e-001 -3.22456211e-002 -2.63805181e-001 1.64279923e-001
      2.00500675e-002 -1.25271767e-001 -1.99218974e-001 -6.08093999e-002
      -3.54193375e-002 -2.99983859e-001 -1.26422524e-001
      -6.68429136e-002 -1.09530859e-001 -6.58844784e-002
      -6.66026725e-003 -1.31063074e-001 -3.69841427e-001 1.75290614e-001
      -3.83299321e-001 -1.45415232e-001 6.29039854e-002 4.52432595e-002
      -2.20484227e-001 -1.90379787e-002 -8.39260966e-002
      -1.92677319e-001 2.56242514e-001 1.76121250e-001 -7.38375112e-002
      -1.41287223e-001 -7.12222904e-002 -3.52548598e-003
      -2.26889119e-001 -2.06239820e-001 -9.48211998e-002
      -6.03093468e-002 -1.25736028e-001 -6.20140731e-002 1.30782500e-001
      -1.02782927e-001 3.02674264e-001 4.97707613e-002 7.18402714e-002
      -2.30302632e-001 8.80170688e-002 -1.83757484e-001 -7.36833662e-002
      3.01685333e-001 2.53735646e-003 -1.01202071e-001 1.85399614e-002
      -5.05409539e-002 -2.89341003e-001 -4.06589769e-002
      -1.75496060e-002 -1.35815576e-001 2.54977435e-001 -2.73204356e-001
      -9.73224416e-002 1.05823316e-001 -2.12537065e-001 -3.80873054e-001
      -2.85236031e-001 -2.22242430e-001 -1.36251539e-001
      -5.57846539e-002 2.79216945e-001 3.74503255e-001 1.40317772e-002
      3.62373404e-002 -3.09865594e-001 -2.26061165e-001 3.80562544e-002
      -3.38187516e-001 -2.44513571e-001 -3.53023022e-001 1.85114592e-001
      1.21192979e-002 -7.84529224e-002 -2.38424400e-003 -1.96921155e-001
      -5.92296682e-002 -2.10733578e-001 -1.37967527e-001
      -3.06332439e-001 3.09574883e-002 5.80419898e-002 -5.95045835e-002
      -7.45783225e-002 -4.85184528e-002 1.63834870e-001 1.04347706e-001
      -2.51532316e-001 -2.31205747e-001 1.06353462e-002 3.30257744e-001
      -8.21662620e-002 -7.55765662e-002 -2.56668806e-001
      -1.06630906e-001 7.99583942e-002 -2.09117785e-001 9.50255767e-002
      3.65020335e-001 -3.22634578e-002 -9.68585461e-002 -8.75106230e-002
      -4.59155351e-001 -6.04652390e-002 9.37993079e-002 -1.26561046e-001
      2.51711737e-002 3.52281779e-002 -1.23468339e-001 -3.56454812e-002
      -1.64831191e-001 -9.28158909e-002 2.58717000e-001 7.25690961e-001
      -5.31427749e-002 1.22648977e-001 -1.68560952e-001 1.24492042e-001
      -1.80555508e-001 -6.66397661e-002 -1.00981571e-001 1.77238554e-001
      3.43696147e-001 -2.77062088e-001 -1.58061013e-001 -1.39925973e-002
      8.15511122e-003 -8.75534639e-002 -1.20728768e-001 -2.80156165e-001
      -1.97147056e-001 5.37249558e-002 2.15481836e-002 9.43612158e-002
      -2.60274023e-001 1.06522374e-001 -3.40573907e-001 -6.71194792e-002
      2.45390460e-001 -3.10149670e-001 1.24194257e-001 5.20723760e-002
      1.78606108e-001 -1.65796697e-001 -1.48092121e-001 -5.67765310e-002
      3.74574065e-001 -9.22966525e-002 -9.95777082e-003 1.39780454e-002
      -1.74472868e-001 -1.38135970e-001 2.78845094e-002 3.94857973e-001
      1.83403954e-001 -7.01141804e-002 8.43449235e-002 -7.07710981e-002
      1.43713519e-001 -2.20250651e-001 -2.92898845e-002 -2.74164826e-001
      3.98752213e-001 8.44204724e-002 5.14115766e-002 2.76354015e-001
      -1.26927361e-001 1.47696957e-001 7.92506412e-002 2.26274058e-001
      7.83874467e-002 -1.71267822e-001 -2.22480193e-001 3.63463052e-002
      -1.26625687e-001 5.18724993e-002 1.55690029e-001 1.34512976e-001
      -9.06988010e-002 1.04692109e-001 -7.44630024e-003 -4.68817428e-002
      5.07371984e-002 -2.04368196e-002 -1.42102227e-001 -6.08534366e-002
      -2.37902701e-001 -1.95927069e-001 -1.94867387e-001 6.15493357e-002
      9.27204788e-002 9.91852134e-002 2.28723660e-001 9.37081575e-002
      3.95742893e-001 -8.36348087e-002 -4.26078141e-002 -3.50117832e-002
      -1.28219172e-001 5.98005317e-002 1.71679243e-001 -1.82867851e-002
      1.42130151e-001 2.81369090e-001 1.84237629e-001 -1.07940294e-001
      -4.37707826e-002 2.60115862e-001 -1.40293106e-001 -7.30662420e-002
      -1.19892731e-002 4.19785053e-001 1.93483010e-001 -8.16321895e-002
      3.17679018e-001 2.12762624e-001 6.18104041e-002 -1.88042838e-002
      -6.82541355e-002 4.10078280e-002 -5.05632795e-002 2.39781141e-001
      7.73644149e-002 -3.67239374e-003 -1.42367676e-001 1.23550795e-001
      2.66569793e-001 1.70878410e-001 1.99734867e-001 3.98412019e-001
      9.16968212e-002 -2.16729507e-001 -5.18865734e-002 5.68370149e-002
      5.79806007e-002 2.14673057e-001 1.97872058e-001 -1.09610967e-002
      8.84856805e-002 -3.53758410e-002 3.24377120e-001 -6.37817532e-002
      1.07034601e-001 2.44085371e-001 -1.77408770e-001 8.62083212e-003
      -3.41924101e-001 1.35301068e-001 4.41010818e-002 8.39391500e-002
      3.83613780e-002 -1.10498881e-002 1.22754589e-001 -2.20061243e-002
      1.08543515e-001 1.17463112e-001 3.50511789e-001 3.20573181e-001
      1.28874734e-001 1.86339729e-002 2.04907116e-002 -1.22436121e-001
      -1.44947518e-003 1.11620918e-001 -1.75400265e-002 5.27741015e-001
      2.91059256e-001 1.19485922e-001 7.79489502e-002 -2.09963158e-001
      -2.78256778e-002 -4.17315438e-002 1.12315476e-001 -1.52908310e-001
      -6.18709177e-002 -2.40197051e-002 9.41110328e-002 -3.12813260e-002
      2.33087912e-002 -3.96990366e-002 -7.48119801e-002 -3.07272859e-002
      -1.22728594e-001 -1.99408978e-001 -1.83128685e-001
      -4.12653208e-001 -3.52476627e-001 -6.54955879e-002 2.68196166e-001
      7.46329734e-003 2.22409099e-001 7.24897757e-002 1.95813313e-001
      -1.25186756e-001 -2.78364383e-002 -1.35252312e-001
      -1.91668913e-001 -1.77807808e-002 -2.68488288e-001 1.19774424e-001
      3.32140595e-001 5.63959144e-002 -8.05035457e-002 -6.19186342e-001
      -4.67286408e-001 -1.09403715e-001 2.12097645e-001 2.07665712e-001
      5.46202421e-001</_></support_vectors>
  <decision_functions>
    <_>
      <sv_count>1</sv_count>
      <rho>-2.0037602251968596e+000</rho>
      <alpha>
        1.</alpha>
      <index>
        0</index></_></decision_functions></my_svm>
</opencv_storage>
